tree
version=v2
num_class=1
num_tree_per_iteration=1
label_index=0
max_feature_idx=83
objective=regression
feature_names=Column_0 Column_1 Column_2 Column_3 Column_4 Column_5 Column_6 Column_7 Column_8 Column_9 Column_10 Column_11 Column_12 Column_13 Column_14 Column_15 Column_16 Column_17 Column_18 Column_19 Column_20 Column_21 Column_22 Column_23 Column_24 Column_25 Column_26 Column_27 Column_28 Column_29 Column_30 Column_31 Column_32 Column_33 Column_34 Column_35 Column_36 Column_37 Column_38 Column_39 Column_40 Column_41 Column_42 Column_43 Column_44 Column_45 Column_46 Column_47 Column_48 Column_49 Column_50 Column_51 Column_52 Column_53 Column_54 Column_55 Column_56 Column_57 Column_58 Column_59 Column_60 Column_61 Column_62 Column_63 Column_64 Column_65 Column_66 Column_67 Column_68 Column_69 Column_70 Column_71 Column_72 Column_73 Column_74 Column_75 Column_76 Column_77 Column_78 Column_79 Column_80 Column_81 Column_82 Column_83
feature_infos=[1589:1709] [0:1709.5] [0:1710] [0:1710.5] [0:1711] [0:1711.5] [0:1712] [0:1712.5] [0:1713] [0:1713.5] [0:1714] [0:1714.5] [0:1715] [0:1715.5] [0:1716] [1:404] [0:405] [0:405] [0:455] [0:500] [0:621] [0:668] [0:667] [0:667] [0:674] [0:674] [0:674] [0:674] [0:674] [0:672] [1588:1708.5] [1587.5:1708] [1587:1707.5] [1586.5:1707] [1586:1706.5] [1585.5:1706] [1585:1705.5] [1584.5:1705] [1584:1704.5] [1583.5:1704] [1582.5:1703.5] [1582:1703] [1581:1702.5] [1580:1702] [1575:1701] [1:385] [1:382] [1:376] [1:375] [1:377] [1:377] [1:385] [1:386] [1:385] [1:380] [1:379] [1:402] [1:369] [1:423] [1:483] [1588.75:1708.75] [-0.99502485990524292:0.99180328845977783] [9:1935] [31:854] [-0.94229185581207275:0.96234309673309326] [0.5:8.5] [1584.8409423828125:1706.030029296875] [1592.040771484375:1711.0799560546875] [0.84033203125:17.186279296875] [1.0491943359375:25.6834716796875] [-11.7279052734375:21.14111328125] [-100:208] [-143:404] [-401:208] [-100:87.666783929688947] [-100:36.344983427044859] [-100:27.474308946629257] [-100:24.338318577458157] [-100:21.623635746672885] [-0.0041242977645814909:0.0023191189064914589] [-0.0026669257537335475:0.0015650406384098287] [-0.0019949208208705862:0.0010815229888633496] [-0.001754221076274109:0.00087740332829201067] [-0.0015546935508650105:0.00068556050881156004]
tree_sizes=782 789 786 783 789 791 791 781 779 785 795 786 794 789 783 787 794 791 783 783 785 787 787 784 776 790 802 782 792 787 792 791 790 781 780 780 790 783 793 785 788 789 790 786 797 784 787 787 792 779 781 796 789 795 788 782 802 783 792 775 790 785 789 780 792 787 788 782 781 788 784 772 787 782 800 776 785 789 780 788 794 779 794 783 786 787 782 777 782 780 796 783 783 791 780 785 779 775 790 787

Tree=0
num_leaves=8
num_cat=0
split_feature=15 45 45 65 73 63 63
split_gain=6221.83 2396.16 2186.74 1008.33 821.784 721.871 677.475
threshold=3.5000000000000004 3.5000000000000004 3.5000000000000004 3.2500000000000004 1.0000000180025095e-35 74.500000000000014 66.500000000000014
decision_type=2 2 2 2 2 2 2
left_child=1 3 6 -1 -4 -3 -2
right_child=2 5 4 -5 -6 -7 -8
leaf_value=0.0020514049947909954 -0.0081490440552502413 -0.0020137075869534832 0.0010271182055094964 -0.020120643279977771 0.0033724484792059407 0.0050101488966785889 -0.00078918539140210319
leaf_count=449133 11516 13482 638423 1854 170527 588459 526605
internal_value=0 0.0575937 -0.0450177 0.00247106 -0.0121503 0.0988919 -0.0944259
internal_count=2399999 1052928 1347071 450987 808950 601941 538121
shrinkage=1


Tree=1
num_leaves=8
num_cat=0
split_feature=61 61 61 73 82 47 63
split_gain=8950.91 1953.62 1315.02 745.852 744.42 586.738 472.94
threshold=0.11369509249925615 -0.51657509803771962 0.5962963104248048 -1.0000000180025095e-35 0.00028299428610903632 2.5000000000000004 74.500000000000014
decision_type=2 2 2 2 2 2 2
left_child=1 5 4 -3 -2 -1 -4
right_child=2 3 6 -5 -6 -7 -8
leaf_value=-0.0088083377481714947 0.0013906158891699816 -0.0024480093513755334 -0.0041228615912651881 -0.00036562532441786688 -0.0071582988385574505 -0.003010081082305837 0.0036077560248337598
leaf_count=16333 614826 196152 7263 737940 9314 425546 392625
internal_value=0 -0.0526863 0.0707937 -0.0267643 0.0421002 -0.107482 0.115577
internal_count=2399999 1375971 1024028 934092 624140 441879 399888
shrinkage=0.03


Tree=2
num_leaves=8
num_cat=0
split_feature=61 61 61 63 82 47 63
split_gain=8421.87 1863.95 1237.26 733.251 700.386 644.138 444.95
threshold=0.11369509249925615 -0.66491228342056263 0.5962963104248048 74.500000000000014 0.00028299428610903632 2.5000000000000004 74.500000000000014
decision_type=2 2 2 2 2 2 2
left_child=1 5 4 -3 -2 -1 -4
right_child=2 3 6 -5 -6 -7 -8
leaf_value=-0.010591194437907625 0.0013488971155363155 -0.0049945128691739477 -0.0039991923460417885 -0.00080505940871507102 -0.0069435732547259753 -0.0033642795679018943 0.0034995237016217742
leaf_count=11568 614826 39049 7263 1042065 9314 283289 392625
internal_value=0 -0.0511057 0.0686699 -0.0318799 0.0408371 -0.121597 0.112109
internal_count=2399999 1375971 1024028 1081114 624140 294857 399888
shrinkage=0.03


Tree=3
num_leaves=8
num_cat=0
split_feature=61 61 61 82 64 47 16
split_gain=7924.1 1755.01 1164.09 658.953 545.017 520.7 432.799
threshold=0.11369509249925615 -0.51657509803771962 0.5962963104248048 0.00028299428610903632 -0.24166110157966611 2.5000000000000004 4.5000000000000009
decision_type=2 2 2 2 2 2 2
left_child=1 5 3 -2 -3 -1 -4
right_child=2 4 6 -5 -6 -7 -8
leaf_value=-0.008306000029472755 0.0013084302774580342 -0.0015584092923045412 0.0049850823931926547 -0.0067352882927244652 -9.9512956801780185e-05 -0.0028433099501500208 0.0026957838782427439
leaf_count=16333 614826 416536 98963 9314 517556 425546 300925
internal_value=0 -0.0495726 0.0666097 0.039612 -0.025003 -0.101509 0.108746
internal_count=2399999 1375971 1024028 624140 934092 441879 399888
shrinkage=0.03


Tree=4
num_leaves=8
num_cat=0
split_feature=61 61 61 73 82 47 63
split_gain=7455.75 1674.07 1095.25 821.563 619.969 577.989 420.58
threshold=0.11369509249925615 -0.66491228342056263 0.5962963104248048 -1.0000000180025095e-35 0.00028299428610903632 2.5000000000000004 74.500000000000014
decision_type=2 2 2 2 2 2 2
left_child=1 5 4 -3 -2 -1 -4
right_child=2 3 6 -5 -6 -7 -8
leaf_value=-0.010024327561639236 0.0012691774850736967 -0.0024877641379993823 -0.003993848784844517 -0.00046587138564309062 -0.0065332514403714844 -0.0031780525507880972 0.003296978513843063
leaf_count=11568 614826 229952 7263 851162 9314 283289 392625
internal_value=0 -0.0480855 0.0646115 -0.0298647 0.0384236 -0.114891 0.105484
internal_count=2399999 1375971 1024028 1081114 624140 294857 399888
shrinkage=0.03


Tree=5
num_leaves=8
num_cat=0
split_feature=61 61 61 73 82 79 16
split_gain=7018.5 1670.49 927.022 703.339 534.909 506.091 410.705
threshold=0.14495798945426944 -0.51657509803771962 0.5962963104248048 -1.0000000180025095e-35 0.00028299428610903632 0.00068845390662227541 3.5000000000000004
decision_type=2 2 2 2 2 2 2
left_child=1 5 4 -3 -2 -1 -4
right_child=2 3 6 -5 -6 -7 -8
leaf_value=-0.0027531643279550193 0.0013016142392116702 -0.0022108468207894419 0.0052053606005622128 -0.000239374080084903 -0.0062314091733996343 -0.011309152718618463 0.0026358421993236884
leaf_count=435557 567759 206453 67493 775397 8623 6322 332395
internal_value=0 -0.0447829 0.0653082 -0.0217977 0.0396293 -0.0958545 0.102319
internal_count=2399999 1423729 976270 981850 576382 441879 399888
shrinkage=0.03


Tree=6
num_leaves=8
num_cat=0
split_feature=61 61 61 73 82 47 63
split_gain=6609.85 1502.25 967.345 732.868 551.46 540.84 397.461
threshold=0.11369509249925615 -0.66491228342056263 0.5962963104248048 -1.0000000180025095e-35 0.00028299428610903632 2.5000000000000004 74.500000000000014
decision_type=2 2 2 2 2 2 2
left_child=1 5 4 -3 -2 -1 -4
right_child=2 3 6 -5 -6 -7 -8
leaf_value=-0.0096198477827438237 0.0011965687469431925 -0.0023439809031865892 -0.0039817028682158917 -0.00043423736176225754 -0.0061626782911903136 -0.0029969439536087898 0.0031062719834806661
leaf_count=11568 614826 229952 7263 851162 9314 283289 392625
internal_value=0 -0.045276 0.0608362 -0.0280151 0.0362238 -0.108562 0.0992496
internal_count=2399999 1375971 1024028 1081114 624140 294857 399888
shrinkage=0.03


Tree=7
num_leaves=8
num_cat=0
split_feature=61 61 63 16 63 17 45
split_gain=6221.33 1533.88 897.525 877.045 616.341 569.361 532.669
threshold=0.14495798945426944 -0.39863014221191401 74.500000000000014 4.5000000000000009 74.500000000000014 13.500000000000002 15.500000000000002
decision_type=2 2 2 2 2 2 2
left_child=1 5 6 -4 -3 -1 -2
right_child=2 4 3 -5 -6 -7 -8
leaf_value=-0.0017462269137737769 -0.0033234123992365435 -0.0047513027240229742 0.0037604552727076657 0.0015207836806121105 -0.00023643011684730184 -0.0036780136975286047 -0.039678079823440897
leaf_count=418455 23673 28242 199163 753066 772208 204824 368
internal_value=0 -0.0421634 0.0614879 0.066308 -0.0131917 -0.0793695 -0.129405
internal_count=2399999 1423729 976270 952229 800450 623279 24041
shrinkage=0.03


Tree=8
num_leaves=8
num_cat=0
split_feature=61 61 63 63 16 17 76
split_gain=5900.68 1786.58 765.049 685.72 666.585 535.665 400.723
threshold=0.31091010570526129 -0.39863014221191401 74.500000000000014 74.500000000000014 4.5000000000000009 13.500000000000002 -12.843972195396962
decision_type=2 2 2 2 2 2 2
left_child=1 5 6 -3 -4 -1 -2
right_child=2 3 4 -5 -6 -7 -8
leaf_value=-0.0016938400817195914 -0.048158009028710549 -0.0045661528091852747 0.0038725995539388596 -0.000104885432652292 0.00177430592378224 -0.0035676737440886409 -0.0032689541465404201
leaf_count=418455 180 32100 175954 941155 607328 204824 20003
internal_value=0 -0.0351779 0.0698999 -0.00840158 0.0748561 -0.0769885 -0.122413
internal_count=2399999 1596534 803465 973255 783282 623279 20183
shrinkage=0.03


Tree=9
num_leaves=8
num_cat=0
split_feature=61 61 63 73 15 17 45
split_gain=5551.9 1680.95 719.817 687.004 537.755 503.961 470.735
threshold=0.31091010570526129 -0.39863014221191401 74.500000000000014 1.0000000180025095e-35 2.5000000000000004 13.500000000000002 15.500000000000002
decision_type=2 2 2 2 2 2 2
left_child=1 5 6 -3 -4 -1 -2
right_child=2 3 4 -5 -6 -7 -8
leaf_value=-0.0016430249393657738 -0.0029452180662426328 -0.00064309157026635306 0.002706869193786955 0.0013510706711411388 0.0010075333932510748 -0.0034606441034628838 -0.037687707053986504
leaf_count=418455 19826 778723 539643 194532 243639 204824 357
internal_value=0 -0.0341226 0.0678029 -0.00814955 0.0726105 -0.0746789 -0.118744
internal_count=2399999 1596534 803465 973255 783282 623279 20183
shrinkage=0.03


Tree=10
num_leaves=8
num_cat=0
split_feature=61 61 61 73 82 48 16
split_gain=5230.79 1258.54 836.525 680.585 513.522 396.012 357.664
threshold=0.11369509249925615 -0.66491228342056263 0.5962963104248048 -1.0000000180025095e-35 0.00028299428610903632 5.5000000000000009 3.5000000000000004
decision_type=2 2 2 2 2 2 2
left_child=1 5 4 -3 -2 -1 -4
right_child=2 3 6 -5 -6 -7 -8
leaf_value=-0.0053358733947029913 0.0010429305962739463 -0.0021832968689829047 0.0046886775347920219 -0.00034286497468464665 -0.0060590361222600782 -0.0024392218784162899 0.0022904917258588114
leaf_count=51598 614826 229952 67493 851162 9314 243259 332395
internal_value=0 -0.0402776 0.0541197 -0.024478 0.0312305 -0.0982061 0.0898435
internal_count=2399999 1375971 1024028 1081114 624140 294857 399888
shrinkage=0.03


Tree=11
num_leaves=8
num_cat=0
split_feature=15 46 45 65 82 45 73
split_gain=3566.77 1676.47 1180.39 1132.79 820.031 591.287 238.243
threshold=2.5000000000000004 8.5000000000000018 4.5000000000000009 3.2500000000000004 0.0002422621100214208 3.5000000000000004 1.0000000180025095e-35
decision_type=2 2 2 2 2 2 2
left_child=2 4 3 -1 -2 -3 -4
right_child=1 5 6 -5 -6 -7 -8
leaf_value=0.00067479529199269397 -0.0016691000347043218 -0.0010716797561829748 0.0025633200660977367 -0.024339300380038609 -0.0073194985127197588 0.00060012611587224494 0.0045560627076781648
leaf_count=406091 714971 276426 296341 1636 23912 614306 66316
internal_value=0 -0.026509 0.0560743 0.0191443 -0.061733 0.00270958 0.0975923
internal_count=2399999 1629615 770384 407727 738883 890732 362657
shrinkage=0.03


Tree=12
num_leaves=8
num_cat=0
split_feature=61 61 65 46 81 16 17
split_gain=4754.39 1273.75 907.017 833.638 655.485 467.698 364.395
threshold=-1.0000000180025095e-35 0.40114942193031317 3.2500000000000004 8.5000000000000018 -0.00022939759083917855 4.5000000000000009 13.500000000000002
decision_type=2 2 2 2 2 2 2
left_child=3 2 -2 4 -1 -3 -5
right_child=1 5 -4 6 -6 -7 -8
leaf_value=0.0015493508294901091 0.00037346690466896808 0.0036864502624302554 -0.023453503241139269 -2.5497658330793972e-05 -0.0025781097947092965 0.0017363624596803519 -0.0016766076634883236
leaf_count=37171 702123 144200 1441 331865 513951 479919 189329
internal_value=0 0.0400025 0.0108204 -0.0495295 -0.0766566 0.0728984 -0.0208437
internal_count=2399999 1327683 703564 1072316 551122 624119 521194
shrinkage=0.03


Tree=13
num_leaves=8
num_cat=0
split_feature=61 61 65 61 81 47 16
split_gain=4473.36 1198.43 853.404 798.391 487.699 458.931 440.011
threshold=-1.0000000180025095e-35 0.40114942193031317 3.2500000000000004 -0.66734144091606129 -0.00022939759083917855 2.5000000000000004 4.5000000000000009
decision_type=2 2 2 2 2 2 2
left_child=3 2 -2 5 -5 -1 -3
right_child=1 6 -4 4 -6 -7 -8
leaf_value=-0.009469540552688907 0.0003622628935991932 0.0035758575365156826 -0.022750385566469251 0.0019230587095809093 -0.0011743626383802371 -0.0026770423739693617 0.0016842717577704382
leaf_count=9317 702123 144200 1441 48696 774882 239421 479919
internal_value=0 0.0388024 0.0104957 -0.0480437 -0.03304 -0.0977189 0.0707115
internal_count=2399999 1327683 703564 1072316 823578 248738 624119
shrinkage=0.03


Tree=14
num_leaves=8
num_cat=0
split_feature=61 61 63 63 16 63 45
split_gain=4215.2 1347.52 672.553 664.208 576.447 485.808 445.117
threshold=0.31091010570526129 -0.39863014221191401 74.500000000000014 178.50000000000003 9.5000000000000018 66.500000000000014 15.500000000000002
decision_type=2 2 2 2 2 2 2
left_child=1 5 6 -3 -4 -1 -2
right_child=2 3 4 -5 -6 -7 -8
leaf_value=-0.0078638052450923177 -0.0030372066383868262 -0.00088035149615124804 0.0025626339148057961 0.00070199693061363236 0.00089266417161628362 -0.0018619293062973462 -0.036823042429484136
leaf_count=12404 19826 551300 478023 421955 305259 610875 357
internal_value=0 -0.0297331 0.0590807 -0.00647695 0.0637279 -0.066047 -0.121245
internal_count=2399999 1596534 803465 973255 783282 623279 20183
shrinkage=0.03


Tree=15
num_leaves=8
num_cat=0
split_feature=61 63 61 46 68 17 16
split_gain=3989.6 1089.83 983.23 770.613 750.006 617.734 340.219
threshold=-1.0000000180025095e-35 74.500000000000014 0.49647887051105505 8.5000000000000018 5.9305419921875009 7.5000000000000009 3.5000000000000004
decision_type=2 2 2 2 2 2 2
left_child=3 4 -3 5 -2 -1 -5
right_child=1 2 -4 6 -6 -7 -8
leaf_value=-0.00094476020511581659 -0.0031997115805051757 0.00054759055655233008 0.0022288310380095345 0.0027430908649305132 -0.029893565018319013 -0.0029861872133636453 -0.00071342533050732361
leaf_count=227471 37551 752118 537042 27091 972 323651 494103
internal_value=0 0.0366446 0.0415993 -0.0453721 -0.129146 -0.0714545 -0.0177909
internal_count=2399999 1327683 1289160 1072316 38523 551122 521194
shrinkage=0.03


Tree=16
num_leaves=8
num_cat=0
split_feature=61 61 16 73 63 47 48
split_gain=3755.96 1013.08 701.417 636.086 620.383 472.459 431.712
threshold=0.11369509249925615 -0.66491228342056263 9.5000000000000018 -1.0000000180025095e-35 74.500000000000014 2.5000000000000004 5.5000000000000009
decision_type=2 2 2 2 2 2 2
left_child=1 5 4 -3 -2 -1 -4
right_child=2 3 6 -5 -6 -7 -8
leaf_value=-0.0085309190636331488 -0.0032685511368765164 -0.0019994868582985598 -0.0020517456821233506 -0.00022017401820588698 0.0021967694552123317 -0.0023402988378995685 0.00080250139741253382
leaf_count=11568 19325 229952 55100 851162 590321 283289 359282
internal_value=0 -0.0341314 0.045861 -0.0199549 0.0674499 -0.0861084 0.0140978
internal_count=2399999 1375971 1024028 1081114 609646 294857 414382
shrinkage=0.03


Tree=17
num_leaves=8
num_cat=0
split_feature=61 61 73 63 16 81 45
split_gain=3566.5 1163.51 674.834 566.282 519.461 426.745 418.721
threshold=0.31091010570526129 -0.45330013334751124 1.0000000180025095e-35 74.500000000000014 4.5000000000000009 -0.00022939759083917855 15.500000000000002
decision_type=2 2 2 2 2 2 2
left_child=1 5 -3 6 -5 -1 -2
right_child=3 2 -4 4 -6 -7 -8
leaf_value=0.0012911287088675223 -0.0027520147930688512 -0.00060984315574888134 0.0013014272029848112 0.0031947325926490223 0.0013421232155538293 -0.0021403941409360622 -0.035522329931943444
leaf_count=34845 19826 830553 208161 175954 607328 522975 357
internal_value=0 -0.0273503 -0.00756014 0.0543455 0.0586103 -0.0642003 -0.111138
internal_count=2399999 1596534 1038714 803465 783282 557820 20183
shrinkage=0.03


Tree=18
num_leaves=8
num_cat=0
split_feature=61 63 61 63 68 68 16
split_gain=3376.86 954.606 850.766 743.693 1183.05 706.943 668.434
threshold=-1.0000000180025095e-35 74.500000000000014 0.49647887051105505 66.500000000000014 5.5106811523437509 5.9305419921875009 13.500000000000002
decision_type=2 2 2 2 2 2 2
left_child=3 5 -3 4 -1 -2 -5
right_child=1 2 -4 6 -6 -7 -8
leaf_value=-0.005311139060160841 -0.0029887057813845069 0.00049899400997965621 0.0020629828612996918 -0.00066053379439173819 -0.03757577591741041 -0.028905648725319803 -0.0023219928302057129
leaf_count=17581 37551 752118 537042 745111 1086 972 308538
internal_value=0 0.0337139 0.0383513 -0.0417435 -0.239698 -0.121459 -0.0382357
internal_count=2399999 1327683 1289160 1072316 18667 38523 1053649
shrinkage=0.03


Tree=19
num_leaves=8
num_cat=0
split_feature=61 61 63 63 65 17 73
split_gain=3196.8 1147.9 666.503 585.818 567.944 567.246 415.574
threshold=-0.24818840622901914 0.40114942193031317 178.50000000000003 66.500000000000014 2.2500000000000004 7.5000000000000009 1.0000000180025095e-35
decision_type=2 2 2 2 2 2 2
left_child=3 2 -2 4 -1 -5 -3
right_child=1 6 -4 5 -6 -7 -8
leaf_value=-0.0065110012089210061 -0.00055915921128668015 0.0014288173949392922 0.0010612561632554339 -0.000272727996528324 -0.058867352591857075 -0.0019365921954310498 0.0034107437713650273
leaf_count=16142 530602 506580 401964 278364 188 548620 117539
internal_value=0 0.0268652 0.00464243 -0.049592 -0.237275 -0.0458851 0.0600699
internal_count=2399999 1556685 932566 843314 16330 826984 624119
shrinkage=0.03


Tree=20
num_leaves=8
num_cat=0
split_feature=61 61 65 63 68 82 73
split_gain=3007.83 1080.01 646.878 551.18 1258.32 515.422 390.968
threshold=-0.24818840622901914 0.40114942193031317 3.2500000000000004 66.500000000000014 5.9305419921875009 0.00028299428610903632 1.0000000180025095e-35
decision_type=2 2 2 2 2 2 2
left_child=3 2 -2 4 -1 -5 -3
right_child=1 6 -4 5 -6 -7 -8
leaf_value=-0.0052279658353855561 0.00016864524266891346 0.0013859530220358012 -0.018502263377295498 -0.0012546693541011708 -0.048322224884990626 -0.0083082328067828632 0.0033084223318898872
leaf_count=15696 930892 506580 1674 817539 634 9445 117539
internal_value=0 0.0260593 0.00450314 -0.0481044 -0.230161 -0.0445085 0.0582679
internal_count=2399999 1556685 932566 843314 16330 826984 624119
shrinkage=0.03


Tree=21
num_leaves=8
num_cat=0
split_feature=61 82 77 61 81 61 18
split_gain=2836.69 865.164 1246.73 829.282 663.039 597.286 321.758
threshold=-0.11062163487076758 0.00028299428610903632 -4.5663115428771945 0.63739085197448742 -0.00022939759083917855 -0.66491228342056263 103.50000000000001
decision_type=2 2 2 2 2 2 2
left_child=4 3 -3 -2 6 -6 -1
right_child=1 2 -4 -5 5 -7 -8
leaf_value=0.0019672079698736513 0.00058427953244607935 0.10117484154123248 -0.0055563367759771179 0.002364483658935144 -0.0025680382508551352 -0.00091510981872927155 -0.032310183641684781
leaf_count=61038 1053513 98 21531 303680 276878 683014 247
internal_value=0 0.0295902 -0.168913 0.0327541 -0.0399545 -0.046397 0.0609429
internal_count=2399999 1378822 21629 1357193 1021177 959892 61285
shrinkage=0.03


Tree=22
num_leaves=8
num_cat=0
split_feature=61 61 73 63 16 47 45
split_gain=2700.83 944.977 721.262 492.79 492.93 430.539 395.023
threshold=0.31091010570526129 -0.66491228342056263 -1.0000000180025095e-35 74.500000000000014 9.5000000000000018 2.5000000000000004 15.500000000000002
decision_type=2 2 2 2 2 2 2
left_child=1 5 -3 6 -5 -1 -2
right_child=3 2 -4 4 -6 -7 -8
leaf_value=-0.0079262648968059114 -0.002647342957566605 -0.0017228123731822477 1.5343163937603289e-06 0.0021400532369357885 0.00059562632306981399 -0.0020162366882927598 -0.034478584207053291
leaf_count=11568 19826 277846 1023831 478023 305259 283289 357
internal_value=0 -0.0238016 -0.0122174 0.0472939 0.0512728 -0.0749393 -0.107093
internal_count=2399999 1596534 1301677 803465 783282 294857 20183
shrinkage=0.03


Tree=23
num_leaves=8
num_cat=0
split_feature=61 63 16 68 46 64 16
split_gain=2555.24 926.203 1020.36 605.832 535.322 486.01 257.567
threshold=-0.24818840622901914 74.500000000000014 9.5000000000000018 5.1328735351562509 8.5000000000000018 -0.66526308655738819 3.5000000000000004
decision_type=2 2 2 2 2 2 2
left_child=4 3 -3 -2 5 -1 -6
right_child=1 2 -4 -5 6 -7 -8
leaf_value=-0.0050423292388952923 -0.002691023400963991 0.0015232390781060299 -5.1060547120460274e-05 -0.017749210502535591 0.0027412974293437083 -0.0017099758844866093 -0.00069656086818274655
leaf_count=43651 41628 861577 650925 2555 20778 410536 368349
internal_value=0 0.0240193 0.0281903 -0.118751 -0.0443388 -0.0676762 -0.0170982
internal_count=2399999 1556685 1512502 44183 843314 454187 389127
shrinkage=0.03


Tree=24
num_leaves=8
num_cat=0
split_feature=15 46 65 0 63 81 16
split_gain=1957.16 1232.65 848.777 1525.7 760.671 696.999 610.28
threshold=2.5000000000000004 8.5000000000000018 3.2500000000000004 1632.2500000000002 74.500000000000014 0.00027483578742181815 5.5000000000000009
decision_type=2 2 2 2 2 2 2
left_child=2 5 4 -4 -1 -2 -3
right_child=1 6 3 -5 -6 -7 -8
leaf_value=-0.0031816763932190303 -0.0013210442800508644 0.0020861073189596293 -0.047342099757600453 0.003963330014240778 0.0014979100299837955 -0.0063723200278698296 -0.00015841339112571159
leaf_count=32681 713391 127370 900 1239 735564 25492 763362
internal_value=0 -0.0196387 0.0415407 -0.587628 0.0432939 -0.0498449 0.00541755
internal_count=2399999 1629615 770384 2139 768245 738883 890732
shrinkage=0.03


Tree=25
num_leaves=8
num_cat=0
split_feature=61 64 65 81 73 63 16
split_gain=2366.57 881.492 882.576 824.848 472.884 413.364 140.11
threshold=0.31091010570526129 -0.24166110157966611 5.2500000000000009 0.00032220953195081429 1.0000000180025095e-35 74.500000000000014 9.5000000000000018
decision_type=2 2 2 2 2 2 2
left_child=1 3 -3 -1 5 -2 -6
right_child=4 2 -4 -5 6 -7 -8
leaf_value=-0.0012909610618173017 -0.0036748717664276485 -1.4364078135601122e-06 -0.068392676114159459 -0.0087007287518067397 0.0035782709732737551 0.0010994191053155234 0.0017103770919955708
leaf_count=723682 16781 858892 169 13791 91587 634795 60302
internal_value=0 -0.0222806 -0.000499594 -0.0476519 0.0442714 0.0325477 0.0945602
internal_count=2399999 1596534 859061 737473 803465 651576 151889
shrinkage=0.03


Tree=26
num_leaves=8
num_cat=0
split_feature=61 73 16 46 70 73 46
split_gain=2265.66 919.567 745.196 484.507 430.868 326.094 167.348
threshold=-0.26234818994998926 -1.0000000180025095e-35 10.500000000000002 5.5000000000000009 -2.2949829101562496 -1.0000000180025095e-35 10.500000000000002
decision_type=2 2 2 2 2 2 2
left_child=3 6 -3 4 -1 -5 -2
right_child=1 2 -4 5 -6 -7 -8
leaf_value=-0.0081266464224959509 -0.0015448537321937311 0.0015425631849073881 4.6025050683460603e-05 -0.0021532124733652652 -0.0021315632662341566 -0.00042661269842128184 -9.2255096897812152e-05
leaf_count=11340 154937 828100 469866 126850 231026 444378 133502
internal_value=0 0.0220065 0.0333609 -0.0429113 -0.0804053 -0.027002 -0.0290861
internal_count=2399999 1586405 1297966 813594 242366 571228 288439
shrinkage=0.03


Tree=27
num_leaves=8
num_cat=0
split_feature=61 63 68 16 81 77 16
split_gain=2154 736.786 1844.11 756.226 657.838 830.253 564.283
threshold=0.078461539000272765 74.500000000000014 5.9305419921875009 11.500000000000002 0.00032220953195081429 -4.5663115428771945 9.5000000000000018
decision_type=2 2 2 2 2 2 2
left_child=1 2 -1 -3 6 -6 -2
right_child=4 3 -4 -5 5 -7 -8
leaf_value=-0.0033506505651008829 0.0016777600815048436 -0.00010056740752446983 -0.036933283984197277 -0.0016066485895599391 0.076447974028331894 -0.0055447401680450634 0.00026318694442336655
leaf_count=48975 619730 802697 1517 479949 111 16180 430840
internal_value=0 -0.0268051 -0.145354 -0.0221378 0.0334942 -0.166017 0.0365886
internal_count=2399999 1333138 50492 1282646 1066861 16291 1050570
shrinkage=0.03


Tree=28
num_leaves=8
num_cat=0
split_feature=61 73 63 81 16 64 16
split_gain=2047.26 890.496 711.021 470.152 407.414 298.001 253.593
threshold=-0.26234818994998926 1.0000000180025095e-35 74.500000000000014 -0.00022939759083917855 3.5000000000000004 -0.76745486259460438 10.500000000000002
decision_type=2 2 2 2 2 2 2
left_child=3 2 -2 5 -5 -1 -3
right_child=1 6 -4 4 -6 -7 -8
leaf_value=-0.036658581795751065 -0.0037933599528046521 0.0027580023911774987 0.00040084123640222872 0.00094156127540327337 -0.001613005543287216 0.0017396497893650655 0.00099267911452754674
leaf_count=182 37516 189182 1239576 61187 702475 49750 120131
internal_value=0 0.0209193 0.00925391 -0.0407914 -0.0469435 0.0532886 0.0690813
internal_count=2399999 1586405 1277092 813594 763662 49932 309313
shrinkage=0.03


Tree=29
num_leaves=8
num_cat=0
split_feature=61 46 77 16 82 77 73
split_gain=1980.98 805.747 799.574 423.021 419.603 515.461 398.793
threshold=0.31091010570526129 8.5000000000000018 0.49018565077553305 5.5000000000000009 0.00028299428610903632 -4.5663115428771945 1.0000000180025095e-35
decision_type=2 2 2 2 2 2 2
left_child=1 2 -1 -3 6 -6 -2
right_child=4 3 -4 -5 5 -7 -8
leaf_value=-0.00036727677871900008 0.00097720593617855967 0.0016962216294949008 -0.0022743782684274392 -0.00023149653038344461 0.089264413253316341 -0.0045437836230992363 0.00269992993724165
leaf_count=409231 641154 120790 383801 682712 52 12842 149417
internal_value=0 -0.0203855 -0.043009 0.00194264 0.0405057 -0.13858 0.0434274
internal_count=2399999 1596534 793032 803502 803465 12894 790571
shrinkage=0.03


Tree=30
num_leaves=8
num_cat=0
split_feature=61 73 46 81 77 73 16
split_gain=1863.86 758.788 618.766 405.149 681.762 372.969 269.882
threshold=0.31091010570526129 1.0000000180025095e-35 8.5000000000000018 0.00032220953195081429 -4.5663115428771945 1.0000000180025095e-35 13.500000000000002
decision_type=2 2 2 2 2 2 2
left_child=1 2 -1 5 -5 -2 -3
right_child=3 6 -4 4 -6 -7 -8
leaf_value=-0.0015833283578983442 0.00094962420206960957 0.0012825933702815871 -0.00026079085026498456 0.074331985858805252 -0.0047375641000883704 0.0026158062096307061 -0.0006136975371329132
leaf_count=637241 641287 224374 637907 98 12683 149397 97012
internal_value=0 -0.0197739 -0.0307242 0.0392907 -0.137478 0.0421488 0.0236714
internal_count=2399999 1596534 1275148 803465 12781 790684 321386
shrinkage=0.03


Tree=31
num_leaves=8
num_cat=0
split_feature=61 73 16 17 46 16 63
split_gain=1797.99 829.04 644.824 454.968 545.993 370.722 159.598
threshold=-0.26234818994998926 -1.0000000180025095e-35 10.500000000000002 7.5000000000000009 5.5000000000000009 13.500000000000002 214.50000000000003
decision_type=2 2 2 2 2 2 2
left_child=3 6 -3 5 -5 -1 -2
right_child=1 2 -4 4 -6 -7 -8
leaf_value=0.00038778061894334298 -0.0013535877824984916 0.0014155683305460251 2.3349104671186204e-05 -0.0033664858713704842 -0.0011204972961846782 -0.002373674411957493 0.00016142355815778697
leaf_count=221986 195864 828100 469866 128129 408849 54630 92575
internal_value=0 0.019605 0.0303865 -0.0382284 -0.055215 -0.00525142 -0.0289097
internal_count=2399999 1586405 1297966 813594 536978 276616 288439
shrinkage=0.03


Tree=32
num_leaves=8
num_cat=0
split_feature=61 64 65 82 15 63 80
split_gain=1715.94 895.635 875.493 809.759 317.959 283.597 142.996
threshold=0.40114942193031317 -0.24166110157966611 5.2500000000000009 0.00028299428610903632 3.5000000000000004 219.50000000000003 0.00040539528634836187
decision_type=2 2 2 2 2 2 2
left_child=1 3 -3 -1 5 -2 -6
right_child=4 2 -4 -5 6 -7 -8
leaf_value=-0.0010733629283614095 0.0012042012643115208 0.00015843331424949863 -0.063118261514127555 -0.0078985316783457549 -6.683290618165219e-05 0.0027504278899099558 -0.0072351391691333365
leaf_count=799567 382448 960145 196 15972 90400 148682 2589
internal_value=0 -0.0158554 0.00484792 -0.0402353 0.0451137 0.0545692 -0.00888833
internal_count=2399999 1775880 960341 815539 624119 531130 92989
shrinkage=0.03


Tree=33
num_leaves=8
num_cat=0
split_feature=61 83 16 76 63 68 17
split_gain=1646.46 741.073 773.184 511.868 437.96 1120.84 462.905
threshold=-0.26234818994998926 0.00019698534237328031 9.5000000000000018 2.6867948950680711 66.500000000000014 5.9305419921875009 7.5000000000000009
decision_type=2 2 2 2 2 2 2
left_child=4 2 -2 -3 5 -1 -6
right_child=1 3 -4 -5 6 -7 -8
leaf_value=-0.0044009589587975873 0.0012913371792171769 -0.024720248145916099 -7.8338118159690807e-05 -0.0021418926819963507 1.7235838210860354e-05 -0.045121577487395828 -0.0015136870567738514
leaf_count=15375 864781 916 650599 70109 268257 633 529329
internal_value=0 0.018761 0.0234428 -0.0811213 -0.0365828 -0.200494 -0.0332921
internal_count=2399999 1586405 1515380 71025 813594 16008 797586
shrinkage=0.03


Tree=34
num_leaves=8
num_cat=0
split_feature=15 46 65 0 63 69 73
split_gain=1342.35 979.372 770.582 1412.33 693.085 624.983 437.133
threshold=2.5000000000000004 8.5000000000000018 3.2500000000000004 1632.2500000000002 214.50000000000003 5.4866333007812509 -1.0000000180025095e-35
decision_type=2 2 2 2 2 2 2
left_child=2 5 4 -4 -1 -2 -3
right_child=1 6 3 -5 -6 -7 -8
leaf_value=0.00052593359992340199 -0.0015814152730582384 -0.0010332341917320309 -0.045541887281013119 0.0038211593967937534 0.0025433812811227374 0.0013724975652336471 0.00054615615098128401
leaf_count=556392 667439 205305 900 1239 211853 71444 685427
internal_value=0 -0.0162657 0.0344058 -0.565109 0.0360764 -0.0431925 0.00607015
internal_count=2399999 1629615 770384 2139 768245 738883 890732
shrinkage=0.03


Tree=35
num_leaves=8
num_cat=0
split_feature=61 63 68 16 16 47 63
split_gain=1517.62 841.721 1713.56 872.198 329.488 288.785 275.131
threshold=0.40114942193031317 74.500000000000014 5.9305419921875009 11.500000000000002 4.5000000000000009 7.5000000000000009 74.500000000000014
decision_type=2 2 2 2 2 2 2
left_child=1 2 -1 -3 6 -6 -2
right_child=4 3 -4 -5 5 -7 -8
leaf_value=-0.0030297688279741931 -0.0037923991747143928 0.00018757021223022368 -0.033745855811943323 -0.0012225489642783637 -0.00027986372756475127 0.001356831005158411 0.0028040883727725656
leaf_count=61675 5949 1094081 1679 618445 135553 344366 138251
internal_value=0 -0.0149116 -0.128152 -0.0107219 0.0424279 0.0298172 0.084394
internal_count=2399999 1775880 63354 1712526 624119 479919 144200
shrinkage=0.03


Tree=36
num_leaves=8
num_cat=0
split_feature=61 73 63 81 46 18 16
split_gain=1462.52 760.764 612.81 423.084 454.921 311.605 198.24
threshold=-0.26234818994998926 1.0000000180025095e-35 214.50000000000003 -0.00022939759083917855 5.5000000000000009 103.50000000000001 12.500000000000002
decision_type=2 2 2 2 2 2 2
left_child=3 2 -2 5 -5 -1 -3
right_child=1 6 -4 4 -6 -7 -8
leaf_value=0.0017943409248470561 -0.00023250534196715664 0.0023462185293786739 0.0011908083678298905 -0.0023497967009568342 -0.00073849165231505177 -0.035675956307729677 0.00065993669298585486
leaf_count=49732 882744 221225 394348 223216 540446 200 88088
internal_value=0 0.0176824 0.00689942 -0.0344798 -0.0403164 0.0547748 0.0622014
internal_count=2399999 1586405 1277092 813594 763662 49932 309313
shrinkage=0.03


Tree=37
num_leaves=8
num_cat=0
split_feature=61 63 68 16 16 81 63
split_gain=1390.19 783.112 1611.23 812.214 309.367 275.375 257.834
threshold=0.40114942193031317 74.500000000000014 5.9305419921875009 11.500000000000002 4.5000000000000009 0.00027483578742181815 74.500000000000014
decision_type=2 2 2 2 2 2 2
left_child=1 2 -1 -3 6 -6 -2
right_child=4 3 -4 -5 5 -7 -8
leaf_value=-0.0029149739655429654 -0.0036844401462759798 0.00018449397619177421 -0.032700239928181482 -0.0011763150602683654 0.0009700438089897893 -0.0035223181453245623 0.0027018807755972074
leaf_count=61675 5949 1094081 1679 618445 467274 12645 138251
internal_value=0 -0.0142722 -0.123503 -0.0102309 0.0406085 0.028388 0.0812761
internal_count=2399999 1775880 63354 1712526 624119 479919 144200
shrinkage=0.03


Tree=38
num_leaves=8
num_cat=0
split_feature=61 73 83 81 70 18 47
split_gain=1336.7 709.296 573.29 412.25 391.676 298.318 146.78
threshold=-0.24818840622901914 -1.0000000180025095e-35 0.00019698534237328031 -0.00022939759083917855 -2.2949829101562496 103.50000000000001 9.5000000000000018
decision_type=2 2 2 2 2 2 2
left_child=3 6 -3 5 -5 -1 -2
right_child=1 2 -4 4 -6 -7 -8
leaf_value=0.0017782838559784661 -0.0015044624953327549 0.0009603482150121939 -0.0021142329901972104 -0.0059041384416428635 -0.001038473590992905 -0.034350534081459043 -0.00013020144736072825
leaf_count=51566 145864 1217835 57217 15211 776331 206 135769
internal_value=0 0.0173746 0.0274122 -0.0320734 -0.0377334 0.0544526 -0.0280673
internal_count=2399999 1556685 1275052 843314 791542 51772 281633
shrinkage=0.03


Tree=39
num_leaves=8
num_cat=0
split_feature=73 63 68 69 46 69 65
split_gain=1114.08 871.131 1538.87 785.466 255.464 152.192 122.811
threshold=-1.0000000180025095e-35 74.500000000000014 5.9305419921875009 5.2173461914062509 8.5000000000000018 5.2936401367187509 3.2500000000000004
decision_type=2 2 2 2 2 2 2
left_child=4 2 -2 -3 5 -1 -6
right_child=1 3 -4 -5 6 -7 -8
leaf_value=-0.0024666552690948483 -0.0023720601858780708 0.00019772780974184324 -0.031356585423717588 0.0020360346015140703 -0.00068753858048311103 -0.00012534965272962661 -0.028391394663987487
leaf_count=172133 61463 1632463 1694 240199 262488 29415 144
internal_value=0 0.0105533 -0.105007 0.014451 -0.0440141 -0.0708343 -0.0234298
internal_count=2399999 1935819 63157 1872662 464180 201548 262632
shrinkage=0.03


Tree=40
num_leaves=8
num_cat=0
split_feature=61 64 65 70 81 77 16
split_gain=1263.77 554.673 880.048 707.605 515.152 721.912 420.028
threshold=0.078461539000272765 0.28147299587726599 5.2500000000000009 -2.2949829101562496 0.00032220953195081429 -4.5663115428771945 10.500000000000002
decision_type=2 2 2 2 2 2 2
left_child=1 3 -3 -1 6 -6 -2
right_child=4 2 -4 -5 5 -7 -8
leaf_value=-0.0071779014936201356 0.0012928759177878778 0.00082068065797750284 -0.087356430633979687 -0.00079419582356896837 0.071406967790930406 -0.0050539108055945069 3.4402206491140844e-05
leaf_count=15869 682448 215290 101 1101878 111 16180 368122
internal_value=0 -0.0205345 0.0259619 -0.0294949 0.0256585 -0.150922 0.0283973
internal_count=2399999 1333138 215391 1117747 1066861 16291 1050570
shrinkage=0.03


Tree=41
num_leaves=8
num_cat=0
split_feature=61 64 81 65 80 19 73
split_gain=1210.39 752.896 781.041 763.639 285.281 275.417 259.293
threshold=0.40114942193031317 -0.24166110157966611 0.00032220953195081429 5.2500000000000009 0.00040539528634836187 1.5000000000000002 1.0000000180025095e-35
decision_type=2 2 2 2 2 2 2
left_child=1 2 -1 -3 6 -6 -2
right_child=4 3 -4 -5 5 -7 -8
leaf_value=-0.00093996674896566171 0.00094547795915490439 0.00018210581746435121 -0.007697247647391825 -0.058918022044419024 0.019549387608984958 -0.003344665753334967 0.0025339282500736896
leaf_count=799827 492740 960145 15712 196 487 16604 114288
internal_value=0 -0.0133179 -0.0356726 0.00566556 0.037893 -0.0896776 0.0414857
internal_count=2399999 1775880 815539 960341 624119 17091 607028
shrinkage=0.03


Tree=42
num_leaves=8
num_cat=0
split_feature=73 16 63 46 46 16 69
split_gain=1037.89 848.452 739.33 600.882 236.025 170.719 143.49
threshold=-1.0000000180025095e-35 10.500000000000002 74.500000000000014 4.5000000000000009 8.5000000000000018 5.5000000000000009 5.2936401367187509
decision_type=2 2 2 2 2 2 2
left_child=4 2 -2 -3 6 -6 -1
right_child=1 3 -4 -5 5 -7 -8
leaf_value=-0.002379757167314357 -0.0028477493201534772 -0.002662767360746489 0.00096198626810000017 -0.00015173169331423168 0.00092392182096481107 -0.0010470099487824972 -0.00010602275560987855
leaf_count=172133 47825 98820 1133515 655659 48782 213850 29415
internal_value=0 0.0101863 0.0269246 -0.0160215 -0.0424837 -0.0226955 -0.0682664
internal_count=2399999 1935819 1181340 754479 464180 262632 201548
shrinkage=0.03


Tree=43
num_leaves=8
num_cat=0
split_feature=61 73 16 47 16 81 18
split_gain=1154.5 674.073 548.51 375.59 557.914 381.477 166.6
threshold=-0.26234818994998926 1.0000000180025095e-35 4.5000000000000009 2.5000000000000004 58.500000000000007 -0.00022939759083917855 14.500000000000002
decision_type=2 2 2 2 2 2 2
left_child=3 2 -2 4 -1 -5 -3
right_child=1 6 -4 5 -6 -7 -8
leaf_value=-0.0032722180941413747 0.0013943939578279962 0.0021583547298213114 -0.0001484865061210202 0.001863557045913826 -0.022368328599162712 -0.00095649752996530011 0.00059524652956878467
leaf_count=29433 260999 224260 1016093 45950 1446 736765 85053
internal_value=0 0.0157114 0.00556069 -0.0306368 -0.138921 -0.0263641 0.0576198
internal_count=2399999 1586405 1277092 813594 30879 782715 309313
shrinkage=0.03


Tree=44
num_leaves=8
num_cat=0
split_feature=61 73 63 15 81 63 80
split_gain=1094.28 702.063 647.329 277.086 251.186 225.851 123.671
threshold=0.40114942193031317 1.0000000180025095e-35 178.50000000000003 3.5000000000000004 -0.00022939759083917855 219.50000000000003 0.00040539528634836187
decision_type=2 2 2 2 2 2 2
left_child=1 2 -1 5 -3 -2 -5
right_child=3 4 -4 6 -6 -7 -8
leaf_value=-0.0012313872532749121 0.00095934533128505821 0.0040278553201477914 6.4365278444411013e-05 -0.00024577859023536947 0.00061421760035968256 0.0023396695738308426 -0.0069150233820712724
leaf_count=814310 382448 20659 605834 90400 335077 148682 2589
internal_value=0 -0.0126635 -0.0226203 0.0360308 0.0270838 0.0448593 -0.0143899
internal_count=2399999 1775880 1420144 624119 355736 531130 92989
shrinkage=0.03


Tree=45
num_leaves=8
num_cat=0
split_feature=61 73 63 79 16 16 63
split_gain=1065.52 700.255 596.701 396.65 332.045 183.809 172.407
threshold=-0.39863014221191401 1.0000000180025095e-35 214.50000000000003 0.00068845390662227541 3.5000000000000004 9.5000000000000018 66.500000000000014
decision_type=2 2 2 2 2 2 2
left_child=3 2 -2 4 -1 -3 -5
right_child=1 5 -4 6 -6 -7 -8
leaf_value=0.0014739455306946635 -0.00032725487541070055 0.0022281561708253216 0.001001534935487602 -0.019069746462834374 -0.001173722089908121 0.00083921596262161104 -0.0058071828133319245
leaf_count=46197 990596 186082 439703 993 567805 160339 8284
internal_value=0 0.0124836 0.00270774 -0.0355879 -0.0324829 0.0528447 -0.24101
internal_count=2399999 1776720 1430299 623279 614002 346421 9277
shrinkage=0.03


Tree=46
num_leaves=8
num_cat=0
split_feature=61 82 77 50 81 46 67
split_gain=1008.34 567.225 1107.68 541.278 463.83 437.457 300.319
threshold=-0.11062163487076758 0.00028299428610903632 -4.5663115428771945 1.5000000000000002 -0.00022939759083917855 7.5000000000000009 1609.4893188476565
decision_type=2 2 2 2 2 2 2
left_child=4 3 -3 -2 6 -6 -1
right_child=1 2 -4 -5 5 -7 -8
leaf_value=-0.0049715757181951056 -0.0057460831985773671 0.095852890971935154 -0.0047545702838694519 0.00066284326411875972 -0.0016027048080660537 -0.00031069026525645078 0.0024687977600042921
leaf_count=5362 11981 98 21531 1345212 420358 539534 55923
internal_value=0 0.0176458 -0.143121 0.0202084 -0.0238271 -0.029217 0.0605834
internal_count=2399999 1378822 21629 1357193 1021177 959892 61285
shrinkage=0.03


Tree=47
num_leaves=8
num_cat=0
split_feature=61 82 76 63 15 63 83
split_gain=975.442 671.725 1250.05 679.06 265.433 210.399 153.99
threshold=0.40114942193031317 0.00028299428610903632 -1.8959562616897463 66.500000000000014 2.5000000000000004 219.50000000000003 0.00021869737511361734
decision_type=2 2 2 2 2 2 2
left_child=1 3 -3 -1 5 -2 -6
right_child=4 2 -4 -5 6 -7 -8
leaf_value=-0.004913987879729219 0.00099145868649810898 0.10961926906249102 -0.0056530424999802825 -0.00021357182644265229 0.00013041912214303305 0.0024266876255303999 -0.0053451269839706926
leaf_count=28144 336657 84 24772 1722880 155558 127117 4787
internal_value=0 -0.0119566 -0.175283 -0.00963775 0.0340196 0.0461627 -0.00109962
internal_count=2399999 1775880 24856 1751024 624119 463774 160345
shrinkage=0.03


Tree=48
num_leaves=8
num_cat=0
split_feature=61 73 16 79 17 48 82
split_gain=948.53 720.18 559.388 407.606 285.249 167.1 157.965
threshold=-0.51657509803771962 -1.0000000180025095e-35 9.5000000000000018 0.00068845390662227541 13.500000000000002 2.5000000000000004 0.00016009575424770443
decision_type=2 2 2 2 2 2 2
left_child=3 6 -3 4 -1 -5 -2
right_child=1 2 -4 5 -6 -7 -8
leaf_value=-0.00058614834412201949 -0.00070369617558292371 0.0010562791886743078 -7.9591288044028114e-05 -0.021393116895454183 -0.0022016956998784218 -0.006917308778374015 -0.0027809568462102206
leaf_count=284613 332506 895975 692868 831 150944 5491 36771
internal_value=0 0.00944722 0.0186979 -0.0418662 -0.038202 -0.294185 -0.0303529
internal_count=2399999 1958120 1588843 441879 435557 6322 369277
shrinkage=0.03


Tree=49
num_leaves=8
num_cat=0
split_feature=16 82 46 63 68 51 17
split_gain=897.521 903.856 821.144 725.591 1023.2 616.739 448.07
threshold=4.5000000000000009 0.00028299428610903632 8.5000000000000018 74.500000000000014 5.6909790039062509 120.50000000000001 20.500000000000004
decision_type=2 2 2 2 2 2 2
left_child=3 2 -2 4 -1 -3 -5
right_child=1 5 -4 6 -6 -7 -8
leaf_value=-0.0020290857389624289 -0.00090067253977428976 -0.0065431300526044593 0.00034055301852645582 0.0018694830627126249 -0.026251723946319697 0.064697620740160347 -0.0018614058574296924
leaf_count=24598 849582 22763 1104059 365695 1677 109 31516
internal_value=0 -0.00895552 -0.00664042 0.0417949 -0.11922 -0.206672 0.0524474
internal_count=2399999 1976513 1953641 423486 26275 22872 397211
shrinkage=0.03


Tree=50
num_leaves=8
num_cat=0
split_feature=61 64 65 70 80 19 16
split_gain=886.049 635.39 844.355 754.614 252.31 257.156 256.927
threshold=0.40114942193031317 0.28147299587726599 5.2500000000000009 0.038757324218750007 0.00040539528634836187 1.5000000000000002 2.5000000000000004
decision_type=2 2 2 2 2 2 2
left_child=1 3 -3 -1 6 -6 -2
right_child=4 2 -4 -5 5 -7 -8
leaf_value=-0.0013936329844992333 0.0030425515612300942 0.00097671963305281592 -0.079323397051479852 -2.150583439814705e-05 0.018864629240110172 -0.0032594108534025248 0.00087998288805406861
leaf_count=618530 54485 289644 117 867589 487 16604 552543
internal_value=0 -0.011396 0.0314657 -0.0197534 0.0324245 -0.0875684 0.0358039
internal_count=2399999 1775880 289761 1486119 624119 17091 607028
shrinkage=0.03


Tree=51
num_leaves=8
num_cat=0
split_feature=73 16 63 46 46 65 16
split_gain=881.866 701.738 627.897 519.371 197.087 176.506 98.7743
threshold=-1.0000000180025095e-35 10.500000000000002 66.500000000000014 4.5000000000000009 10.500000000000002 0.75000000000000011 4.5000000000000009
decision_type=2 2 2 2 2 2 2
left_child=4 2 -2 -3 5 -1 -6
right_child=1 3 -4 -5 6 -7 -8
leaf_value=-0.0023594269667410982 -0.0040833596172945756 -0.0024623171531759458 0.00083775643274070183 -0.00012757077752486605 0.0013428389536501817 -0.00080661577539197611 -0.00070154727509975467
leaf_count=155475 23842 98820 1157498 655659 24540 115239 168926
internal_value=0 0.00939009 0.0246141 -0.0144464 -0.0391628 -0.056616 -0.0147382
internal_count=2399999 1935819 1181340 754479 464180 270714 193466
shrinkage=0.03


Tree=52
num_leaves=8
num_cat=0
split_feature=61 73 16 68 63 18 79
split_gain=855.429 730.28 653.193 374.913 1040.25 204.46 196.864
threshold=-0.66491228342056263 1.0000000180025095e-35 4.5000000000000009 6.3184814453125009 74.500000000000014 14.500000000000002 0.00068845390662227541
decision_type=2 2 2 2 2 2 2
left_child=3 2 -2 6 -5 -3 -1
right_child=1 5 -4 4 -6 -7 -8
leaf_value=-0.0012542014876286923 0.0011471321289377924 0.0017606797728606449 -0.00035100375973099455 -0.072073909264503785 -0.0063048687167909694 0.00026809415031471301 -0.0078766908601462793
leaf_count=283898 324394 297451 1368327 223 6622 114970 4114
internal_value=0 0.00706827 -0.00212969 -0.0504679 -0.281998 0.0448211 -0.0449626
internal_count=2399999 2105142 1692721 294857 6845 412421 288012
shrinkage=0.03


Tree=53
num_leaves=8
num_cat=0
split_feature=73 63 68 16 63 70 70
split_gain=817.234 649.703 1370.08 771.037 163.818 180.946 97.1706
threshold=-1.0000000180025095e-35 74.500000000000014 5.9305419921875009 4.5000000000000009 214.50000000000003 0.077087402343750014 -0.19744873046874997
decision_type=2 2 2 2 2 2 2
left_child=4 2 -2 -3 5 -1 -6
right_child=1 3 -4 -5 6 -7 -8
leaf_value=-0.0023941865575109102 -0.0019889331273228983 0.0016957111682362545 -0.029338587014499096 9.1925186054536522e-05 -0.0010006396565919527 -0.00093258109893827406 0.00057278222755281479
leaf_count=126444 61463 327239 1694 1545423 78489 194117 65130
internal_value=0 0.00903969 -0.0907732 0.0124063 -0.0377017 -0.0503053 -0.00956676
internal_count=2399999 1935819 63157 1872662 464180 320561 143619
shrinkage=0.03


Tree=54
num_leaves=8
num_cat=0
split_feature=46 76 47 83 16 65 73
split_gain=815.705 684.888 737.366 638.689 558.94 451.558 303.454
threshold=8.5000000000000018 2.6867948950680711 2.5000000000000004 0.00025426176986988901 6.5000000000000009 3.2500000000000004 -1.0000000180025095e-35
decision_type=2 2 2 2 2 2 2
left_child=1 3 -3 -1 5 -2 -6
right_child=4 2 -4 -5 6 -7 -8
leaf_value=-6.3414163101751451e-05 0.0016373272613369773 -0.0078123011742162185 -0.0013780527989330023 -0.03046904182054452 -0.00090654094029809259 -0.020469197383130938 0.0004216223326923927
leaf_count=768016 329623 16851 336132 622 195537 834 752384
internal_value=0 -0.0196915 -0.056176 -0.00293594 0.0172759 0.0527143 0.00492108
internal_count=2399999 1121621 352983 768638 1278378 330457 947921
shrinkage=0.03


Tree=55
num_leaves=8
num_cat=0
split_feature=61 83 16 75 70 29 17
split_gain=800.476 591.182 528.802 515.835 386.915 415.862 355.62
threshold=-0.42757242918014521 0.00019698534237328031 4.5000000000000009 2.2345776555000385 -2.2949829101562496 36.500000000000007 7.5000000000000009
decision_type=2 2 2 2 2 2 2
left_child=4 2 -2 -3 5 -1 -6
right_child=1 3 -4 -5 6 -7 -8
leaf_value=-0.0045883237816260834 0.0015278045182839986 -0.039729189278988004 0.00018013426121653368 -0.0020565197546450692 0.00022437568648770443 -0.026301376527430101 -0.0013517187114330316
leaf_count=12915 323034 328 1398497 79319 192333 847 392726
internal_value=0 0.0105346 0.0144342 -0.0737449 -0.031689 -0.197586 -0.0277855
internal_count=2399999 1801178 1721531 79647 598821 13762 585059
shrinkage=0.03


Tree=56
num_leaves=8
num_cat=0
split_feature=73 15 63 79 64 70 83
split_gain=753.165 714.836 669.938 412.345 243.011 168.804 141.426
threshold=1.0000000180025095e-35 3.5000000000000004 214.50000000000003 0.00068845390662227541 -0.27392022311687464 -0.19744873046874997 0.00021869737511361734
decision_type=2 2 2 2 2 2 2
left_child=1 2 -1 -3 6 -6 -2
right_child=4 3 -4 -5 5 -7 -8
leaf_value=-0.00014161309501071066 0.0004593530048934683 -0.00071824095532812659 0.0017247845796691931 -0.0061768242131531913 0.0008837818445487347 0.0023949691138671829 -0.0035057286180738782
leaf_count=619930 196996 1053665 240502 12627 128618 139173 8488
internal_value=0 -0.00878479 0.0126684 -0.0260967 0.0357603 0.0556406 0.00984922
internal_count=2399999 1926724 860432 1066292 473275 267791 205484
shrinkage=0.03


Tree=57
num_leaves=8
num_cat=0
split_feature=46 64 69 65 16 65 73
split_gain=762.749 654.321 718.874 596.428 506.607 424.233 278.58
threshold=8.5000000000000018 0.28147299587726599 5.2173461914062509 5.2500000000000009 6.5000000000000009 3.2500000000000004 -1.0000000180025095e-35
decision_type=2 2 2 2 2 2 2
left_child=1 2 -1 -3 5 -2 -6
right_child=4 3 -4 -5 6 -7 -8
leaf_value=-0.0012852741778764645 0.001567599140293228 0.0011181570651381551 0.00085772352678897281 -0.064738121640778357 -0.00086186060532111538 -0.019860756860601556 0.00041084278856625485
leaf_count=766294 329623 182377 172827 123 195537 834 752384
internal_value=0 -0.0190422 -0.029696 0.0357778 0.0167062 0.0504471 0.00494311
internal_count=2399999 1121621 939121 182500 1278378 330457 947921
shrinkage=0.03


Tree=58
num_leaves=8
num_cat=0
split_feature=61 16 83 47 15 63 80
split_gain=744.628 663.671 567.291 510.112 241.628 208.543 131.038
threshold=0.63739085197448742 13.500000000000002 0.00013509747379093534 3.5000000000000004 2.5000000000000004 66.500000000000014 0.00047672098734524926
decision_type=2 2 2 2 2 2 2
left_child=1 2 -1 -3 6 -6 -2
right_child=4 3 -4 -5 5 -7 -8
leaf_value=0.00031468624445709237 0.0017896410856791389 -0.0057372968289201879 -0.0015051736812924093 -0.00092767070728786111 -0.052539452720965656 -0.00062054499438537602 -0.0042958894208559532
leaf_count=1380336 262247 20672 173798 516394 69 43243 3240
internal_value=0 -0.00677268 0.00370539 -0.0370945 0.0458602 -0.0234938 0.0571767
internal_count=2399999 2091200 1554134 537066 308799 43312 265487
shrinkage=0.03


Tree=59
num_leaves=8
num_cat=0
split_feature=61 83 76 16 68 75 17
split_gain=729.12 663.714 883.47 635.114 354.42 900.754 210.301
threshold=-0.66734144091606129 0.00021869737511361734 5.065931997097139 4.5000000000000009 6.3184814453125009 3.741844669884633 1.5000000000000002
decision_type=2 2 2 2 2 2 2
left_child=4 3 -3 -2 6 -6 -1
right_child=1 2 -4 -5 5 -7 -8
leaf_value=0.007819521899938715 0.0013884002519016208 -0.017205645091561788 -0.0019786161608157686 2.4449557632147552e-05 -0.00085365339914755334 -0.028080294360541075 -0.001459458590879632
leaf_count=2225 374929 3643 59170 1713519 3497 1593 241423
internal_value=0 0.00592921 -0.0954082 0.00897736 -0.0512858 -0.312716 -0.045821
internal_count=2399999 2151261 62813 2088448 248738 5090 243648
shrinkage=0.03


Tree=60
num_leaves=8
num_cat=0
split_feature=73 46 16 63 46 65 65
split_gain=713.351 665.116 700.312 657.165 174.523 166.319 87.1991
threshold=-1.0000000180025095e-35 1.5000000000000002 3.5000000000000004 66.500000000000014 10.500000000000002 0.75000000000000011 3.2500000000000004
decision_type=2 2 2 2 2 2 2
left_child=4 3 -3 -2 5 -1 -6
right_child=1 2 -4 -5 6 -7 -8
leaf_value=-0.0021912976951781187 -0.013006433582584581 0.0019853809685216437 0.00014495175695078053 -0.0019078930378198611 -0.00035129190146721099 -0.00068377458752023543 -0.026371207117843323
leaf_count=155475 5299 209682 1669062 51776 193350 115239 116
internal_value=0 0.00844604 0.0116789 -0.0979595 -0.0352266 -0.0516542 -0.0122369
internal_count=2399999 1935819 1878744 57075 464180 270714 193466
shrinkage=0.03


Tree=61
num_leaves=8
num_cat=0
split_feature=46 81 65 69 16 65 73
split_gain=702.317 619.164 817.376 614.728 443.799 397.75 262.109
threshold=8.5000000000000018 -0.00020882449866235745 4.2500000000000009 5.4866333007812509 6.5000000000000009 3.2500000000000004 1.0000000180025095e-35
decision_type=2 2 2 2 2 2 2
left_child=1 2 -1 -3 5 -2 -6
right_child=4 3 -4 -5 6 -7 -8
leaf_value=0.0018916921442054045 0.0014809160297383581 -0.0010328690826572307 -0.049370032711803007 0.0012552479953744586 -0.00010586915023220025 -0.019269021847737048 0.0011236097922441275
leaf_count=96784 329623 904749 280 119808 750166 834 197755
internal_value=0 -0.0182732 0.0581052 -0.0255096 0.0160313 0.0476148 0.00502032
internal_count=2399999 1121621 97064 1024557 1278378 330457 947921
shrinkage=0.03


Tree=62
num_leaves=8
num_cat=0
split_feature=73 15 63 46 45 16 17
split_gain=682.808 616.966 604.413 452.682 229.921 210.012 74.4919
threshold=1.0000000180025095e-35 3.5000000000000004 214.50000000000003 7.5000000000000009 1.5000000000000002 9.5000000000000018 29.500000000000004
decision_type=2 2 2 2 2 2 2
left_child=1 2 -1 -3 6 -6 -2
right_child=4 3 -4 -5 5 -7 -8
leaf_value=-0.00014850997344986465 -0.00017976644245575233 -0.0015392898202280306 0.0016243737673430356 -0.00025850220632520364 0.0019892950103911513 0.00061110889587468506 -0.0032192034911929981
leaf_count=619930 65442 395424 240502 670868 201449 198128 8256
internal_value=0 -0.00836495 0.0115673 -0.0244495 0.0340507 0.0435323 -0.01735
internal_count=2399999 1926724 860432 1066292 473275 399577 73698
shrinkage=0.03


Tree=63
num_leaves=8
num_cat=0
split_feature=81 78 70 48 64 75 82
split_gain=673.897 1737.97 709.733 802.481 643.864 618.476 271.973
threshold=0.00027483578742181815 -6.6816965248137636 -0.11871337890624999 5.5000000000000009 -0.27392022311687464 3.741844669884633 -1.2449013036895149e-05
decision_type=2 2 2 2 2 2 2
left_child=2 6 3 -1 -4 -3 -2
right_child=1 5 4 -5 -6 -7 -8
leaf_value=-0.0022081208443501992 0.0030437175326925863 0.012956339158478963 -7.1825434311543974e-05 -8.4062468553618914e-05 0.0012164448606700466 -0.0037156932260353636 0.079856156888116897
leaf_count=206792 50 2065 774364 711725 637189 67552 262
internal_value=0 -0.0967806 0.0029039 -0.0187428 0.0169901 -0.107359 2.25478
internal_count=2399999 69929 2330070 918517 1411553 69617 312
shrinkage=0.03


Tree=64
num_leaves=8
num_cat=0
split_feature=61 16 65 47 15 81 80
split_gain=659.171 589.003 576.035 463.804 221.655 126.317 119.654
threshold=0.63739085197448742 13.500000000000002 2.2500000000000004 3.5000000000000004 2.5000000000000004 -0.00034483930316807994 0.00047672098734524926
decision_type=2 2 2 2 2 2 2
left_child=1 2 -1 -3 6 -6 -2
right_child=4 3 -4 -5 5 -7 -8
leaf_value=0.00014927485881511334 0.0016908038557792977 -0.0054580903590594424 -0.0074360719528764069 -0.00087162438999304447 -0.011549939352430795 -0.00045479998223966464 -0.0041259017174504076
leaf_count=1545060 262247 20672 9074 516394 949 42363 3240
internal_value=0 -0.00637267 0.00349908 -0.0349399 0.0431513 -0.0232837 0.0539915
internal_count=2399999 2091200 1554134 537066 308799 43312 265487
shrinkage=0.03


Tree=65
num_leaves=8
num_cat=0
split_feature=63 68 82 70 18 64 80
split_gain=653.231 1309.51 1091.79 663.823 740.104 660.579 640.825
threshold=74.500000000000014 5.9305419921875009 0.00018306915071575537 -0.038513183593749993 2.5000000000000004 0.30319648981094366 0.0003280296412935265
decision_type=2 2 2 2 2 2 2
left_child=1 6 -3 5 -5 -2 -1
right_child=3 2 -4 4 -6 -7 -8
leaf_value=-0.00077697527926289792 -0.0009790611782167205 -0.042462004289796143 0.0060776799282165946 0.0050426718269109333 0.00041898841400864325 0.00073418492119100176 -0.0079632424907263907
leaf_count=60869 716509 1320 609 31960 1292227 282807 13698
internal_value=0 -0.0909765 -0.904489 0.0029946 0.0176866 -0.0164732 -0.0699129
internal_count=2399999 76496 1929 2323503 1324187 999316 74567
shrinkage=0.03


Tree=66
num_leaves=8
num_cat=0
split_feature=73 46 69 64 72 46 65
split_gain=652.245 598.658 646.225 602.456 158.141 151.01 79.944
threshold=-1.0000000180025095e-35 1.5000000000000002 5.3847045898437509 -0.72621628642082203 3.5000000000000004 10.500000000000002 0.75000000000000011
decision_type=2 2 2 2 2 2 2
left_child=4 3 -3 -2 5 -1 -6
right_child=1 2 -4 -5 6 -7 -8
leaf_value=-0.0016993818294386007 -0.013720055455974789 0.00015256747428258989 0.0020396763459791241 -0.0019160233972907714 -0.0018567334723138421 -0.00053009127384936962 0.0010984957235262143
leaf_count=239093 4206 1697810 180934 52869 10299 171671 43117
internal_value=0 0.00807658 0.0111439 -0.0928793 -0.0336857 -0.0403579 0.0176134
internal_count=2399999 1935819 1878744 57075 464180 410764 53416
shrinkage=0.03


Tree=67
num_leaves=8
num_cat=0
split_feature=61 83 75 73 68 75 17
split_gain=634.675 584.99 600.455 560.2 322.568 832.014 198.233
threshold=-0.66734144091606129 0.00021869737511361734 2.2345776555000385 1.0000000180025095e-35 6.3184814453125009 4.0401119329066812 1.5000000000000002
decision_type=2 2 2 2 2 2 2
left_child=4 3 -3 -2 6 -6 -1
right_child=1 2 -4 -5 5 -7 -8
leaf_value=0.0076482759263963029 8.6902560360412317e-06 -0.050383110644614343 -0.0025074674022809505 0.0012461119224242575 -0.0011386966070423413 -0.027853335347158555 -0.0013615293279294163
leaf_count=2225 1678112 236 62577 410336 3609 1481 241423
internal_value=0 0.00553227 -0.0896128 0.00839417 -0.0478527 -0.297285 -0.0426386
internal_count=2399999 2151261 62813 2088448 248738 5090 243648
shrinkage=0.03


Tree=68
num_leaves=8
num_cat=0
split_feature=61 64 65 50 80 19 61
split_gain=609.92 506.706 632.931 522.37 204.516 237.54 213.813
threshold=0.40114942193031317 -0.24166110157966611 5.2500000000000009 1.5000000000000002 0.00040539528634836187 1.5000000000000002 0.77979800105094921
decision_type=2 2 2 2 2 2 2
left_child=1 3 -3 -1 6 -6 -2
right_child=4 2 -4 -5 5 -7 -8
leaf_value=-0.0089366752560130196 0.00062364221506825963 0.00019466029142649704 -0.053615692402732548 -0.00076274841870744604 0.01822327495704798 -0.0030427457662256948 0.0020561038194530888
leaf_count=7108 490560 960145 196 808431 487 16604 116468
internal_value=0 -0.00945702 0.00612022 -0.0278006 0.0269067 -0.0811624 0.0299503
internal_count=2399999 1775880 960341 815539 624119 17091 607028
shrinkage=0.03


Tree=69
num_leaves=8
num_cat=0
split_feature=73 16 65 48 72 15 65
split_gain=603.276 497.032 521.896 432.675 151.107 151.406 74.9386
threshold=-1.0000000180025095e-35 10.500000000000002 2.2500000000000004 5.5000000000000009 3.5000000000000004 3.5000000000000004 0.75000000000000011
decision_type=2 2 2 2 2 2 2
left_child=4 2 -2 -3 5 -1 -6
right_child=1 3 -4 -5 6 -7 -8
leaf_value=-0.0004375187826986024 0.0006708135462333355 -0.0022478631755647968 -0.0068514125788204814 -9.372854218421878e-05 -0.0017773709071199739 -0.0016243495984671575 0.0010847133765908936
leaf_count=158085 1172969 96377 8371 658102 10299 252679 43117
internal_value=0 0.00776779 0.0205831 -0.0122973 -0.0323981 -0.038921 0.0177526
internal_count=2399999 1935819 1181340 754479 464180 410764 53416
shrinkage=0.03


Tree=70
num_leaves=8
num_cat=0
split_feature=46 64 65 69 16 65 73
split_gain=593.589 596.613 621.199 595.404 488.013 389.395 322.709
threshold=7.5000000000000009 0.28147299587726599 5.2500000000000009 5.4866333007812509 5.5000000000000009 3.2500000000000004 -1.0000000180025095e-35
decision_type=2 2 2 2 2 2 2
left_child=1 3 -3 -1 5 -2 -6
right_child=4 2 -4 -5 6 -7 -8
leaf_value=-0.0012659415408186696 0.001567410326450177 0.0011635250619470448 -0.068932525036170283 0.0011011447878364528 -0.00086445271417790674 -0.018645281773476522 0.00036314189134785255
leaf_count=669820 278999 154763 113 111723 243096 861 940624
internal_value=0 -0.0196743 0.0370613 -0.0309181 0.0125868 0.0501702 0.00370074
internal_count=2399999 936419 154876 781543 1463580 279860 1183720
shrinkage=0.03


Tree=71
num_leaves=8
num_cat=0
split_feature=81 78 70 48 75 64 62
split_gain=591.492 1627.59 612.633 723.368 580.393 560.947 259.422
threshold=0.00027483578742181815 -6.6816965248137636 -0.11871337890624999 5.5000000000000009 3.741844669884633 -0.27392022311687464 243.50000000000003
decision_type=2 2 2 2 2 2 2
left_child=2 6 3 -1 -3 -4 -2
right_child=1 4 5 -5 -6 -7 -8
leaf_value=-0.0020844561729956921 0.047207529086746608 0.012644297368552883 -6.8568667895716297e-05 -6.7711648350014128e-05 -0.0035069198636452754 0.0011339944523920023 0.1076239109166125
leaf_count=206792 219 2065 774364 711725 67552 637189 93
internal_value=0 -0.0906776 0.00272073 -0.0173924 -0.100915 0.015809 2.18502
internal_count=2399999 69929 2330070 918517 69617 1411553 312
shrinkage=0.03


Tree=72
num_leaves=8
num_cat=0
split_feature=73 63 68 16 81 45 18
split_gain=586.295 536.083 1106.86 639.232 213.443 190.687 95.3997
threshold=1.0000000180025095e-35 74.500000000000014 5.9305419921875009 4.5000000000000009 -0.00022939759083917855 2.5000000000000004 2.5000000000000004
decision_type=2 2 2 2 2 2 2
left_child=1 2 -1 -3 6 -6 -2
right_child=4 3 -4 -5 5 -7 -8
leaf_value=-0.002280131736842985 0.010507284915009385 0.0010521955748557337 -0.026727527546216982 -0.00039919660242609273 -0.00021117807896471963 0.0011750477718136341 0.0030709397914111107
leaf_count=62200 1668 332925 1713 1529886 124283 321689 25635
internal_value=0 -0.00775193 -0.0978672 -0.00465976 0.0315555 0.0262901 0.117539
internal_count=2399999 1926724 63913 1862811 473275 445972 27303
shrinkage=0.03


Tree=73
num_leaves=8
num_cat=0
split_feature=46 16 82 48 54 76 17
split_gain=560.446 737.228 683.251 638.973 789.661 464.501 403.481
threshold=1.5000000000000002 3.5000000000000004 0.00028299428610903632 1.5000000000000002 2.5000000000000004 2.6867948950680711 3.5000000000000004
decision_type=2 2 2 2 2 2 2
left_child=3 6 -3 4 -1 -5 -2
right_child=1 2 -4 5 -6 -7 -8
leaf_value=-0.027901502790319676 0.0037425247396042421 -4.9124148319571271e-05 -0.0050738774459231015 -0.00020488938628650887 -0.0047688046853333636 -0.006192300224058458 0.00093417941426983528
leaf_count=1913 60599 2054533 24674 44842 4361 15796 193281
internal_value=0 0.00258909 -0.00362542 -0.0902952 -0.394263 -0.0588305 0.053486
internal_count=2399999 2333087 2079207 66912 6274 60638 253880
shrinkage=0.03


Tree=74
num_leaves=8
num_cat=0
split_feature=73 63 65 70 18 81 81
split_gain=552.297 509.584 805.011 605.162 205.942 167.758 81.7259
threshold=1.0000000180025095e-35 115.50000000000001 2.2500000000000004 -0.038513183593749993 14.500000000000002 -0.00022939759083917855 0.00032220953195081429
decision_type=2 2 2 2 2 2 2
left_child=1 2 -1 -3 5 -2 -6
right_child=4 3 -4 -5 6 -7 -8
leaf_value=-0.0010130302150123231 0.0037142623041298002 -0.00058164672343384853 -0.017964722590112833 0.00063481972183179172 8.8246205921963002e-06 0.0011259373407113242 -0.006246015162209303
leaf_count=448886 24394 716101 2537 759200 131573 315384 1924
internal_value=0 -0.00752414 -0.0369457 0.00147817 0.0306281 0.0437273 -0.00270853
internal_count=2399999 1926724 451423 1475301 473275 339778 133497
shrinkage=0.03


Tree=75
num_leaves=8
num_cat=0
split_feature=61 83 76 69 68 63 17
split_gain=563.803 490.085 822.737 497.8 296.273 775.783 184.249
threshold=-0.66734144091606129 0.00021869737511361734 5.065931997097139 5.3847045898437509 6.3184814453125009 74.500000000000014 1.5000000000000002
decision_type=2 2 2 2 2 2 2
left_child=4 3 -3 -2 6 -6 -1
right_child=1 2 -4 -5 5 -7 -8
leaf_value=0.0074047716880536506 7.6288055929798918e-05 -0.016298427086120601 -0.0016037180380389648 0.0015885056705402356 -0.065020738247249799 -0.0060904234320707734 -0.0012826528503931452
leaf_count=2225 1869223 3643 59170 219225 209 4881 241423
internal_value=0 0.00521463 -0.081882 0.00783446 -0.0451052 -0.28418 -0.0401076
internal_count=2399999 2151261 62813 2088448 248738 5090 243648
shrinkage=0.03


Tree=76
num_leaves=8
num_cat=0
split_feature=61 81 65 64 80 16 53
split_gain=544.791 520.167 802.525 462.641 145.673 159.07 130.38
threshold=0.63739085197448742 -0.00022939759083917855 4.2500000000000009 0.30319648981094366 0.00047672098734524926 2.5000000000000004 2.5000000000000004
decision_type=2 2 2 2 2 2 2
left_child=1 2 -1 -3 5 -2 -6
right_child=4 3 -4 -5 6 -7 -8
leaf_value=0.0018412713286755737 0.0033382318637077352 -0.00047432148309493497 -0.049959591939036416 0.00086863871498336616 -0.013934358057436142 0.0010260342674994062 -0.0013995973399765322
leaf_count=121937 29831 1701389 269 267605 996 274911 3061
internal_value=0 -0.00579421 0.0575572 -0.00972642 0.0392338 0.0417478 -0.149442
internal_count=2399999 2091200 122206 1968994 308799 304742 4057
shrinkage=0.03


Tree=77
num_leaves=8
num_cat=0
split_feature=46 81 49 69 16 65 73
split_gain=533.58 511.958 720.444 492.574 336.237 326.536 190.913
threshold=8.5000000000000018 -0.00020882449866235745 1.5000000000000002 5.4866333007812509 6.5000000000000009 3.2500000000000004 -1.0000000180025095e-35
decision_type=2 2 2 2 2 2 2
left_child=1 2 -1 -3 5 -2 -6
right_child=4 3 -4 -5 6 -7 -8
leaf_value=-0.012138836811804827 0.0012917805814118243 -0.00091490003256343953 0.0020925216032972723 0.0011336061163317813 -0.00070508384315314605 -0.017512842993518268 0.00034914866300887612
leaf_count=3317 329623 904749 93747 119808 195537 834 752384
internal_value=0 -0.0159302 0.0535305 -0.0225113 0.0139757 0.0414741 0.00438885
internal_count=2399999 1121621 97064 1024557 1278378 330457 947921
shrinkage=0.03


Tree=78
num_leaves=8
num_cat=0
split_feature=61 50 69 63 70 29 17
split_gain=523.937 442.526 488.701 421.277 242.789 412.837 209.756
threshold=-0.51657509803771962 1.5000000000000002 5.3847045898437509 219.50000000000003 -2.2949829101562496 38.500000000000007 7.5000000000000009
decision_type=2 2 2 2 2 2 2
left_child=4 3 -3 -2 5 -1 -6
right_child=1 2 -4 -5 6 -7 -8
leaf_value=-0.0039513924526446836 -0.0071866491077661248 9.1117485531056822e-05 0.0016525055289445772 0.0038025400519515196 0.0001540684240319103 -0.029638786197794441 -0.0012721219897698984
leaf_count=10336 13193 1739160 201640 4127 136137 596 294810
internal_value=0 0.00702327 0.0084449 -0.152241 -0.0311258 -0.178526 -0.0273851
internal_count=2399999 1958120 1940800 17320 441879 10932 430947
shrinkage=0.03


Tree=79
num_leaves=8
num_cat=0
split_feature=73 46 63 69 72 46 65
split_gain=518.867 495.726 540.106 507.043 147.887 131.142 69.3584
threshold=-1.0000000180025095e-35 1.5000000000000002 66.500000000000014 5.3847045898437509 3.5000000000000004 10.500000000000002 0.75000000000000011
decision_type=2 2 2 2 2 2 2
left_child=4 2 -2 -3 5 -1 -6
right_child=1 3 -4 -5 6 -7 -8
leaf_value=-0.0015506158662866704 -0.011668428174601545 0.00013886738109897202 -0.0016055328770665121 0.0018107162824331819 -0.0016360951001941958 -0.00046054336752551675 0.0011184046963860867
leaf_count=239093 5299 1697810 51776 180934 10299 171671 43117
internal_value=0 0.00720462 -0.084675 0.00999617 -0.0300493 -0.0365027 0.0195672
internal_count=2399999 1935819 57075 1878744 464180 410764 53416
shrinkage=0.03


Tree=80
num_leaves=8
num_cat=0
split_feature=73 15 65 46 18 19 81
split_gain=510.413 471.591 515.344 389.754 187.286 155.317 75.3537
threshold=1.0000000180025095e-35 2.5000000000000004 2.2500000000000004 8.5000000000000018 14.500000000000002 21.500000000000004 0.00032220953195081429
decision_type=2 2 2 2 2 2 2
left_child=1 2 -1 -3 5 -2 -6
right_child=4 3 -4 -5 6 -7 -8
leaf_value=0.00053690580614931089 0.0015617810008326819 -0.0011159380062058578 -0.0084066894339772796 -6.911770974497458e-05 1.5997598759631411e-05 -0.00010323036033472758 -0.0059923638386511265
leaf_count=627599 277832 588835 5860 704430 131573 61946 1924
internal_value=0 -0.00723365 0.0151378 -0.0181919 0.0294454 0.0419395 -0.00235095
internal_count=2399999 1926724 633459 1293265 473275 339778 133497
shrinkage=0.03


Tree=81
num_leaves=8
num_cat=0
split_feature=63 16 15 81 19 78 67
split_gain=498.652 609.862 458.024 431.898 740.456 580.226 399.277
threshold=74.500000000000014 4.5000000000000009 3.5000000000000004 -0.00034483930316807994 1.5000000000000002 -5.6818790618533699 1609.4893188476565
decision_type=2 2 2 2 2 2 2
left_child=3 6 -3 4 -1 -5 -2
right_child=1 2 -4 5 -6 -7 -8
leaf_value=-0.066154739872157461 0.0041468155078623605 0.00043349502345456701 -0.0005145737582165406 0.017571776249936378 -0.0057015994517692677 -0.0024909572385483727 0.00084702865384167221
leaf_count=256 36403 756308 1169984 1321 633 74286 360808
internal_value=0 0.00261679 -0.00474439 -0.0795009 -0.772718 -0.0713332 0.0383163
internal_count=2399999 2323503 1926292 76496 889 75607 397211
shrinkage=0.03


Tree=82
num_leaves=8
num_cat=0
split_feature=46 76 68 73 17 17 72
split_gain=497.902 537.304 513.993 436.526 416.715 300.322 120.507
threshold=4.5000000000000009 2.4716712080486265 5.9305419921875009 -1.0000000180025095e-35 7.5000000000000009 3.5000000000000004 3.5000000000000004
decision_type=2 2 2 2 2 2 2
left_child=1 4 -3 6 -1 -5 -2
right_child=3 2 -4 5 -6 -7 -8
leaf_value=0.00071808074735421233 -0.00088081755503620471 -0.0019457085832797047 -0.0082784702159622563 0.0022937027985937878 -0.0016053228066580964 0.00032761452331211396 0.0007898529510184393
leaf_count=168861 352236 110644 12900 73491 118399 1519497 43971
internal_value=0 -0.0317192 -0.0869045 0.00654985 -0.00798329 0.0139443 -0.0231789
internal_count=2399999 410804 123544 1989195 287260 1592988 396207
shrinkage=0.03


Tree=83
num_leaves=8
num_cat=0
split_feature=81 78 75 70 64 64 82
split_gain=487.533 1524.18 540.072 520.162 514.983 468.952 252.941
threshold=0.00027483578742181815 -6.6816965248137636 3.741844669884633 -0.11871337890624999 0.30319648981094366 -0.27392022311687464 -1.2449013036895149e-05
decision_type=2 2 2 2 2 2 2
left_child=3 6 -3 4 -1 -5 -2
right_child=1 2 -4 5 -6 -7 -8
leaf_value=-0.00094020295550342129 0.0013213105192955803 0.012351028964510376 -0.0032298266351169589 -6.0441113961411372e-05 0.00062076992938344181 0.0010392414592623606 0.075374935979852203
leaf_count=648874 50 2065 67552 774364 269643 637189 262
internal_value=0 -0.0823353 -0.0922425 0.00247043 -0.0160647 0.0145319 2.11991
internal_count=2399999 69929 69617 2330070 918517 1411553 312
shrinkage=0.03


Tree=84
num_leaves=8
num_cat=0
split_feature=16 82 77 48 50 70 15
split_gain=476.709 488.231 821.388 476.642 345.926 268.974 251.055
threshold=10.500000000000002 0.00016009575424770443 -4.964047490237113 5.5000000000000009 1.5000000000000002 -2.2949829101562496 1.5000000000000002
decision_type=2 2 2 2 2 2 2
left_child=1 4 -3 5 -1 -2 -5
right_child=3 2 -4 6 -6 -7 -8
leaf_value=-0.004058589878640979 -0.009158267133225954 0.076895608933996551 -0.0013325576040531415 0.0011752983715704538 0.00057982694007324654 -0.0020029172697235979 -0.00045978891465771088
leaf_count=14665 4947 120 151870 95947 1290934 114353 727163
internal_value=0 0.0113408 -0.0423397 -0.0175417 0.0175904 -0.0766609 -0.00897244
internal_count=2399999 1457589 151990 942410 1305599 119300 823110
shrinkage=0.03


Tree=85
num_leaves=8
num_cat=0
split_feature=73 63 48 17 45 16 17
split_gain=475.869 430.866 591.43 444.765 181.722 153.083 61.113
threshold=1.0000000180025095e-35 214.50000000000003 1.5000000000000002 3.5000000000000004 1.5000000000000002 13.500000000000002 29.500000000000004
decision_type=2 2 2 2 2 2 2
left_child=1 2 -1 -3 6 -6 -2
right_child=4 3 -4 -5 5 -7 -8
leaf_value=-0.0064689465563948336 -0.00020949723660482723 0.0035967046215127042 -0.00043940654333491481 0.00025117856717617507 0.0014711228108200559 0.00015688126463777477 -0.0029655616375772217
leaf_count=14823 65442 38337 1326913 546651 288551 111026 8256
internal_value=0 -0.00698487 -0.0168678 0.0156819 0.0284331 0.0368663 -0.0172828
internal_count=2399999 1926724 1341736 584988 473275 399577 73698
shrinkage=0.03


Tree=86
num_leaves=8
num_cat=0
split_feature=81 65 82 46 49 70 16
split_gain=465.891 607.253 949.92 555.006 481.911 467.052 292.61
threshold=-0.00022939759083917855 4.2500000000000009 -0.00030271154558355354 7.5000000000000009 1.5000000000000002 -2.2949829101562496 6.5000000000000009
decision_type=2 2 2 2 2 2 2
left_child=1 4 -3 5 -1 -2 -5
right_child=3 2 -4 6 -6 -7 -8
leaf_value=-0.0084493092398129268 -0.0048610048985722543 -0.071181788893416517 0.036015730851795526 0.0010108948050190159 0.0020827891483887464 -0.00058367934939884496 1.2182649212745687e-05
leaf_count=4031 23658 239 107 355401 135701 843472 1037390
internal_value=0 0.056007 -1.26599 -0.00347205 0.0592931 -0.0233467 0.00890124
internal_count=2399999 140078 346 2259921 139732 867130 1392791
shrinkage=0.03


Tree=87
num_leaves=8
num_cat=0
split_feature=61 50 69 65 68 75 17
split_gain=457.169 419.168 499.992 456.251 263.037 731.915 170.404
threshold=-0.66734144091606129 1.5000000000000002 5.2173461914062509 1.7500000000000002 6.3184814453125009 4.0401119329066812 1.5000000000000002
decision_type=2 2 2 2 2 2 2
left_child=4 3 -3 -2 6 -6 -1
right_child=1 2 -4 -5 5 -7 -8
leaf_value=0.0072022647794337917 -0.0023815750311334109 9.178770600015788e-07 0.0013579520082795807 -0.015596973955869661 -0.00068033631117878199 -0.025737970812797467 -0.0011537833087027123
leaf_count=2225 16192 1850286 282027 2756 3609 1481 241423
internal_value=0 0.00469644 0.00601371 -0.143509 -0.0406227 -0.265925 -0.0359128
internal_count=2399999 2151261 2132313 18948 248738 5090 243648
shrinkage=0.03


Tree=88
num_leaves=8
num_cat=0
split_feature=46 16 82 48 54 76 17
split_gain=452.602 603.897 573.072 559.725 721.987 390.681 356.744
threshold=1.5000000000000002 3.5000000000000004 0.00028299428610903632 1.5000000000000002 2.5000000000000004 2.6867948950680711 3.5000000000000004
decision_type=2 2 2 2 2 2 2
left_child=3 6 -3 4 -1 -5 -2
right_child=1 2 -4 5 -6 -7 -8
leaf_value=-0.0263402751616536 0.0034624718975111253 -4.4317641841482628e-05 -0.0046466193525520286 -0.00012020492880907813 -0.0042200724904570821 -0.0056121240720440899 0.00082146137494654755
leaf_count=1913 60599 2054533 24674 44842 4361 15796 193281
internal_value=0 0.00232706 -0.00329809 -0.0811568 -0.365675 -0.0517049 0.0483973
internal_count=2399999 2333087 2079207 66912 6274 60638 253880
shrinkage=0.03


Tree=89
num_leaves=8
num_cat=0
split_feature=61 81 65 47 63 48 18
split_gain=449.611 425.234 681.804 430.827 152.303 789.614 158.271
threshold=0.71281296014785778 -0.00022939759083917855 4.2500000000000009 7.5000000000000009 66.500000000000014 1.5000000000000002 2.5000000000000004
decision_type=2 2 2 2 2 2 2
left_child=1 2 -1 -3 5 -2 -6
right_child=4 3 -4 -5 6 -7 -8
leaf_value=0.0016573889080270276 -0.079435123735389038 -0.00084611226996566928 -0.04591525772648096 7.4289886137035948e-05 0.0060694144841347318 -0.0013530127042155908 0.0011820456556453866
leaf_count=126168 128 695670 271 1344853 6156 1226 225527
internal_value=0 -0.00449276 0.0518315 -0.00798311 0.0417717 -0.293291 0.0437332
internal_count=2399999 2166962 126439 2040523 233037 1354 231683
shrinkage=0.03


Tree=90
num_leaves=8
num_cat=0
split_feature=73 63 65 70 45 81 17
split_gain=447.718 400.354 693.318 493.502 165.501 148.296 56.6058
threshold=1.0000000180025095e-35 115.50000000000001 2.2500000000000004 -0.038513183593749993 1.5000000000000002 -0.00022939759083917855 29.500000000000004
decision_type=2 2 2 2 2 2 2
left_child=1 2 -1 -3 6 -6 -2
right_child=4 3 -4 -5 5 -7 -8
leaf_value=-0.00089728418595714078 -0.00018414931767616038 -0.00052921446078714018 -0.01663028202243845 0.00056946137268783735 0.0034960574600991895 0.00093052088683740907 -0.0028379155136105203
leaf_count=448886 65442 716101 2537 759200 21546 378031 8256
internal_value=0 -0.00677553 -0.0328591 0.00120538 0.0275806 0.0356302 -0.0160558
internal_count=2399999 1926724 451423 1475301 473275 399577 73698
shrinkage=0.03


Tree=91
num_leaves=8
num_cat=0
split_feature=73 46 64 16 71 73 71
split_gain=435.977 398.378 513.709 457.302 126.78 151.337 30.1665
threshold=-1.0000000180025095e-35 1.5000000000000002 -0.72621628642082203 3.5000000000000004 -3.4999999999999996 -2.4999999999999996 -19.499999999999996
decision_type=2 2 2 2 2 2 2
left_child=4 2 -2 -3 6 -6 -1
right_child=1 3 -4 -5 5 -7 -8
leaf_value=-0.01377658786725313 -0.012370588037415656 0.0015948434122508568 -0.0014694776804398135 0.0001071985893756755 0.00020850767718736318 -0.0010732998341035475 -0.0044734628435594134
leaf_count=340 4206 209682 52869 1669062 109500 348039 6301
internal_value=0 0.00660501 -0.0757758 0.00910799 -0.0275485 -0.02555 -0.165134
internal_count=2399999 1935819 57075 1878744 464180 457539 6641
shrinkage=0.03


Tree=92
num_leaves=8
num_cat=0
split_feature=16 82 77 48 17 44 15
split_gain=421.951 432.13 775.425 428.683 322.601 248.521 229.086
threshold=10.500000000000002 0.00016009575424770443 -4.964047490237113 5.5000000000000009 6.5000000000000009 1651.2500000000002 1.5000000000000002
decision_type=2 2 2 2 2 2 2
left_child=1 4 -3 5 -1 -2 -5
right_child=3 2 -4 6 -6 -7 -8
leaf_value=0.001179231818947826 -0.001418103883236796 0.074754292042540887 -0.0012557008327674034 0.0011286860164294674 0.00017000986952873259 -0.0046553430463726593 -0.00043344488660119524
leaf_count=422385 91328 120 151870 95947 883214 27972 727163
internal_value=0 0.0106706 -0.0398366 -0.0165053 0.0165508 -0.0725763 -0.00837778
internal_count=2399999 1457589 151990 942410 1305599 119300 823110
shrinkage=0.03


Tree=93
num_leaves=8
num_cat=0
split_feature=73 63 64 17 18 19 81
split_gain=416.533 387.205 527.977 399.408 159.24 137.117 64.6517
threshold=1.0000000180025095e-35 214.50000000000003 0.60467392206192028 3.5000000000000004 14.500000000000002 21.500000000000004 0.00032220953195081429
decision_type=2 2 2 2 2 2 2
left_child=1 2 -1 -3 5 -2 -6
right_child=4 3 -4 -5 6 -7 -8
leaf_value=-0.00045731576380452296 0.001429222684403583 0.0034114615356642523 -0.018356327714336106 0.00024080274500099181 -1.311261624354609e-06 -0.00013569352059786177 -0.0055714189493162366
leaf_count=1340250 277832 38337 1486 546651 131573 61946 1924
internal_value=0 -0.0065357 -0.0159055 0.0149541 0.0266044 0.0381291 -0.00272476
internal_count=2399999 1926724 1341736 584988 473275 339778 133497
shrinkage=0.03


Tree=94
num_leaves=8
num_cat=0
split_feature=61 83 76 69 68 63 28
split_gain=415.456 384.025 804.307 410.343 245.165 703.745 160.266
threshold=-0.66734144091606129 0.00025426176986988901 5.065931997097139 5.3847045898437509 6.3184814453125009 74.500000000000014 1.5000000000000002
decision_type=2 2 2 2 2 2 2
left_child=4 3 -3 -2 6 -6 -1
right_child=1 2 -4 -5 5 -7 -8
leaf_value=0.00069170412380787076 4.0508382675792922e-05 -0.020334979970376935 -0.0018164167984210833 0.0014054936568686505 -0.061498616032302375 -0.0053686115086077667 -0.0013717700604313854
leaf_count=40888 1897848 2276 29353 221784 209 4881 202760
internal_value=0 0.00447736 -0.105002 0.0061113 -0.0387284 -0.256264 -0.0341808
internal_count=2399999 2151261 31629 2119632 248738 5090 243648
shrinkage=0.03


Tree=95
num_leaves=8
num_cat=0
split_feature=46 70 64 69 16 81 46
split_gain=414.207 452.425 597.458 454.621 435.277 353.521 251.318
threshold=4.5000000000000009 -2.2949829101562496 -0.72621628642082203 4.9751586914062509 3.5000000000000004 0.00027483578742181815 55.500000000000007
decision_type=2 2 2 2 2 2 2
left_child=1 2 -1 -3 6 -6 -2
right_child=4 3 -4 -5 5 -7 -8
leaf_value=-0.039080188030415498 0.0017404650655836436 -0.0013576292948104544 -0.0045506159329990904 0.00082663354707295043 0.00010296338907720709 -0.002713531733926204 -0.0065016293090263836
leaf_count=462 177144 264630 18535 127177 1767521 41128 3402
internal_value=0 -0.0289351 -0.179772 -0.02162 0.00597494 0.00129692 0.0528347
internal_count=2399999 410804 18997 391807 1989195 1808649 180546
shrinkage=0.03


Tree=96
num_leaves=8
num_cat=0
split_feature=61 65 76 81 15 63 49
split_gain=405.778 407.76 984.748 462.516 185.938 159.501 103.863
threshold=0.63739085197448742 2.2500000000000004 -11.297501496124342 -0.00022939759083917855 2.5000000000000004 66.500000000000014 109.50000000000001
decision_type=2 2 2 2 2 2 2
left_child=1 3 -3 -1 6 -6 -2
right_child=4 2 -4 -5 5 -7 -8
leaf_value=0.0016854032728565425 0.0012739387765192123 -0.047328499220791416 -0.0039848082930912798 -0.0002309122867877653 -0.046168102792331536 -0.00073618624180113792 0.010183319733989886
leaf_count=120517 264296 494 10264 1959925 69 43243 1191
internal_value=0 -0.00500185 -0.199358 -0.0039965 0.0338681 -0.0269991 0.0438001
internal_count=2399999 2091200 10758 2080442 308799 43312 265487
shrinkage=0.03


Tree=97
num_leaves=8
num_cat=0
split_feature=63 75 7 16 78 15 10
split_gain=401.626 499.946 737.433 469.756 465.927 380.673 378.233
threshold=74.500000000000014 -15.053559302813985 1637.7500000000002 4.5000000000000009 -5.6818790618533699 3.5000000000000004 1638.2500000000002
decision_type=2 2 2 2 2 2 2
left_child=1 2 -1 6 -3 -5 -2
right_child=3 4 -4 5 -6 -7 -8
leaf_value=-0.082611815698006574 0.0022673380312687877 0.014571316752132921 -0.0074798915448744535 0.00040165739121288807 -0.0022683376424626699 -0.00046280055214556492 0.00032723957180060513
leaf_count=169 139898 1510 385 756308 74432 1169984 257313
internal_value=0 -0.0713615 -1.01779 0.00234881 -0.0644373 -0.00411287 0.0336862
internal_count=2399999 76496 554 2323503 75942 1926292 397211
shrinkage=0.03


Tree=98
num_leaves=8
num_cat=0
split_feature=47 50 65 16 81 82 42
split_gain=401.704 548.413 912.931 434.121 359.621 345.399 246.549
threshold=7.5000000000000009 2.5000000000000004 2.2500000000000004 5.5000000000000009 -0.00022939759083917855 0.00028299428610903632 1626.2500000000002
decision_type=2 2 2 2 2 2 2
left_child=1 2 -1 6 -3 -5 -2
right_child=3 4 -4 5 -6 -7 -8
leaf_value=-0.0026557664787361709 0.0026061796277647604 0.0019890537138997732 -0.020181323200697453 9.5580074354329391e-05 -0.00053220331381767494 -0.0051694745458465046 0.00071635646666821213
leaf_count=41370 94229 54904 2862 1290053 721118 11336 184127
internal_value=0 -0.0179716 -0.12635 0.00933048 -0.0117934 0.00165674 0.0452053
internal_count=2399999 820254 44232 1579745 776022 1301389 278356
shrinkage=0.03


Tree=99
num_leaves=8
num_cat=0
split_feature=46 81 49 69 76 83 17
split_gain=392.062 463.924 606.22 415.933 240.194 629.49 191.998
threshold=10.500000000000002 -0.00022939759083917855 1.5000000000000002 5.2936401367187509 -4.1087918440177331 -0.00027316070761208909 13.500000000000002
decision_type=2 2 2 2 2 2 2
left_child=1 2 -1 -3 6 -6 -2
right_child=4 3 -4 -5 5 -7 -8
leaf_value=-0.010961676124204463 0.00011332050365981332 -0.00065310728060414343 0.0021800944626832685 0.00087683003571669392 -0.057518782082744344 0.00076646035541518063 -0.0019556827389380586
leaf_count=3275 171922 1186665 91480 185213 166 708262 53016
internal_value=0 -0.0102065 0.0575203 -0.0148848 0.0160363 0.02509 -0.0124755
internal_count=2399999 1466633 94755 1371878 933366 708428 224938
shrinkage=0.03


end of trees

feature importances:
Column_61=89
Column_16=71
Column_63=69
Column_73=55
Column_46=40
Column_65=40
Column_81=37
Column_17=27
Column_82=25
Column_64=22
Column_68=21
Column_15=19
Column_70=18
Column_47=16
Column_69=16
Column_45=13
Column_48=12
Column_76=12
Column_83=12
Column_18=11
Column_75=9
Column_77=9
Column_80=9
Column_19=6
Column_50=6
Column_78=5
Column_79=5
Column_49=4
Column_72=4
Column_0=2
Column_29=2
Column_54=2
Column_67=2
Column_71=2
Column_7=1
Column_10=1
Column_28=1
Column_42=1
Column_44=1
Column_51=1
Column_53=1
Column_62=1

parameters:
[boosting: gbdt]
[objective: regression]
[metric: rmse,none]
[tree_learner: serial]
[device_type: cpu]
[data: ]
[valid: ]
[num_iterations: 100]
[learning_rate: 0.03]
[num_leaves: 160]
[num_threads: -1]
[max_depth: 3]
[min_data_in_leaf: 50]
[min_sum_hessian_in_leaf: 0.001]
[bagging_fraction: 0.7]
[bagging_freq: 0]
[bagging_seed: 400]
[feature_fraction: 0.9]
[feature_fraction_seed: 30056]
[early_stopping_round: 0]
[max_delta_step: 0]
[lambda_l1: 0.5]
[lambda_l2: 1]
[min_gain_to_split: 0.75]
[drop_rate: 0.1]
[max_drop: 50]
[skip_drop: 0.5]
[xgboost_dart_mode: 0]
[uniform_drop: 0]
[drop_seed: 17869]
[top_rate: 0.2]
[other_rate: 0.1]
[min_data_per_group: 100]
[max_cat_threshold: 32]
[cat_l2: 10]
[cat_smooth: 10]
[max_cat_to_onehot: 4]
[top_k: 20]
[monotone_constraints: ]
[feature_contri: ]
[forcedsplits_filename: ]
[refit_decay_rate: 0.9]
[verbosity: -1]
[max_bin: 70]
[min_data_in_bin: 3]
[bin_construct_sample_cnt: 200000]
[histogram_pool_size: -1]
[data_random_seed: 175]
[output_model: LightGBM_model.txt]
[snapshot_freq: -1]
[input_model: ]
[output_result: LightGBM_predict_result.txt]
[initscore_filename: ]
[valid_data_initscores: ]
[pre_partition: 0]
[enable_bundle: 1]
[max_conflict_rate: 0]
[is_enable_sparse: 1]
[sparse_threshold: 0.8]
[use_missing: 1]
[zero_as_missing: 0]
[two_round: 0]
[save_binary: 0]
[enable_load_from_binary_file: 1]
[header: 0]
[label_column: ]
[weight_column: ]
[group_column: ]
[ignore_column: ]
[categorical_feature: ]
[predict_raw_score: 0]
[predict_leaf_index: 0]
[predict_contrib: 0]
[num_iteration_predict: -1]
[pred_early_stop: 0]
[pred_early_stop_freq: 10]
[pred_early_stop_margin: 10]
[convert_model_language: ]
[convert_model: gbdt_prediction.cpp]
[num_class: 1]
[is_unbalance: 0]
[scale_pos_weight: 1]
[sigmoid: 1]
[boost_from_average: 1]
[reg_sqrt: 0]
[alpha: 0.9]
[fair_c: 1]
[poisson_max_delta_step: 0.7]
[tweedie_variance_power: 1.5]
[max_position: 20]
[label_gain: ]
[metric_freq: 1]
[is_provide_training_metric: 0]
[eval_at: ]
[num_machines: 1]
[local_listen_port: 12400]
[time_out: 120]
[machine_list_filename: ]
[machines: ]
[gpu_platform_id: -1]
[gpu_device_id: -1]
[gpu_use_dp: 0]

end of parameters

pandas_categorical:null
