tree
version=v2
num_class=1
num_tree_per_iteration=1
label_index=0
max_feature_idx=73
objective=regression
feature_names=Column_0 Column_1 Column_2 Column_3 Column_4 Column_5 Column_6 Column_7 Column_8 Column_9 Column_10 Column_11 Column_12 Column_13 Column_14 Column_15 Column_16 Column_17 Column_18 Column_19 Column_20 Column_21 Column_22 Column_23 Column_24 Column_25 Column_26 Column_27 Column_28 Column_29 Column_30 Column_31 Column_32 Column_33 Column_34 Column_35 Column_36 Column_37 Column_38 Column_39 Column_40 Column_41 Column_42 Column_43 Column_44 Column_45 Column_46 Column_47 Column_48 Column_49 Column_50 Column_51 Column_52 Column_53 Column_54 Column_55 Column_56 Column_57 Column_58 Column_59 Column_60 Column_61 Column_62 Column_63 Column_64 Column_65 Column_66 Column_67 Column_68 Column_69 Column_70 Column_71 Column_72 Column_73
feature_infos=[1589:1709] [0:1709.5] [0:1710] [0:1710.5] [0:1711] [0:1711.5] [0:1712] [0:1712.5] [0:1713] [0:1713.5] [0:1714] [0:1714.5] [0:1715] [0:1715.5] [0:1716] [1:404] [0:405] [0:405] [0:455] [0:500] [0:621] [0:668] [0:667] [0:667] [0:674] [0:674] [0:674] [0:674] [0:674] [0:672] [1588:1708.5] [1587.5:1708] [1587:1707.5] [1586.5:1707] [1586:1706.5] [1585.5:1706] [1585:1705.5] [1584.5:1705] [1584:1704.5] [1583.5:1704] [1582.5:1703.5] [1582:1703] [1581:1702.5] [1580:1702] [1575:1701] [1:385] [1:382] [1:376] [1:375] [1:377] [1:377] [1:385] [1:386] [1:385] [1:380] [1:379] [1:402] [1:369] [1:423] [1:483] [1588.75:1708.75] [-0.99502485990524292:0.99180328845977783] [9:1935] [31:854] [-0.94229185581207275:0.96234309673309326] [0.5:8.5] [1584.8409423828125:1706.030029296875] [1592.040771484375:1711.0799560546875] [0.84033203125:17.186279296875] [1.0491943359375:25.6834716796875] [-11.7279052734375:21.14111328125] [-100:208] [-143:404] [-401:208]
tree_sizes=782 787 790 782 787 784 784 791 784 780 790 787 789 790 788 786 793 785 787 783 782 775 781 793 794 786 796 790 775 786 799 787 779 785 773 788 789 781 782 796 776 787 793 789 797 782 784 786 777 781 795 797 783 792 792 793 782 786 788 782 783 786 774 783 778 779 793 787 777 786 780 779 789 785 772 791 779 790 782 784 787 794 780 791 777 773 786 782 774 785 786 773 777 788 772 780 785 780 780 786

Tree=0
num_leaves=8
num_cat=0
split_feature=15 45 45 65 73 63 63
split_gain=6221.83 2396.16 2186.74 1008.33 821.784 721.871 677.475
threshold=3.5000000000000004 3.5000000000000004 3.5000000000000004 3.2500000000000004 1.0000000180025095e-35 74.500000000000014 66.500000000000014
decision_type=2 2 2 2 2 2 2
left_child=1 3 6 -1 -4 -3 -2
right_child=2 5 4 -5 -6 -7 -8
leaf_value=0.0020514049947909954 -0.0081490440552502413 -0.0020137075869534832 0.0010271182055094964 -0.020120643279977771 0.0033724484792059407 0.0050101488966785889 -0.00078918539140210319
leaf_count=449133 11516 13482 638423 1854 170527 588459 526605
internal_value=0 0.0575937 -0.0450177 0.00247106 -0.0121503 0.0988919 -0.0944259
internal_count=2399999 1052928 1347071 450987 808950 601941 538121
shrinkage=1


Tree=1
num_leaves=8
num_cat=0
split_feature=61 61 61 73 47 63 63
split_gain=8950.91 1953.62 1315.02 745.852 586.738 521.316 472.94
threshold=0.11369509249925615 -0.51657509803771962 0.5962963104248048 -1.0000000180025095e-35 2.5000000000000004 74.500000000000014 74.500000000000014
decision_type=2 2 2 2 2 2 2
left_child=1 4 5 -3 -1 -2 -4
right_child=2 3 6 -5 -6 -7 -8
leaf_value=-0.0088083377481714947 -0.0037897988166893221 -0.0024480093513755334 -0.0041228615912651881 -0.00036562532441786688 -0.003010081082305837 0.0014120037796183382 0.0036077560248337598
leaf_count=16333 17874 196152 7263 737940 425546 606266 392625
internal_value=0 -0.0526863 0.0707937 -0.0267643 -0.107482 0.0421002 0.115577
internal_count=2399999 1375971 1024028 934092 441879 624140 399888
shrinkage=0.03


Tree=2
num_leaves=8
num_cat=0
split_feature=61 61 61 73 47 16 16
split_gain=8421.87 1863.95 1237.26 821.553 644.138 515.613 430.768
threshold=0.11369509249925615 -0.66491228342056263 0.5962963104248048 -1.0000000180025095e-35 2.5000000000000004 10.500000000000002 4.5000000000000009
decision_type=2 2 2 2 2 2 2
left_child=1 4 5 -3 -1 -2 -4
right_child=2 3 6 -5 -6 -7 -8
leaf_value=-0.010591194437907625 0.0018700853713840258 -0.0025482119852495264 0.0050819520397026004 -0.00052632900478432145 -0.0033642795679018943 7.0593695853784634e-05 0.0027980086732757388
leaf_count=11568 400428 229952 98963 851162 283289 223712 300925
internal_value=0 -0.0511057 0.0686699 -0.0318799 -0.121597 0.0408371 0.112109
internal_count=2399999 1375971 1024028 1081114 294857 624140 399888
shrinkage=0.03


Tree=3
num_leaves=8
num_cat=0
split_feature=61 61 61 63 47 63 63
split_gain=7924.11 1753.95 1164.09 715.207 521.571 492.085 446.972
threshold=0.11369509249925615 -0.51657509803771962 0.5962963104248048 74.500000000000014 2.5000000000000004 74.500000000000014 74.500000000000014
decision_type=2 2 2 2 2 2 2
left_child=1 4 5 -3 -1 -2 -4
right_child=2 3 6 -5 -6 -7 -8
leaf_value=-0.0083099228306305704 -0.0037209485409709043 -0.005012019662099975 -0.0041167950527407878 -0.00058842546063409126 -0.0028426686870873553 0.0013331293718471247 0.0033989361131330684
leaf_count=16333 17874 34180 7263 899912 425546 606266 392625
internal_value=0 -0.0495726 0.0666098 -0.0250104 -0.101493 0.0396121 0.108746
internal_count=2399999 1375971 1024028 934092 441879 624140 399888
shrinkage=0.03


Tree=4
num_leaves=8
num_cat=0
split_feature=61 61 61 73 47 63 63
split_gain=7455.75 1674.1 1095.25 772.641 577.966 462.961 420.517
threshold=0.11369509249925615 -0.66491228342056263 0.5962963104248048 -1.0000000180025095e-35 2.5000000000000004 74.500000000000014 74.500000000000014
decision_type=2 2 2 2 2 2 2
left_child=1 4 5 -3 -1 -2 -4
right_child=2 3 6 -5 -6 -7 -8
leaf_value=-0.010024209880163077 -0.0036093263434475429 -0.0024396848016774043 -0.0039933086981675595 -0.0004788559367054931 -0.0031780720331937777 0.0012931356357236267 0.0032969681617055491
leaf_count=11568 17874 229952 7263 851162 283289 606266 392625
internal_value=0 -0.0480855 0.0646115 -0.0298646 -0.114892 0.0384237 0.105484
internal_count=2399999 1375971 1024028 1081114 294857 624140 399888
shrinkage=0.03


Tree=5
num_leaves=8
num_cat=0
split_feature=61 61 61 63 47 16 16
split_gain=7018.48 1669.52 927.026 700.743 463.506 423.445 410.756
threshold=0.14495798945426944 -0.51657509803771962 0.5962963104248048 74.500000000000014 2.5000000000000004 10.500000000000002 3.5000000000000004
decision_type=2 2 2 2 2 2 2
left_child=1 4 5 -3 -1 -2 -4
right_child=2 3 6 -5 -6 -7 -8
leaf_value=-0.0078390586859196157 0.0017927140509208408 -0.0048079422632114613 0.0052054922939075762 -0.00049930882014993674 -0.0026846134720960825 9.1870281994259784e-05 0.0026358153037430668
leaf_count=16333 371744 35276 67493 946574 425546 204638 332395
internal_value=0 -0.0447828 0.0653081 -0.0218043 -0.0958395 0.0396292 0.102319
internal_count=2399999 1423729 976270 981850 441879 576382 399888
shrinkage=0.03


Tree=6
num_leaves=8
num_cat=0
split_feature=15 45 45 65 73 63 16
split_gain=4570.23 1796.55 1432.83 1137.65 1019.67 570.416 305.018
threshold=2.5000000000000004 2.5000000000000004 4.5000000000000009 3.2500000000000004 1.0000000180025095e-35 66.500000000000014 4.5000000000000009
decision_type=2 2 2 2 2 2 2
left_child=2 5 3 -1 -3 -2 -4
right_child=1 4 6 -5 -6 -7 -8
leaf_value=0.0007843009019009679 -0.0089107813910255969 -0.00071561897810605189 0.0047993036926017125 -0.024283344620063891 0.0014839819126997598 -0.0022776978657456258 0.0027778876292116161
leaf_count=406091 11984 910482 89424 1636 239808 467341 273233
internal_value=0 -0.0300063 0.0634727 0.0227874 -0.00856803 -0.0814529 0.109213
internal_count=2399999 1629615 770384 407727 1150290 479325 362657
shrinkage=0.03


Tree=7
num_leaves=8
num_cat=0
split_feature=61 61 61 73 47 16 63
split_gain=6347.13 1451.93 906.456 716.626 513.795 458.549 398.534
threshold=0.11369509249925615 -0.66491228342056263 0.5962963104248048 -1.0000000180025095e-35 2.5000000000000004 9.5000000000000018 74.500000000000014
decision_type=2 2 2 2 2 2 2
left_child=1 4 5 -3 -1 -2 -4
right_child=2 3 6 -5 -6 -7 -8
leaf_value=-0.0093996450351160731 0.0017710933717444636 -0.0023087200008895911 -0.0040645469024085459 -0.00042023563232340726 -0.002944199024676057 0.00012396179202244385 0.0030329845121065627
leaf_count=11568 359861 229952 7263 851162 283289 264279 392625
internal_value=0 -0.0443671 0.0596151 -0.0273977 -0.106585 0.0357892 0.0968009
internal_count=2399999 1375971 1024028 1081114 294857 624140 399888
shrinkage=0.03


Tree=8
num_leaves=8
num_cat=0
split_feature=61 61 61 17 63 63 63
split_gain=5971.98 1369.01 852.837 577.568 554.52 438.912 374.941
threshold=0.11369509249925615 -0.39863014221191401 0.5962963104248048 13.500000000000002 74.500000000000014 74.500000000000014 74.500000000000014
decision_type=2 2 2 2 2 2 2
left_child=1 3 5 -1 -3 -2 -4
right_child=2 4 6 -5 -6 -7 -8
leaf_value=-0.0016918545868874145 -0.0035954487579577389 -0.0046422206707494758 -0.0039426272180113336 -0.0036374899004706761 -0.00027208901568931485 0.0011782023505522484 0.002941994986740545
leaf_count=418455 17874 27146 7263 204824 725546 606266 392625
internal_value=0 -0.0430362 0.0578267 -0.0777088 -0.0143242 0.0347155 0.0938968
internal_count=2399999 1375971 1024028 623279 752692 624140 399888
shrinkage=0.03


Tree=9
num_leaves=8
num_cat=0
split_feature=61 61 63 63 16 17 45
split_gain=5630 1719.29 712.304 690.907 661.068 543.387 512.592
threshold=0.31091010570526129 -0.39863014221191401 74.500000000000014 178.50000000000003 4.5000000000000009 13.500000000000002 15.500000000000002
decision_type=2 2 2 2 2 2 2
left_child=1 5 6 -3 -4 -1 -2
right_child=2 3 4 -5 -6 -7 -8
leaf_value=-0.0016410991469055138 -0.0028749434178752011 -0.00094250594091128709 0.0038119936067681531 0.00067129469666886551 0.0017223946046402664 -0.0035283657357313898 -0.03912631642167045
leaf_count=418455 19826 551300 175954 421955 607328 204824 357
internal_value=0 -0.0343617 0.0682782 -0.00809423 0.0730606 -0.0753776 -0.117294
internal_count=2399999 1596534 803465 973255 783282 623279 20183
shrinkage=0.03


Tree=10
num_leaves=8
num_cat=0
split_feature=61 61 63 16 73 47 47
split_gain=5311.99 1325.49 737.638 767.489 715.007 484.683 332.784
threshold=0.14495798945426944 -0.66491228342056263 74.500000000000014 4.5000000000000009 -1.0000000180025095e-35 2.5000000000000004 1.5000000000000002
decision_type=2 2 2 2 2 2 2
left_child=1 5 6 -4 -3 -1 -2
right_child=2 4 3 -5 -6 -7 -8
leaf_value=-0.0089844834161327426 -0.018540112885418882 -0.0021536551465741018 0.0034926288186231543 0.0013973744710780666 -0.00030804255569086243 -0.0027143332046383356 -0.0026571361303373443
leaf_count=11568 1255 240253 199163 753066 888619 283289 22786
internal_value=0 -0.0389607 0.0568173 0.0611875 -0.0233617 -0.0986803 -0.116254
internal_count=2399999 1423729 976270 952229 1128872 294857 24041
shrinkage=0.03


Tree=11
num_leaves=8
num_cat=0
split_feature=61 61 64 17 16 47 48
split_gain=5023.61 1544.6 528.912 509.512 481.155 444.124 391.232
threshold=0.31091010570526129 -0.39863014221191401 -0.24166110157966611 13.500000000000002 9.5000000000000018 7.5000000000000009 5.5000000000000009
decision_type=2 2 2 2 2 2 2
left_child=1 3 -3 -1 5 -2 -6
right_child=4 2 -4 -5 6 -7 -8
leaf_value=-0.0015394724904835766 0.0014216903251182034 -0.0010116845709338559 0.00039721588737200256 -0.00336704981864564 -0.0016472822864864536 0.0032571185879044437 0.0014361694632927594
leaf_count=418455 199283 431093 542162 204824 43103 294622 266457
internal_value=0 -0.0324588 -0.00756089 -0.0713362 0.0644969 0.0838862 0.0335593
internal_count=2399999 1596534 973255 623279 803465 493905 309560
shrinkage=0.03


Tree=12
num_leaves=8
num_cat=0
split_feature=61 61 65 46 17 16 17
split_gain=4746.45 1280.11 906.813 861.785 628.253 450.562 364.052
threshold=-1.0000000180025095e-35 0.40114942193031317 3.2500000000000004 8.5000000000000018 7.5000000000000009 4.5000000000000009 13.500000000000002
decision_type=2 2 2 2 2 2 2
left_child=3 2 -2 4 -1 -3 -5
right_child=1 5 -4 6 -6 -7 -8
leaf_value=-0.0011030343882041703 0.00037027913741002238 0.0036602308107887027 -0.023454015077508005 -1.014237234238439e-05 -0.0031617570190634221 0.0017461372448729449 -0.0016604747254437471
leaf_count=227471 702123 144200 1441 331865 323651 479919 189329
internal_value=0 0.0399691 0.0107143 -0.0494881 -0.0770689 0.072947 -0.0203224
internal_count=2399999 1327683 703564 1072316 551122 624119 521194
shrinkage=0.03


Tree=13
num_leaves=8
num_cat=0
split_feature=61 61 65 46 64 16 17
split_gain=4465.89 1204.41 853.213 810.808 629.97 423.888 342.491
threshold=-1.0000000180025095e-35 0.40114942193031317 3.2500000000000004 8.5000000000000018 -0.24166110157966611 4.5000000000000009 13.500000000000002
decision_type=2 2 2 2 2 2 2
left_child=3 2 -2 4 -1 -3 -5
right_child=1 5 -4 6 -6 -7 -8
leaf_value=-0.0033056225082920081 0.00035917077766179278 0.0035504245827888878 -0.022750882372693945 -9.838105647037608e-06 -0.0012735645740115705 0.0016937531495656152 -0.001610660711662219
leaf_count=262836 702123 144200 1441 331865 288286 479919 189329
internal_value=0 0.0387701 0.0103928 -0.0480035 -0.0747569 0.0707586 -0.0197128
internal_count=2399999 1327683 703564 1072316 551122 624119 521194
shrinkage=0.03


Tree=14
num_leaves=8
num_cat=0
split_feature=61 61 63 15 73 45 47
split_gain=4214.7 1096.07 706.084 728.608 631.469 507.018 453.715
threshold=0.11369509249925615 -0.66491228342056263 74.500000000000014 2.5000000000000004 -1.0000000180025095e-35 15.500000000000002 2.5000000000000004
decision_type=2 2 2 2 2 2 2
left_child=1 6 5 -4 -3 -2 -1
right_child=2 4 3 -5 -6 -7 -8
leaf_value=-0.0085352636605490872 -0.0029896225070350172 -0.0020380526240985288 0.0022749149770549182 0.00063337889703499065 -0.00026519934064935197 -0.038447070031661569 -0.0024684322660789484
leaf_count=11568 24769 229952 577516 421375 851162 368 283289
internal_value=0 -0.0361552 0.0485806 0.0527487 -0.02141 -0.117027 -0.0902176
internal_count=2399999 1375971 1024028 998891 1081114 25137 294857
shrinkage=0.03


Tree=15
num_leaves=8
num_cat=0
split_feature=61 61 73 63 16 70 45
split_gain=3984.96 1291.51 640.133 590.497 519.711 482.563 452.547
threshold=0.31091010570526129 -0.39863014221191401 1.0000000180025095e-35 74.500000000000014 4.5000000000000009 -2.2949829101562496 15.500000000000002
decision_type=2 2 2 2 2 2 2
left_child=1 5 -3 6 -5 -1 -2
right_child=3 2 -4 4 -6 -7 -8
leaf_value=-0.007442287059549157 -0.0027409547073107094 -0.00056903939936698655 0.0013559743483117141 0.0032907624275316061 0.001437702369710982 -0.0018071040725065213 -0.036806583731284349
leaf_count=14014 19826 778723 194532 175954 607328 609265 357
internal_value=0 -0.0289099 -0.00614185 0.0574448 0.0617997 -0.0644614 -0.111535
internal_count=2399999 1596534 973255 803465 783282 623279 20183
shrinkage=0.03


Tree=16
num_leaves=8
num_cat=0
split_feature=61 61 65 46 64 73 16
split_gain=3775.76 1025.59 802.283 750.498 606.092 422.181 340.822
threshold=-1.0000000180025095e-35 0.40114942193031317 3.2500000000000004 8.5000000000000018 0.28147299587726599 1.0000000180025095e-35 3.5000000000000004
decision_type=2 2 2 2 2 2 2
left_child=3 2 -2 4 -1 -3 -5
right_child=1 5 -4 6 -6 -7 -8
leaf_value=-0.0025138715881488694 0.00032980270151171571 0.0015788461092781424 -0.022080526186254043 0.0027721062677575812 0.0002771989852631008 0.0035764460367547091 -0.00068746913137600926
leaf_count=468692 702123 506580 1441 27091 82430 117539 494103
internal_value=0 0.0356492 0.00946168 -0.0441396 -0.0698797 0.0651693 -0.0169204
internal_count=2399999 1327683 703564 1072316 551122 624119 521194
shrinkage=0.03


Tree=17
num_leaves=8
num_cat=0
split_feature=61 63 61 68 63 68 16
split_gain=3552.56 987.545 894.234 752.503 737.488 1180.04 669.344
threshold=-1.0000000180025095e-35 74.500000000000014 0.49647887051105505 5.9305419921875009 66.500000000000014 5.5106811523437509 13.500000000000002
decision_type=2 2 2 2 2 2 2
left_child=4 3 -3 -2 5 -1 -6
right_child=1 2 -4 -5 6 -7 -8
leaf_value=-0.0053208901360806042 -0.0030215633474928879 0.00051092489841031202 0.0021143351855647144 -0.029759619955565943 -0.00069279908591101042 -0.037544499637341432 -0.0023553877848054459
leaf_count=17581 37551 752118 537042 972 745111 1086 308538
internal_value=0 0.0345797 0.0392964 -0.123245 -0.0428154 -0.239943 -0.0393223
internal_count=2399999 1327683 1289160 38523 1072316 18667 1053649
shrinkage=0.03


Tree=18
num_leaves=8
num_cat=0
split_feature=61 61 63 63 68 17 73
split_gain=3368.04 1191.81 669.834 582.148 1276.15 569.502 397.318
threshold=-0.24818840622901914 0.40114942193031317 178.50000000000003 66.500000000000014 5.9305419921875009 7.5000000000000009 1.0000000180025095e-35
decision_type=2 2 2 2 2 2 2
left_child=3 2 -2 4 -1 -5 -3
right_child=1 6 -4 5 -6 -7 -8
leaf_value=-0.0054512015653498487 -0.00055222077506538521 0.001477254507105605 0.0010722342596457988 -0.00031020244780255478 -0.048849727693329174 -0.0019773689903205493 0.0034152482919092607
leaf_count=15696 530602 506580 401964 278364 634 548620 117539
internal_value=0 0.0275753 0.00493175 -0.0509026 -0.237997 -0.0472073 0.0614087
internal_count=2399999 1556685 932566 843314 16330 826984 624119
shrinkage=0.03


Tree=19
num_leaves=8
num_cat=0
split_feature=61 61 63 63 68 17 16
split_gain=3168.96 1121.33 630.203 547.722 1200.81 535.799 378.865
threshold=-0.24818840622901914 0.40114942193031317 178.50000000000003 66.500000000000014 5.9305419921875009 7.5000000000000009 4.5000000000000009
decision_type=2 2 2 2 2 2 2
left_child=3 2 -2 4 -1 -5 -3
right_child=1 6 -4 5 -6 -7 -8
leaf_value=-0.0052876759259421783 -0.00053565419260383814 0.0031368473265085618 0.0010400672610964496 -0.00030089639242025372 -0.047386543375007278 -0.0019180480445229427 0.001381371174765683
leaf_count=15696 530602 144200 401964 278364 634 548620 479919
internal_value=0 0.0267481 0.00478378 -0.0493756 -0.230862 -0.0457911 0.0595665
internal_count=2399999 1556685 932566 843314 16330 826984 624119
shrinkage=0.03


Tree=20
num_leaves=8
num_cat=0
split_feature=61 61 16 63 16 45 68
split_gain=2993.04 1074.57 645.344 516.093 475.531 427.647 405.726
threshold=0.31091010570526129 -0.66491228342056263 10.500000000000002 74.500000000000014 9.5000000000000018 15.500000000000002 6.3184814453125009
decision_type=2 2 2 2 2 2 2
left_child=1 6 -3 5 -5 -2 -1
right_child=3 2 -4 4 -6 -7 -8
leaf_value=-0.0022157326766557221 -0.0026578553076703447 0.00018051080073553944 -0.0011765039141525193 0.0022069035915719399 0.00068992831334308165 -0.035774758772810077 -0.0096129290917831133
leaf_count=288012 19826 762958 538719 478023 305259 357 6845
internal_value=0 -0.0250557 -0.0127033 0.049786 0.0538577 -0.108204 -0.0795846
internal_count=2399999 1596534 1301677 803465 783282 20183 294857
shrinkage=0.03


Tree=21
num_leaves=8
num_cat=0
split_feature=63 68 16 46 59 70 45
split_gain=1529.32 1990.99 1757.93 804.441 800.492 785.335 401.056
threshold=74.500000000000014 5.9305419921875009 9.5000000000000018 8.5000000000000018 2.5000000000000004 -0.038513183593749993 15.500000000000002
decision_type=2 2 2 2 2 2 2
left_child=1 6 5 -4 -3 -2 -1
right_child=2 4 3 -5 -6 -7 -8
leaf_value=-0.0032379391337525498 1.4406267764007805e-05 -0.063417700617282122 -0.0017604315621131434 -8.3907676821851814e-05 -0.021401629902482847 0.0015415791989124141 -0.034211011840408971
leaf_count=74189 520762 589 428295 647806 1340 726640 378
internal_value=0 -0.139156 0.00458101 -0.0250397 -1.14216 0.0301344 -0.113187
internal_count=2399999 76496 2323503 1076101 1929 1247402 74567
shrinkage=0.03


Tree=22
num_leaves=8
num_cat=0
split_feature=61 61 65 46 17 15 16
split_gain=2816.9 985.705 606.87 511.594 437.073 351.759 322.881
threshold=-0.24818840622901914 0.40114942193031317 3.2500000000000004 5.5000000000000009 7.5000000000000009 2.5000000000000004 3.5000000000000004
decision_type=2 2 2 2 2 2 2
left_child=3 2 -2 4 -1 -3 -5
right_child=1 5 -4 6 -6 -7 -8
leaf_value=-0.0012088840514238499 0.00017123662001361831 0.0020989347383864993 -0.017913766043174514 0.0019048480815042812 -0.0037291500266043555 0.00046703113174040414 -0.0010915801188925128
leaf_count=117564 930892 463774 1674 34431 131402 160345 559917
internal_value=0 0.0252188 0.0046246 -0.0465531 -0.0846376 0.05599 -0.0305989
internal_count=2399999 1556685 932566 843314 248966 624119 594348
shrinkage=0.03


Tree=23
num_leaves=8
num_cat=0
split_feature=61 73 63 61 73 68 16
split_gain=2655.6 825.449 733.783 580.362 422.311 398.134 222.308
threshold=-0.11062163487076758 1.0000000180025095e-35 74.500000000000014 -0.66734144091606129 -1.0000000180025095e-35 6.3184814453125009 10.500000000000002
decision_type=2 2 2 2 2 2 2
left_child=3 2 -2 5 -5 -1 -3
right_child=1 6 -4 4 -6 -7 -8
leaf_value=-0.0022471710511868482 -0.003934184012643221 0.0030296476750204006 0.00063342820932311777 -0.002068202480208677 -0.00037861675812300352 -0.01073274375639228 0.0012358997458665458
leaf_count=243648 32643 166894 1079580 171433 601006 5090 99705
internal_value=0 0.0286303 0.0166452 -0.0386586 -0.0251207 -0.0806972 0.078629
internal_count=2399999 1378822 1112223 1021177 772439 248738 266599
shrinkage=0.03


Tree=24
num_leaves=8
num_cat=0
split_feature=61 61 73 73 63 47 16
split_gain=2536.64 906.396 688.072 445.776 427.013 389.824 130.334
threshold=0.31091010570526129 -0.66491228342056263 -1.0000000180025095e-35 1.0000000180025095e-35 74.500000000000014 2.5000000000000004 9.5000000000000018
decision_type=2 2 2 2 2 2 2
left_child=1 5 -3 4 -2 -1 -5
right_child=3 2 -4 6 -6 -7 -8
leaf_value=-0.0075979902917496867 -0.0036938059987889219 -0.0016763973748771116 7.8495369918217744e-06 0.0035551722524183845 0.0011585203643206252 -0.0019737974556331504 0.0017532096631258977
leaf_count=11568 16781 277846 1023831 91587 634795 283289 60302
internal_value=0 -0.023067 -0.0117215 0.0458341 0.0344508 -0.0731508 0.0946628
internal_count=2399999 1596534 1301677 803465 651576 294857 151889
shrinkage=0.03


Tree=25
num_leaves=8
num_cat=0
split_feature=61 63 68 16 73 15 16
split_gain=2398.41 747.441 1740.74 739.897 585.312 514.091 172.462
threshold=0.078461539000272765 74.500000000000014 5.9305419921875009 4.5000000000000009 1.0000000180025095e-35 2.5000000000000004 9.5000000000000018
decision_type=2 2 2 2 2 2 2
left_child=1 2 -1 -3 5 -2 -6
right_child=4 3 -4 -5 6 -7 -8
leaf_value=-0.0034493169076809578 0.0013544997021510119 0.0010425930195996826 -0.036077667287506693 -0.0010044570439181782 0.0032411215472126116 -0.00012784336443965092 0.0014871411758197279
leaf_count=48975 488812 186056 1517 1096590 118759 370827 88463
internal_value=0 -0.0282844 -0.147687 -0.0235836 0.0353428 0.0238346 0.083081
internal_count=2399999 1333138 50492 1282646 1066861 859639 207222
shrinkage=0.03


Tree=26
num_leaves=8
num_cat=0
split_feature=61 73 63 46 64 17 46
split_gain=2298.49 896.386 678.208 482.17 451.953 262.358 176.518
threshold=-0.26234818994998926 -1.0000000180025095e-35 74.500000000000014 8.5000000000000018 -0.66526308655738819 13.500000000000002 10.500000000000002
decision_type=2 2 2 2 2 2 2
left_child=3 6 -3 4 -1 -5 -2
right_child=1 2 -4 5 -6 -7 -8
leaf_value=-0.0049012187835809793 -0.0015387502818006635 -0.0029352668612972537 0.0011208728767243487 0.00010818883944218841 -0.0016540665319167711 -0.0015400197215567374 -4.7067531086757059e-05
leaf_count=42811 154937 38267 1259699 234950 397267 138566 133502
internal_value=0 0.0221653 0.0333758 -0.043221 -0.0656665 -0.0167741 -0.0282797
internal_count=2399999 1586405 1297966 813594 440078 373516 288439
shrinkage=0.03


Tree=27
num_leaves=8
num_cat=0
split_feature=61 46 64 16 73 47 16
split_gain=2181.62 843.468 746.549 439.629 391.096 369.75 115.514
threshold=0.31091010570526129 8.5000000000000018 -0.24166110157966611 5.5000000000000009 1.0000000180025095e-35 7.5000000000000009 9.5000000000000018
decision_type=2 2 2 2 2 2 2
left_child=1 2 -1 -3 5 -2 -6
right_child=4 3 -4 -5 6 -7 -8
leaf_value=-0.002315359790963692 -3.3102729741406783e-05 0.0017132855820331219 -0.00046999307449275998 -0.00025184607319353225 0.0033210956173649144 0.0014730273768231142 0.0016240216798269187
leaf_count=372225 223970 120790 420807 682712 91587 427606 60302
internal_value=0 -0.0213925 -0.0445391 0.00145181 0.0425068 0.0318431 0.0882483
internal_count=2399999 1596534 793032 803502 803465 651576 151889
shrinkage=0.03


Tree=28
num_leaves=8
num_cat=0
split_feature=15 46 65 0 63 70 16
split_gain=1688.03 1124.64 805.307 1532.79 733.675 622.007 547.495
threshold=2.5000000000000004 8.5000000000000018 3.2500000000000004 1632.2500000000002 214.50000000000003 -2.2949829101562496 5.5000000000000009
decision_type=2 2 2 2 2 2 2
left_child=2 5 4 -4 -1 -2 -3
right_child=1 6 3 -5 -6 -7 -8
leaf_value=0.00063623842128222809 -0.0068675167801774467 0.0019929197446073655 -0.047010717047019222 0.0044136061233716207 0.0027118623083030027 -0.0012736749451186403 -0.00013315936273755984
leaf_count=556392 18369 127370 900 1239 211853 720514 763362
internal_value=0 -0.0182391 0.0385802 -0.57428 0.040288 -0.0470923 0.00569479
internal_count=2399999 1629615 770384 2139 768245 738883 890732
shrinkage=0.03


Tree=29
num_leaves=8
num_cat=0
split_feature=61 61 16 63 68 17 15
split_gain=2029.63 783.651 616.02 431.536 1027.26 447.477 281.304
threshold=-0.26234818994998926 0.63739085197448742 10.500000000000002 66.500000000000014 5.5106811523437509 7.5000000000000009 2.5000000000000004
decision_type=2 2 2 2 2 2 2
left_child=3 2 -2 4 -1 -5 -3
right_child=1 6 -4 5 -6 -7 -8
leaf_value=-0.0041307522028334554 0.00080530474173615488 0.0023479826961984875 -0.00055768428308888677 -0.00012139965947957594 -0.035475611865937486 -0.001626753727548211 -0.00026266192664685297
leaf_count=15004 801058 265487 476548 268257 1004 529329 43312
internal_value=0 0.0208291 0.00989657 -0.0406155 -0.203323 -0.0373489 0.0660589
internal_count=2399999 1586405 1277606 813594 16008 797586 308799
shrinkage=0.03


Tree=30
num_leaves=8
num_cat=0
split_feature=61 73 16 46 70 73 63
split_gain=1909.64 825.483 626.912 416.659 390.63 308.596 160.158
threshold=-0.26234818994998926 -1.0000000180025095e-35 9.5000000000000018 5.5000000000000009 -2.2949829101562496 -1.0000000180025095e-35 115.50000000000001
decision_type=2 2 2 2 2 2 2
left_child=3 6 -3 4 -1 -5 -2
right_child=1 2 -4 5 -6 -7 -8
leaf_value=-0.0076667460494185677 -0.0021936317333956313 0.0014944190289380079 0.00015928725054342101 -0.0020459545356081642 -0.0019579399937226399 -0.0003662109894237227 -0.0004734732817707991
leaf_count=11340 62488 748156 549810 126850 231026 444378 225951
internal_value=0 0.0202042 0.0309626 -0.0393971 -0.0741713 -0.0246418 -0.0282063
internal_count=2399999 1586405 1297966 813594 242366 571228 288439
shrinkage=0.03


Tree=31
num_leaves=8
num_cat=0
split_feature=61 64 65 46 63 45 73
split_gain=1819.08 774.006 871.721 640.292 387.768 377.819 327.647
threshold=0.31091010570526129 -0.24166110157966611 5.2500000000000009 8.5000000000000018 74.500000000000014 15.500000000000002 1.0000000180025095e-35
decision_type=2 2 2 2 2 2 2
left_child=1 3 -3 -1 5 -2 -6
right_child=4 2 -4 -5 6 -7 -8
leaf_value=-0.0021754884134242767 -0.0023918618389183119 3.9714366748301466e-05 -0.067929935788187915 -0.00040637488458252586 0.00097325459017373508 -0.033523357101825357 0.0025405357165664165
leaf_count=372225 19826 858892 169 365248 634795 357 148487
internal_value=0 -0.0195351 0.000874881 -0.0433107 0.0388159 -0.0981632 0.0423462
internal_count=2399999 1596534 859061 737473 803465 20183 783282
shrinkage=0.03


Tree=32
num_leaves=8
num_cat=0
split_feature=15 46 65 62 64 70 16
split_gain=1421.03 867.236 729.533 1188.99 640.384 502.001 429.237
threshold=3.5000000000000004 8.5000000000000018 2.2500000000000004 67.500000000000014 0.30319648981094366 -2.2949829101562496 5.5000000000000009
decision_type=2 2 2 2 2 2 2
left_child=2 5 4 -4 -1 -2 -3
right_child=1 6 3 -5 -6 -7 -8
leaf_value=0.00057671198912818131 -0.0068569300083874424 0.001895964767594669 -0.040002538904374003 -0.0039952992521290467 0.0026274501302601463 -0.001352431021648156 -0.00024066566313280294
leaf_count=882307 15324 97541 932 7210 162479 586854 647352
internal_value=0 -0.0215192 0.0275295 -0.270774 0.0298549 -0.0497515 0.00130334
internal_count=2399999 1347071 1052928 8142 1044786 602178 744893
shrinkage=0.03


Tree=33
num_leaves=8
num_cat=0
split_feature=61 63 16 68 16 47 17
split_gain=1684.03 721.308 808.977 590.142 401.72 444.399 443.289
threshold=-0.26234818994998926 74.500000000000014 4.5000000000000009 5.1328735351562509 13.500000000000002 3.5000000000000004 13.500000000000002
decision_type=2 2 2 2 2 2 2
left_child=4 3 -3 -2 6 -6 -1
right_child=1 2 -4 -5 5 -7 -8
leaf_value=-0.00017338744131778131 -0.0023260530698111259 0.0020892518767620947 0.00034343631809782268 -0.017092855078764822 -0.0081189291190879118 -0.0018676649936288938 -0.0020438418149018346
leaf_count=419842 42450 295922 1245446 2587 10740 226081 156931
internal_value=0 0.0189736 0.0226207 -0.105833 -0.0369978 -0.0717087 -0.0227446
internal_count=2399999 1586405 1541368 45037 813594 236821 576773
shrinkage=0.03


Tree=34
num_leaves=8
num_cat=0
split_feature=15 46 65 0 63 69 16
split_gain=1295.27 938.258 715.791 1410.87 656.719 625.29 457.614
threshold=2.5000000000000004 8.5000000000000018 3.2500000000000004 1632.2500000000002 214.50000000000003 5.4866333007812509 5.5000000000000009
decision_type=2 2 2 2 2 2 2
left_child=2 5 4 -4 -1 -2 -3
right_child=1 6 3 -5 -6 -7 -8
leaf_value=0.00052064130269271255 -0.001555735983690293 0.0018425595916315178 -0.044895068666306735 0.0044424466945591472 0.0024845099033558317 0.0013989037344851343 -0.00010144296016221415
leaf_count=556392 667439 127370 900 1239 211853 71444 763362
internal_value=0 -0.0159782 0.0337973 -0.544032 0.0354075 -0.0423341 0.00588414
internal_count=2399999 1629615 770384 2139 768245 738883 890732
shrinkage=0.03


Tree=35
num_leaves=8
num_cat=0
split_feature=15 63 73 50 46 17 16
split_gain=1227.42 875.012 783.034 763.968 643.498 309.857 253.469
threshold=3.5000000000000004 214.50000000000003 1.0000000180025095e-35 1.5000000000000002 8.5000000000000018 3.5000000000000004 13.500000000000002
decision_type=2 2 2 2 2 2 2
left_child=1 3 4 -1 -2 -3 -4
right_child=2 5 6 -5 -6 -7 -8
leaf_value=-0.0080711398453294451 -0.0017895021456243339 0.0051231424931726692 0.0014467443560140137 0.00034035074309748009 -0.00030667700283136914 0.0018402358252394785 -0.00046979814239690043
leaf_count=9854 477958 28778 187524 750882 588334 263414 93255
internal_value=0 0.0255865 -0.0200005 0.00771215 -0.0323786 0.0721212 0.027005
internal_count=2399999 1052928 1347071 760736 1066292 292192 280779
shrinkage=0.03


Tree=36
num_leaves=8
num_cat=0
split_feature=61 64 70 65 73 47 16
split_gain=1510.78 583.933 684.378 632.109 490.814 418.169 130.783
threshold=0.078461539000272765 -0.28919091820716852 -2.2949829101562496 5.2500000000000009 1.0000000180025095e-35 8.5000000000000018 10.500000000000002
decision_type=2 2 2 2 2 2 2
left_child=1 2 -1 -3 5 -2 -6
right_child=4 3 -4 -5 6 -7 -8
leaf_value=-0.012908832131749447 -0.00023819628819083446 -0.00012200944416846072 -0.0013106585224908983 -0.060943817539842099 0.0027244949450641993 0.0010997495960710466 0.001152732825501929
leaf_count=4621 369015 767451 560913 153 131891 490624 75331
internal_value=0 -0.0224507 -0.0468492 -0.00447438 0.0280529 0.0175132 0.0717732
internal_count=2399999 1333138 565534 767604 1066861 859639 207222
shrinkage=0.03


Tree=37
num_leaves=8
num_cat=0
split_feature=15 46 65 62 17 70 16
split_gain=1128.43 835.958 674.442 1281.95 569.281 517.692 433.784
threshold=2.5000000000000004 8.5000000000000018 2.2500000000000004 115.50000000000001 1.5000000000000002 -2.2949829101562496 9.5000000000000018
decision_type=2 2 2 2 2 2 2
left_child=2 5 4 -4 -1 -2 -3
right_child=1 6 3 -5 -6 -7 -8
leaf_value=0.0067440813085820894 -0.0061707686194760235 0.00092464734086292199 -0.031242179476905479 -0.00086951273342633759 0.00091136490433065746 -0.0010668830538368716 -0.00041140660592516493
leaf_count=15390 18369 388750 1679 4910 748405 720514 501982
internal_value=0 -0.0149143 0.0315469 -0.287163 0.0342973 -0.0397932 0.00572276
internal_count=2399999 1629615 770384 6589 763795 738883 890732
shrinkage=0.03


Tree=38
num_leaves=8
num_cat=0
split_feature=61 63 68 16 16 63 73
split_gain=1396.16 775.718 1600.19 788.786 295.701 264.596 225.076
threshold=0.40114942193031317 74.500000000000014 5.9305419921875009 11.500000000000002 4.5000000000000009 74.500000000000014 1.0000000180025095e-35
decision_type=2 2 2 2 2 2 2
left_child=1 2 -1 -3 5 -2 -6
right_child=4 3 -4 -5 6 -7 -8
leaf_value=-0.0029031132334078661 -0.0037885829297404053 0.00017586713221076292 -0.032586184584751855 -0.0011651902248697406 0.00054483358497335718 0.0026807310356319444 0.002196195906624124
leaf_count=61675 5949 1094081 1679 618445 387634 138251 92285
internal_value=0 -0.0143029 -0.123017 -0.0102807 0.0406954 0.080457 0.0287471
internal_count=2399999 1775880 63354 1712526 624119 144200 479919
shrinkage=0.03


Tree=39
num_leaves=8
num_cat=0
split_feature=61 73 63 17 46 18 47
split_gain=1355.56 733.021 519.165 375.864 443.734 338.741 145.724
threshold=-0.26234818994998926 -1.0000000180025095e-35 74.500000000000014 7.5000000000000009 4.5000000000000009 18.500000000000004 9.5000000000000018
decision_type=2 2 2 2 2 2 2
left_child=3 6 -3 5 -5 -1 -2
right_child=1 2 -4 4 -6 -7 -8
leaf_value=0.00032624394253017184 -0.0015095121596195799 -0.0026298864460932892 0.00091952863596451279 -0.0033900983510705982 -0.0010732659438877077 -0.0027089511410581251 -0.00015637631053667573
leaf_count=238083 149534 38267 1259699 89427 447551 38533 138905
internal_value=0 0.0170238 0.0271623 -0.0331959 -0.048638 -0.00321724 -0.0285977
internal_count=2399999 1586405 1297966 813594 536978 276616 288439
shrinkage=0.03


Tree=40
num_leaves=8
num_cat=0
split_feature=61 73 63 63 68 17 16
split_gain=1275.4 699.89 565.764 365.455 924.856 382.6 179.58
threshold=-0.26234818994998926 1.0000000180025095e-35 214.50000000000003 66.500000000000014 5.5106811523437509 7.5000000000000009 12.500000000000002
decision_type=2 2 2 2 2 2 2
left_child=3 2 -2 4 -1 -5 -3
right_child=1 6 -4 5 -6 -7 -8
leaf_value=-0.0035903410789013875 -0.00023720249951095568 0.0022335780794472309 0.0011304558680080444 4.8024594373620532e-05 -0.033332972418277096 -0.0013440179652941002 0.00062829028789289278
leaf_count=15004 882744 221225 394348 268257 1004 529329 88088
internal_value=0 0.016513 0.00617 -0.0322 -0.181955 -0.0291935 0.0592156
internal_count=2399999 1586405 1277092 813594 16008 797586 309313
shrinkage=0.03


Tree=41
num_leaves=8
num_cat=0
split_feature=61 73 63 16 47 64 42
split_gain=1241.43 737.24 657.386 280.452 267.725 247.627 208.999
threshold=0.40114942193031317 1.0000000180025095e-35 178.50000000000003 3.5000000000000004 7.5000000000000009 -0.27392022311687464 1588.7500000000002
decision_type=2 2 2 2 2 2 2
left_child=1 2 -1 6 -5 -3 -2
right_child=3 5 -4 4 -6 -7 -8
leaf_value=-0.0012677643641906663 0.014400453102369844 -7.7489702569007464e-05 3.8002205018894812e-05 -0.00016772820797053624 0.0013163038359825341 0.0015194959862706592 0.0024679609577992474
leaf_count=814310 1344 156415 605834 155744 371077 199321 95954
internal_value=0 -0.0134875 -0.0236905 0.0383754 0.0292517 0.0272423 0.0877696
internal_count=2399999 1775880 1420144 624119 526821 355736 97298
shrinkage=0.03


Tree=42
num_leaves=8
num_cat=0
split_feature=61 73 64 16 63 15 72
split_gain=1168.02 719.046 648.681 266.796 240.327 213.516 185.935
threshold=0.40114942193031317 -1.0000000180025095e-35 -0.24166110157966611 4.5000000000000009 74.500000000000014 3.5000000000000004 3.5000000000000004
decision_type=2 2 2 2 2 2 2
left_child=1 6 -3 4 -2 -5 -1
right_child=3 2 -4 5 -6 -7 -8
leaf_value=-0.0018402330576413961 -0.0036618992051383591 -0.00077900426452025349 0.00051413303538891788 0.0010627953230484004 0.0025044494764295605 -0.0006257757022096631 0.00011651856400664477
leaf_count=318635 5949 649313 757059 398473 138251 81446 50873
internal_value=0 -0.0130829 -0.00276299 0.0372242 0.0749976 0.0258733 -0.0523597
internal_count=2399999 1775880 1406372 624119 144200 479919 369508
shrinkage=0.03


Tree=43
num_leaves=8
num_cat=0
split_feature=61 73 16 63 68 17 47
split_gain=1137.05 641.566 489.009 338.623 881.429 357.386 132.838
threshold=-0.26234818994998926 -1.0000000180025095e-35 10.500000000000002 66.500000000000014 6.3184814453125009 7.5000000000000009 9.5000000000000018
decision_type=2 2 2 2 2 2 2
left_child=3 6 -3 4 -1 -5 -2
right_child=1 2 -4 5 -6 -7 -8
leaf_value=-0.0040784051572305734 -0.0014350056970855859 0.0011913016399339351 -2.1262308842941531e-05 6.7625423221118081e-05 -0.048092891645358959 -0.0012778584481041571 -0.0001427565699150013
leaf_count=15588 149534 828100 469866 268257 420 529329 138905
internal_value=0 0.0155923 0.025078 -0.0304045 -0.174569 -0.0275102 -0.0270915
internal_count=2399999 1586405 1297966 813594 16008 797586 288439
shrinkage=0.03


Tree=44
num_leaves=8
num_cat=0
split_feature=61 73 46 47 49 16 65
split_gain=1074.79 506.464 462.231 412.206 398.145 296.944 198.146
threshold=0.078461539000272765 -1.0000000180025095e-35 1.5000000000000002 9.5000000000000018 42.500000000000007 9.5000000000000018 0.75000000000000011
decision_type=2 2 2 2 2 2 2
left_child=1 6 -3 4 -2 -5 -1
right_child=3 2 -4 5 -6 -7 -8
leaf_value=-0.0024198465267855035 2.883189242671289e-05 -0.0034554570297860433 -0.00014146016511107861 0.0020151387688714284 0.0061056596120955707 0.00057363183651208487 -0.00081508975286726285
leaf_count=155032 540521 39417 1012615 267116 9899 249325 126074
internal_value=0 -0.0189381 -0.00885482 0.0236636 0.00460528 0.0439749 -0.0566728
internal_count=2399999 1333138 1052032 1066861 550420 516441 281106
shrinkage=0.03


Tree=45
num_leaves=8
num_cat=0
split_feature=61 73 63 70 29 16 18
split_gain=1033.09 710.541 600.833 342.94 423.562 322.754 182.949
threshold=-0.39863014221191401 1.0000000180025095e-35 74.500000000000014 -2.2949829101562496 36.500000000000007 3.5000000000000004 14.500000000000002
decision_type=2 2 2 2 2 2 2
left_child=3 2 -2 4 -1 -5 -3
right_child=1 6 -4 5 -6 -7 -8
leaf_value=-0.004365728339330347 -0.0033974119444924698 0.0020138138121210841 0.00018242345791470881 0.0014957251712625706 -0.026205077753003778 -0.0011402432467810455 0.00046621413637420409
leaf_count=13162 43575 251196 1386724 45260 852 564005 95225
internal_value=0 0.0122923 0.00244495 -0.0350426 -0.189878 -0.03148 0.0529484
internal_count=2399999 1776720 1430299 623279 14014 609265 346421
shrinkage=0.03


Tree=46
num_leaves=8
num_cat=0
split_feature=61 64 65 70 16 73 13
split_gain=999.433 668.817 890.672 745.821 248.466 208.131 197.846
threshold=0.40114942193031317 0.28147299587726599 5.2500000000000009 0.038757324218750007 3.5000000000000004 1.0000000180025095e-35 1611.7500000000002
decision_type=2 2 2 2 2 2 2
left_child=1 3 -3 -1 6 -6 -2
right_child=4 2 -4 -5 5 -7 -8
leaf_value=-0.001416660638652047 0.0071265571411572538 0.00098975423853672946 -0.081481539384793425 -5.2542740693790027e-05 0.00048468319288975427 0.0020031880739166761 0.0020367493358072362
leaf_count=618530 7476 289644 117 867589 425981 100840 89822
internal_value=0 -0.0121027 0.0318707 -0.0206769 0.034435 0.0258458 0.0809351
internal_count=2399999 1775880 289761 1486119 624119 526821 97298
shrinkage=0.03


Tree=47
num_leaves=8
num_cat=0
split_feature=61 73 63 17 16 68 16
split_gain=952.389 691.24 580.95 316.15 313.083 288.629 180.935
threshold=-0.45330013334751124 1.0000000180025095e-35 115.50000000000001 13.500000000000002 13.500000000000002 6.3184814453125009 13.500000000000002
decision_type=2 2 2 2 2 2 2
left_child=3 2 -2 4 -1 -5 -3
right_child=1 6 -4 5 -6 -7 -8
leaf_value=-8.2253161668432981e-05 -0.0010513259352573129 0.0019025992061880151 0.00036534978231845947 -0.0019557022733560736 -0.00209172951047893 -0.011631322699142204 0.0003555931781724267
leaf_count=280204 337882 268353 1144247 181566 93225 2825 91697
internal_value=0 0.0109656 0.00141262 -0.0362158 -0.0194652 -0.0701361 0.0502885
internal_count=2399999 1842179 1482129 557820 373429 184391 360050
shrinkage=0.03


Tree=48
num_leaves=8
num_cat=0
split_feature=61 63 69 65 16 47 65
split_gain=920.331 626.474 706.401 497.905 236.545 222.487 176.644
threshold=0.40114942193031317 74.500000000000014 5.2173461914062509 2.2500000000000004 2.5000000000000004 7.5000000000000009 2.7500000000000004
decision_type=2 2 2 2 2 2 2
left_child=1 3 -3 -1 6 -6 -2
right_child=4 2 -4 -5 5 -7 -8
leaf_value=-0.0030222248646834889 0.0030289383517630485 -0.00046920694644505406 0.0013812839584083857 -0.030828520949173453 -8.6211872531843684e-05 0.001202869909615925 -0.011255890451809731
leaf_count=62769 56519 1500394 212132 585 174796 392012 792
internal_value=0 -0.0116142 -0.00799919 -0.109323 0.0330452 0.0268436 0.0943692
internal_count=2399999 1775880 1712526 63354 624119 566808 57311
shrinkage=0.03


Tree=49
num_leaves=8
num_cat=0
split_feature=61 69 47 65 47 16 17
split_gain=878.443 518.115 729.425 533.05 327.415 527.805 338.089
threshold=-0.26234818994998926 5.3847045898437509 7.5000000000000009 2.7500000000000004 2.5000000000000004 58.500000000000007 7.5000000000000009
decision_type=2 2 2 2 2 2 2
left_child=4 2 -2 -3 5 -1 -6
right_child=1 3 -4 -5 6 -7 -8
leaf_value=-0.002964338920546125 -0.00076965241491854701 0.0022367062636303651 0.00069050905270130563 -0.0086911519664210658 0.00021051937141996468 -0.021538636147661834 -0.0011185657560949748
leaf_count=29433 453520 166715 962049 4121 257024 1446 525691
internal_value=0 0.0137061 0.00742306 0.0657654 -0.0267269 -0.127843 -0.022737
internal_count=2399999 1586405 1415569 170836 813594 30879 782715
shrinkage=0.03


Tree=50
num_leaves=8
num_cat=0
split_feature=73 16 63 46 46 65 65
split_gain=910.913 734.135 660.442 529.627 202.186 173.821 94.8998
threshold=-1.0000000180025095e-35 10.500000000000002 66.500000000000014 4.5000000000000009 10.500000000000002 0.75000000000000011 3.2500000000000004
decision_type=2 2 2 2 2 2 2
left_child=4 2 -2 -3 5 -1 -6
right_child=1 3 -4 -5 6 -7 -8
leaf_value=-0.0023802873035685388 -0.0041915895878024368 -0.0024939328018903912 0.00085530230045237604 -0.00013627906215497518 -0.00043545485525820903 -0.00083927532569577222 -0.027570865512467346
leaf_count=155475 23842 98820 1157498 655659 193350 115239 116
internal_value=0 0.00954326 0.0251143 -0.0148367 -0.0398022 -0.0574787 -0.0150648
internal_count=2399999 1935819 1181340 754479 464180 270714 193466
shrinkage=0.03


Tree=51
num_leaves=8
num_cat=0
split_feature=73 16 63 48 46 65 16
split_gain=857.039 690.704 621.367 510.719 191.101 151.425 119.885
threshold=-1.0000000180025095e-35 10.500000000000002 66.500000000000014 5.5000000000000009 9.5000000000000018 0.75000000000000011 5.5000000000000009
decision_type=2 2 2 2 2 2 2
left_child=4 2 -2 -3 5 -1 -6
right_child=1 3 -4 -5 6 -7 -8
leaf_value=-0.002411470654866426 -0.0040658471729502878 -0.0024728605169047914 0.00082964325166977543 -0.00013280933678676605 0.00092000334259636195 -0.00087304042342367129 -0.00086378373448360427
leaf_count=135874 23842 96377 1157498 658102 41797 100863 185646
internal_value=0 0.00925693 0.0243609 -0.0143917 -0.0386083 -0.0585361 -0.0178637
internal_count=2399999 1935819 1181340 754479 464180 236737 227443
shrinkage=0.03


Tree=52
num_leaves=8
num_cat=0
split_feature=61 64 65 70 15 61 70
split_gain=824.99 607.252 833.2 675.27 229.153 208.249 111.812
threshold=0.40114942193031317 0.28147299587726599 5.2500000000000009 0.038757324218750007 3.5000000000000004 0.80109891295433056 -0.23724365234374997
decision_type=2 2 2 2 2 2 2
left_child=1 3 -3 -1 5 -2 -6
right_child=4 2 -4 -5 6 -7 -8
leaf_value=-0.0013328141092463421 0.00090855113488885189 0.00095971730092852766 -0.07880869413205123 -3.4748927250215392e-05 -0.0022566526143462154 0.0024866559924220221 0.00016130218198935351
leaf_count=618530 439925 289644 117 867589 23027 91205 69962
internal_value=0 -0.0109968 0.0309062 -0.0191674 0.0312882 0.0393191 -0.0145772
internal_count=2399999 1775880 289761 1486119 624119 531130 92989
shrinkage=0.03


Tree=53
num_leaves=8
num_cat=0
split_feature=73 46 64 16 46 16 69
split_gain=802.044 653.179 643.948 453.768 179.078 130.428 129.39
threshold=-1.0000000180025095e-35 8.5000000000000018 0.28147299587726599 6.5000000000000009 8.5000000000000018 5.5000000000000009 5.2936401367187509
decision_type=2 2 2 2 2 2 2
left_child=4 2 -2 -3 6 -6 -1
right_child=1 3 -4 -5 5 -7 -8
leaf_value=-0.0021097187345975048 -0.00066033766853717364 0.0018660736901362498 0.0014928994450241831 0.00041795041386487206 0.00080047435094466777 -0.000923395290370573 4.9012957890828273e-05
leaf_count=172133 770670 263362 149403 752384 48782 213850 29415
internal_value=0 0.00895523 -0.0103558 0.0264478 -0.0373502 -0.0201047 -0.0598196
internal_count=2399999 1935819 920073 1015746 464180 262632 201548
shrinkage=0.03


Tree=54
num_leaves=8
num_cat=0
split_feature=61 73 63 47 48 18 17
split_gain=792.419 673.754 585.281 295.613 342.979 197.332 194.735
threshold=-0.66491228342056263 1.0000000180025095e-35 214.50000000000003 2.5000000000000004 2.5000000000000004 14.500000000000002 13.500000000000002
decision_type=2 2 2 2 2 2 2
left_child=3 2 -2 4 -1 -3 -5
right_child=1 5 -4 6 -6 -7 -8
leaf_value=-0.016231000923992028 -0.00043133381909365618 0.0017007640743434294 0.00078032648218988733 -0.00067206664344206495 -0.0035048030501329016 0.0002343325771808805 -0.0023127005574294537
leaf_count=2415 1175317 297451 517404 180919 9153 114970 102370
internal_value=0 0.00680306 -0.00203212 -0.0485755 -0.205469 0.0430669 -0.0421663
internal_count=2399999 2105142 1692721 294857 11568 412421 283289
shrinkage=0.03


Tree=55
num_leaves=8
num_cat=0
split_feature=61 73 63 17 16 68 18
split_gain=757.045 589.404 494.004 272.32 271.905 268.025 155.071
threshold=-0.45330013334751124 1.0000000180025095e-35 115.50000000000001 13.500000000000002 3.5000000000000004 6.3184814453125009 14.500000000000002
decision_type=2 2 2 2 2 2 2
left_child=3 2 -2 4 -1 -5 -3
right_child=1 6 -4 5 -6 -7 -8
leaf_value=0.0019607588242415248 -0.00098000075675872488 0.0017675694958886508 0.00032651809887063768 -0.0017703815049311313 -0.00076909820565427721 -0.011095156914476925 0.00037035343049942362
leaf_count=36492 337882 260875 1144247 181566 336937 2825 99175
internal_value=0 0.00977743 0.000955316 -0.0322922 -0.0167429 -0.0637795 0.0460918
internal_count=2399999 1842179 1482129 557820 373429 184391 360050
shrinkage=0.03


Tree=56
num_leaves=8
num_cat=0
split_feature=16 63 68 48 17 46 70
split_gain=740.316 673.909 1447.74 604.129 574.456 299.544 295.597
threshold=10.500000000000002 74.500000000000014 5.9305419921875009 5.5000000000000009 3.5000000000000004 9.5000000000000018 -2.2949829101562496
decision_type=2 2 2 2 2 2 2
left_child=1 2 -1 6 -3 -5 -2
right_child=3 4 -4 5 -6 -7 -8
leaf_value=-0.0019442112538574975 -0.0098410379434990206 0.0024890684237780301 -0.030625146123635448 -0.001012571096694205 0.00036369464936753773 0.00014174760490848085 -0.0023407993986707541
leaf_count=56067 4947 125935 1630 362248 1273957 460862 114353
internal_value=0 0.0141289 -0.0918418 -0.021854 0.0184969 -0.0122082 -0.0884006
internal_count=2399999 1457589 57697 942410 1399892 823110 119300
shrinkage=0.03


Tree=57
num_leaves=8
num_cat=0
split_feature=73 46 16 63 46 65 65
split_gain=735.818 630.943 750.158 666.143 163.145 153.039 87.8682
threshold=-1.0000000180025095e-35 1.5000000000000002 3.5000000000000004 66.500000000000014 10.500000000000002 0.75000000000000011 3.2500000000000004
decision_type=2 2 2 2 2 2 2
left_child=4 3 -3 -2 5 -1 -6
right_child=1 2 -4 -5 6 -7 -8
leaf_value=-0.002165504724933882 -0.012987907277384369 0.0020439432885486762 0.0001392096660327506 -0.0018139423253656702 -0.0003904804436566293 -0.00071912068996156787 -0.026509370789504966
leaf_count=155475 5299 209682 1669062 51776 193350 115239 116
internal_value=0 0.00857791 0.0117267 -0.0950612 -0.0357764 -0.051662 -0.0135452
internal_count=2399999 1935819 1878744 57075 464180 270714 193466
shrinkage=0.03


Tree=58
num_leaves=8
num_cat=0
split_feature=61 73 63 15 47 18 47
split_gain=723.695 576.378 504.781 217.09 206.852 198.167 98.115
threshold=0.50172412395477306 1.0000000180025095e-35 178.50000000000003 3.5000000000000004 1.5000000000000002 14.500000000000002 7.5000000000000009
decision_type=2 2 2 2 2 2 2
left_child=1 2 -1 4 -2 -3 -5
right_child=3 5 -4 6 -6 -7 -8
leaf_value=-0.00097602337487965555 -0.0058330201260062258 0.0012044122623781821 0.00011689095591671015 -0.0029592870489179896 0.0013801374142012972 -0.00030507322435509001 2.7688030201408834e-05
leaf_count=893044 3622 280311 664168 13542 398368 109149 37795
internal_value=0 -0.00838473 -0.0169958 0.0360022 0.0438365 0.0260443 -0.0253328
internal_count=2399999 1946672 1557212 453327 401990 389460 51337
shrinkage=0.03


Tree=59
num_leaves=8
num_cat=0
split_feature=46 64 70 65 16 65 73
split_gain=685.256 582.957 587.796 579.125 482.886 403.92 268.844
threshold=8.5000000000000018 0.28147299587726599 1.7224731445312502 5.2500000000000009 6.5000000000000009 3.2500000000000004 -1.0000000180025095e-35
decision_type=2 2 2 2 2 2 2
left_child=1 2 -1 -3 5 -2 -6
right_child=4 3 -4 -5 6 -7 -8
leaf_value=-0.001049587577353069 0.0015162260792149283 0.0010551013906697929 0.0018897784826163886 -0.063840147081214271 -0.00086187023320719925 -0.019393725828842041 0.00038845826157566082
leaf_count=873188 329623 182377 65933 123 195537 834 752384
internal_value=0 -0.0180501 -0.0281068 0.0336977 0.0158356 0.0487783 0.00435081
internal_count=2399999 1121621 939121 182500 1278378 330457 947921
shrinkage=0.03


Tree=60
num_leaves=8
num_cat=0
split_feature=61 16 73 48 68 63 17
split_gain=692.793 598.158 542.348 532.942 303.184 861.061 202.394
threshold=-0.66734144091606129 4.5000000000000009 1.0000000180025095e-35 1.5000000000000002 6.3184814453125009 74.500000000000014 1.5000000000000002
decision_type=2 2 2 2 2 2 2
left_child=4 3 -3 -2 6 -6 -1
right_child=1 2 -4 -5 5 -7 -8
leaf_value=0.00767212553847857 -0.0052743773052904589 -0.00033034253833018015 0.00097879606919565407 0.001418516883208589 -0.068270984266635165 -0.0061900962075555829 -0.0014313576385038284
leaf_count=2225 11030 1399333 358204 382694 209 4881 241423
internal_value=0 0.00577975 -0.00211726 0.0410322 -0.0499932 -0.291835 -0.0449377
internal_count=2399999 2151261 1757537 393724 248738 5090 243648
shrinkage=0.03


Tree=61
num_leaves=8
num_cat=0
split_feature=61 73 63 47 69 16 16
split_gain=668.49 444.09 401.198 268.977 285.8 215.958 149.218
threshold=0.31091010570526129 1.0000000180025095e-35 178.50000000000003 7.5000000000000009 5.3847045898437509 9.5000000000000018 13.500000000000002
decision_type=2 2 2 2 2 2 2
left_child=1 2 -1 4 -2 -5 -3
right_child=3 6 -4 5 -6 -7 -8
leaf_value=-0.0010672162900807137 -0.00049673327590092555 0.0010681795145132437 9.3472383429156795e-06 0.0016440422209124327 0.0020666261919647347 0.00042039214026184148 -0.00034339347110969758
leaf_count=729832 227871 224374 545316 294622 47414 233558 97012
internal_value=0 -0.0118469 -0.0202271 0.0235385 -0.001839 0.0367661 0.0214014
internal_count=2399999 1596534 1275148 803465 275285 528180 321386
shrinkage=0.03


Tree=62
num_leaves=8
num_cat=0
split_feature=63 68 16 58 73 67 18
split_gain=659.84 1335.55 825.746 687.902 524.342 390.375 386.577
threshold=74.500000000000014 5.9305419921875009 4.5000000000000009 1.5000000000000002 -1.0000000180025095e-35 1609.4893188476565 80.500000000000014
decision_type=2 2 2 2 2 2 2
left_child=1 6 5 -3 -4 -2 -1
right_child=2 3 4 -5 -6 -7 -8
leaf_value=-0.0017144377354596306 0.0043001148799639904 -0.074870033623453583 -0.00116436847464372 -0.020593753537333285 7.9246521350796091e-05 0.0010372189593998958 -0.014086528265746596
leaf_count=72216 36403 240 380869 1689 1545423 360808 2351
internal_value=0 -0.091435 0.00300969 -0.91299 -0.00555451 0.0445433 -0.0701633
internal_count=2399999 76496 2323503 1929 1926292 397211 74567
shrinkage=0.03


Tree=63
num_leaves=8
num_cat=0
split_feature=46 64 69 65 16 65 73
split_gain=642.919 571.14 666.139 654.81 507.868 412.687 343.706
threshold=7.5000000000000009 0.28147299587726599 5.4866333007812509 5.2500000000000009 5.5000000000000009 3.2500000000000004 -1.0000000180025095e-35
decision_type=2 2 2 2 2 2 2
left_child=1 2 -1 -3 5 -2 -6
right_child=4 3 -4 -5 6 -7 -8
leaf_value=-0.0013021898273708652 0.0016072740580263269 0.0011042077939935955 0.0012013965083972303 -0.070861171544774573 -0.00088561910929196386 -0.019200075690729439 0.00038119440271206992
leaf_count=669820 278999 154763 111723 113 243096 861 940624
internal_value=0 -0.0204745 -0.0314759 0.0350382 0.0130988 0.0514379 0.00403402
internal_count=2399999 936419 781543 154876 1463580 279860 1183720
shrinkage=0.03


Tree=64
num_leaves=8
num_cat=0
split_feature=61 69 46 65 68 19 17
split_gain=630.317 554.984 659.496 509.668 285.031 691.23 189.162
threshold=-0.66734144091606129 5.2173461914062509 4.5000000000000009 2.2500000000000004 6.3184814453125009 124.50000000000001 1.5000000000000002
decision_type=2 2 2 2 2 2 2
left_child=4 2 -2 -3 6 -6 -1
right_child=1 3 -4 -5 5 -7 -8
leaf_value=0.0074379399271425062 -0.0014404908577981032 0.0016213721825505476 0.00020068960460646503 -0.0054116473494307633 -0.0059956575907667035 -0.058091331278263776 -0.0013640568972927499
leaf_count=2225 255747 279952 1605958 9604 4850 240 241423
internal_value=0 0.00551321 -0.0008252 0.0462677 -0.0476884 -0.282197 -0.0427862
internal_count=2399999 2151261 1861705 289556 248738 5090 243648
shrinkage=0.03


Tree=65
num_leaves=8
num_cat=0
split_feature=61 16 65 47 15 63 63
split_gain=622.851 576.007 470.499 446.451 207.75 201.47 111.684
threshold=0.63739085197448742 13.500000000000002 2.2500000000000004 3.5000000000000004 2.5000000000000004 66.500000000000014 66.500000000000014
decision_type=2 2 2 2 2 2 2
left_child=1 2 -1 -3 6 -6 -2
right_child=4 3 -4 -5 5 -7 -8
leaf_value=0.00014706875194111618 -0.0053112161801523615 -0.0053601202651219534 -0.0067092875743218431 -0.00086012529807190656 -0.051622492694428992 -0.0005884855173789173 0.0016286731099249337
leaf_count=1545060 2116 20672 9074 516394 69 43243 263371
internal_value=0 -0.00619494 0.00356744 -0.0344457 0.0419469 -0.0223775 0.0524428
internal_count=2399999 2091200 1554134 537066 308799 43312 265487
shrinkage=0.03


Tree=66
num_leaves=8
num_cat=0
split_feature=70 48 64 64 11 64 69
split_gain=600.978 798.839 737.121 530.99 466.045 428.497 317.585
threshold=-0.11871337890624999 5.5000000000000009 -0.27392022311687464 -0.80398148298263539 1657.2500000000002 0.30319648981094366 5.2173461914062509
decision_type=2 2 2 2 2 2 2
left_child=1 3 6 -1 -4 -3 -2
right_child=2 5 4 -5 -6 -7 -8
leaf_value=-0.013574288838542226 -0.00050782757818231829 -0.00059224004040565783 0.0017219506724219448 -0.0019857482803453666 3.3084449177094422e-05 0.00099349986375212138 0.0010292913743990887
leaf_count=3623 656600 505089 423858 215559 225763 220788 148719
internal_value=0 -0.0196473 0.0127608 -0.0725811 0.0378347 -0.00366295 -0.0074649
internal_count=2399999 945059 1454940 219182 649621 725877 805319
shrinkage=0.03


Tree=67
num_leaves=8
num_cat=0
split_feature=73 46 16 63 72 46 61
split_gain=595.148 546.048 622.342 588.887 152.743 144.981 42.86
threshold=-1.0000000180025095e-35 1.5000000000000002 3.5000000000000004 66.500000000000014 3.5000000000000004 10.500000000000002 -0.66734144091606129
decision_type=2 2 2 2 2 2 2
left_child=4 3 -3 -2 5 -1 -6
right_child=1 2 -4 -5 6 -7 -8
leaf_value=-0.0016409591826850745 -0.012192179567830733 0.0018607611282527171 0.00012569051010187163 -0.0016853077818970172 -0.0010457745785879243 -0.00049513028557039631 0.0010084631351381075
leaf_count=239093 5299 209682 1669062 51776 11986 171671 41430
internal_value=0 0.00771528 0.0106449 -0.0887085 -0.0321794 -0.0387374 0.0182407
internal_count=2399999 1935819 1878744 57075 464180 410764 53416
shrinkage=0.03


Tree=68
num_leaves=8
num_cat=0
split_feature=63 68 16 59 73 17 18
split_gain=584.163 1229.44 711.624 677.08 481.977 386.301 352.68
threshold=74.500000000000014 5.9305419921875009 4.5000000000000009 2.5000000000000004 1.0000000180025095e-35 20.500000000000004 80.500000000000014
decision_type=2 2 2 2 2 2 2
left_child=1 6 5 -3 -4 -2 -1
right_child=2 3 4 -5 -6 -7 -8
leaf_value=-0.0015958637743456819 0.0015166897200096906 -0.053036576678491022 -0.0003953193247763473 -0.014403756848735405 0.00077939121854768683 -0.0019479840007839211 -0.013414207316056527
leaf_count=72216 365695 589 1529886 1340 396406 31516 2351
internal_value=0 -0.0860385 0.00283193 -0.874301 -0.00511903 0.0413916 -0.0656286
internal_count=2399999 76496 2323503 1929 1926292 397211 74567
shrinkage=0.03


Tree=69
num_leaves=8
num_cat=0
split_feature=46 69 70 64 16 65 73
split_gain=567.082 515.239 726.58 562.881 359.487 342.875 203.064
threshold=8.5000000000000018 5.2936401367187509 -1.3806762695312498 0.28147299587726599 6.5000000000000009 3.2500000000000004 1.0000000180025095e-35
decision_type=2 2 2 2 2 2 2
left_child=1 3 -3 -1 5 -2 -6
right_child=4 2 -4 -5 6 -7 -8
leaf_value=-0.0011043761714767837 0.0013338759120348344 -0.0069410999807877592 0.0014759954918171494 0.00082915795374887444 -9.0990436205633769e-05 -0.01793444972044738 0.00099163073095725161
leaf_count=782664 329623 9786 165039 164132 750166 834 197755
internal_value=0 -0.0164222 0.0334906 -0.0256391 0.0144071 0.0428382 0.00449502
internal_count=2399999 1121621 174825 946796 1278378 330457 947921
shrinkage=0.03


Tree=70
num_leaves=8
num_cat=0
split_feature=61 50 69 65 48 47 17
split_gain=566.713 447.831 532.029 482.582 227.33 314.594 187.705
threshold=-0.51657509803771962 1.5000000000000002 5.3847045898437509 1.7500000000000002 3.5000000000000004 2.5000000000000004 7.5000000000000009
decision_type=2 2 2 2 2 2 2
left_child=4 3 -3 -2 5 -1 -6
right_child=1 2 -4 -5 6 -7 -8
leaf_value=-0.010051149305214146 -0.0024684109550355124 9.2761538552314088e-05 0.0017217935369025384 -0.016448545883409101 0.00016942789910679291 -0.0019947828567521697 -0.0012203526899424708
leaf_count=5512 14697 1739160 201640 2623 126099 21184 289084
internal_value=0 0.00730385 0.00873396 -0.15291 -0.0323698 -0.121969 -0.0266071
internal_count=2399999 1958120 1940800 17320 441879 26696 415183
shrinkage=0.03


Tree=71
num_leaves=8
num_cat=0
split_feature=61 16 65 48 15 63 18
split_gain=560.876 507.41 425.855 401.797 193.462 186.36 109.354
threshold=0.63739085197448742 13.500000000000002 2.2500000000000004 5.5000000000000009 2.5000000000000004 66.500000000000014 2.5000000000000004
decision_type=2 2 2 2 2 2 2
left_child=1 2 -1 -3 6 -6 -2
right_child=4 3 -4 -5 5 -7 -8
leaf_value=0.00013663131685403849 0.0051320255171501726 -0.0030982220039824202 -0.0063868761809321248 -0.00065459966293354992 -0.049679077806217324 -0.00058849601647575716 0.0013953116394167728
leaf_count=1545060 7300 69730 9074 467336 69 43243 258187
internal_value=0 -0.00587912 0.00328431 -0.0323967 0.0398079 -0.0222731 0.0499378
internal_count=2399999 2091200 1554134 537066 308799 43312 265487
shrinkage=0.03


Tree=72
num_leaves=8
num_cat=0
split_feature=73 46 64 69 72 63 65
split_gain=546.904 498.864 561.014 557.896 147.222 135.163 75.0074
threshold=-1.0000000180025095e-35 1.5000000000000002 -0.72621628642082203 5.3847045898437509 3.5000000000000004 214.50000000000003 0.75000000000000011
decision_type=2 2 2 2 2 2 2
left_child=4 2 -2 -3 5 -1 -6
right_child=1 3 -4 -5 6 -7 -8
leaf_value=-0.0014874073371150954 -0.013094570738278535 0.00013701256629216317 -0.0017032648506763353 0.0018905763972537264 -0.0017513143120502736 -0.00031091982319868234 0.0011120544384811833
leaf_count=282001 4206 1697810 52869 180934 10299 128763 43117
internal_value=0 0.0073963 -0.0847732 0.0101967 -0.0308494 -0.0372883 0.0186557
internal_count=2399999 1935819 57075 1878744 464180 410764 53416
shrinkage=0.03


Tree=73
num_leaves=8
num_cat=0
split_feature=70 64 64 65 46 40 66
split_gain=534.185 663.083 548.045 453.514 413.004 412.591 317.459
threshold=-0.11871337890624999 -0.27392022311687464 0.30319648981094366 6.7500000000000009 4.5000000000000009 1594.2500000000002 1611.3054809570315
decision_type=2 2 2 2 2 2 2
left_child=2 6 4 -3 -1 -4 -2
right_child=1 3 5 -5 -6 -7 -8
leaf_value=-0.0023407901782614027 -0.0025347453211708804 0.0010817538417400127 0.0039299583339725769 -0.08513582033596255 -0.00059800935836763454 0.00017210681705285492 -6.1279165953180459e-05
leaf_count=161322 49903 649567 29544 54 510984 243209 755416
internal_value=0 0.0120316 -0.0185249 0.0358144 -0.033874 0.0193072 -0.00715245
internal_count=2399999 1454940 945059 649621 672306 272753 805319
shrinkage=0.03


Tree=74
num_leaves=8
num_cat=0
split_feature=63 68 58 16 15 67 45
split_gain=526.844 1139.18 644.971 633.118 446.279 366.183 349.553
threshold=74.500000000000014 5.9305419921875009 1.5000000000000002 4.5000000000000009 3.5000000000000004 1609.4893188476565 15.500000000000002
decision_type=2 2 2 2 2 2 2
left_child=1 6 -3 5 -5 -2 -1
right_child=3 2 -4 4 -6 -7 -8
leaf_value=-0.0017148057322263733 0.0040425541902879714 -0.07118903749587624 -0.018635463852693667 0.00042409136197896002 -0.0005117633847764333 0.00088219185027861341 -0.030632979271498488
leaf_count=74189 36403 240 1689 756308 1169984 360808 378
internal_value=0 -0.0817142 -0.840509 0.00268949 -0.00481056 0.0390625 -0.062067
internal_count=2399999 76496 1929 2323503 1926292 397211 74567
shrinkage=0.03


Tree=75
num_leaves=8
num_cat=0
split_feature=73 63 68 69 45 64 17
split_gain=516.139 463.7 1104.21 538.782 189.622 151.905 63.5655
threshold=1.0000000180025095e-35 103.50000000000001 5.6909790039062509 5.4866333007812509 1.5000000000000002 -0.27392022311687464 29.500000000000004
decision_type=2 2 2 2 2 2 2
left_child=1 2 -1 -3 6 -6 -2
right_child=4 3 -4 -5 5 -7 -8
leaf_value=-0.00096217875318738784 -0.00019751944932010519 -0.00017971231557494934 -0.011450832981118191 0.0017890547825351662 0.00047828778150507228 0.0016612306241739387 -0.0030076640069322679
leaf_count=305082 65442 1475427 9315 136900 173812 225765 8256
internal_value=0 -0.00727425 -0.042434 -0.000417909 0.0296097 0.0382234 -0.0170855
internal_count=2399999 1926724 314397 1612327 473275 399577 73698
shrinkage=0.03


Tree=76
num_leaves=8
num_cat=0
split_feature=61 16 48 48 68 63 17
split_gain=509.437 420.496 426.115 352.291 248.865 708.628 176.396
threshold=-0.66734144091606129 9.5000000000000018 1.5000000000000002 5.5000000000000009 6.3184814453125009 74.500000000000014 1.5000000000000002
decision_type=2 2 2 2 2 2 2
left_child=4 2 -2 -3 6 -6 -1
right_child=1 3 -4 -5 5 -7 -8
leaf_value=0.0072744157525370381 -0.0043103488436641441 -0.0018120914381427875 0.00059281825007353203 -9.7044696248819125e-05 -0.06185850322672299 -0.0055340388209873508 -0.0012266328433420688
leaf_count=2225 16199 124026 1173699 837337 209 4881 241423
internal_value=0 0.00495695 0.017535 -0.0106107 -0.0428787 -0.262047 -0.038297
internal_count=2399999 2151261 1189898 961363 248738 5090 243648
shrinkage=0.03


Tree=77
num_leaves=8
num_cat=0
split_feature=73 70 64 16 72 63 14
split_gain=504.654 417.271 707.786 428.032 142.59 114.328 56.4661
threshold=-1.0000000180025095e-35 -2.2949829101562496 -0.72621628642082203 3.5000000000000004 1.5000000000000002 214.50000000000003 1647.2500000000002
decision_type=2 2 2 2 2 2 2
left_child=4 2 -2 -3 5 -1 -6
right_child=1 3 -4 -5 6 -7 -8
leaf_value=-0.001544822796456254 -0.042395884043404032 0.0015072542461300224 -0.0028120529085804624 0.00010401788860408096 0.00088903533168728033 -0.0003848776999854375 -0.00051382197046446034
leaf_count=243995 412 221775 28245 1685387 44826 112512 62847
internal_value=0 0.00710516 -0.112771 0.00890674 -0.0296357 -0.0392931 0.00233579
internal_count=2399999 1935819 28657 1907162 464180 356507 107673
shrinkage=0.03


Tree=78
num_leaves=8
num_cat=0
split_feature=46 69 62 65 16 65 71
split_gain=504.663 407.928 477.425 444.096 365.528 320.553 177.837
threshold=7.5000000000000009 5.4866333007812509 141.50000000000003 1.7500000000000002 6.5000000000000009 3.2500000000000004 -1.0000000180025095e-35
decision_type=2 2 2 2 2 2 2
left_child=1 2 -1 -3 5 -2 -6
right_child=4 3 -4 -5 6 -7 -8
leaf_value=0.00031545924457078748 0.001186043293603547 0.0017858811117743062 -0.0012710430265744539 -0.003250880722443355 -0.0011561356921326487 -0.01706497381057526 0.00018721398256450812
leaf_count=245074 382672 107409 565439 18497 97947 869 982092
internal_value=0 -0.0181431 -0.0263772 0.0348595 0.0116068 0.0381536 0.0021791
internal_count=2399999 936419 810513 125906 1463580 383541 1080039
shrinkage=0.03


Tree=79
num_leaves=8
num_cat=0
split_feature=61 73 69 15 63 64 49
split_gain=490.252 429.177 348.604 177.782 168.982 154.613 101.887
threshold=0.63739085197448742 1.0000000180025095e-35 5.2936401367187509 2.5000000000000004 66.500000000000014 -0.28919091820716852 109.50000000000001
decision_type=2 2 2 2 2 2 2
left_child=1 2 -1 6 -5 -3 -2
right_child=3 5 -4 4 -6 -7 -8
leaf_value=-0.00053917063087744377 0.0013683128905117878 1.750252604009411e-05 0.00080157025341072376 -0.047348761557468345 -0.00059311039187867349 0.0011881757954056156 0.01019334849888801
leaf_count=1474215 264296 176335 198449 69 43243 242201 1191
internal_value=0 -0.0054972 -0.0126697 0.0372208 -0.0223011 0.0231664 0.0469333
internal_count=2399999 2091200 1672664 308799 43312 418536 265487
shrinkage=0.03


Tree=80
num_leaves=8
num_cat=0
split_feature=70 48 63 18 47 48 64
split_gain=483.907 697.068 581.64 775.396 458.796 398.991 342.317
threshold=-0.11871337890624999 5.5000000000000009 115.50000000000001 3.5000000000000004 2.5000000000000004 37.500000000000007 0.30319648981094366
decision_type=2 2 2 2 2 2 2
left_child=1 4 5 -4 -1 -2 -3
right_child=2 6 3 -5 -6 -7 -8
leaf_value=-0.0054503710319447384 -0.00053038609461899329 -0.00051223366656218637 0.0042964834322130555 0.00054774729042895065 -0.0014634759296774417 -0.028451022527349941 0.00090541240001994108
leaf_count=30178 445416 505089 52432 956631 189004 461 220788
internal_value=0 -0.0176329 0.0114522 0.0247518 -0.0670834 -0.018645 -0.00270036
internal_count=2399999 945059 1454940 1009063 219182 445877 725877
shrinkage=0.03


Tree=81
num_leaves=8
num_cat=0
split_feature=46 64 13 70 16 46 73
split_gain=464.817 426.003 611.079 430.959 271.704 325.951 162.944
threshold=8.5000000000000018 -0.24166110157966611 1645.7500000000002 -2.2949829101562496 6.5000000000000009 50.500000000000007 1.0000000180025095e-35
decision_type=2 2 2 2 2 2 2
left_child=1 3 -3 -1 5 -2 -6
right_child=4 2 -4 -5 6 -7 -8
leaf_value=-0.0087987052208437153 0.0012947040533245976 0.0010915602503348255 -0.00081552594601635271 -0.00098373722928473718 -6.9643604372819786e-05 -0.0043744273744683133 0.00090058549420415522
leaf_count=6442 321042 289074 317898 508207 750166 9415 197755
internal_value=0 -0.0148701 0.00309036 -0.0360535 0.0130452 0.0377709 0.00442501
internal_count=2399999 1121621 606972 514649 1278378 330457 947921
shrinkage=0.03


Tree=82
num_leaves=8
num_cat=0
split_feature=61 50 63 73 68 63 17
split_gain=458.3 436.315 430.638 391.905 225.048 661.448 165.18
threshold=-0.66734144091606129 1.5000000000000002 219.50000000000003 -1.0000000180025095e-35 6.3184814453125009 74.500000000000014 1.5000000000000002
decision_type=2 2 2 2 2 2 2
left_child=4 2 -2 -3 6 -6 -1
right_child=1 3 -4 -5 5 -7 -8
leaf_value=0.0070628331158269983 -0.0069166987548339338 -0.00065354203364410422 0.0037285664400281437 0.00037987650727394422 -0.059644277653523849 -0.0052249919845280364 -0.0011646847214085872
leaf_count=2225 14461 409565 4487 1722748 209 4881 241423
internal_value=0 0.00470193 -0.146499 0.00604583 -0.0406731 -0.249124 -0.0363154
internal_count=2399999 2151261 18948 2132313 248738 5090 243648
shrinkage=0.03


Tree=83
num_leaves=8
num_cat=0
split_feature=70 48 64 64 65 64 66
split_gain=453.114 611.502 561.342 462.381 425.303 353.385 313.586
threshold=-0.038513183593749993 5.5000000000000009 -0.27392022311687464 -0.80398148298263539 6.7500000000000009 0.30319648981094366 1611.3054809570315
decision_type=2 2 2 2 2 2 2
left_child=1 3 6 -1 -4 -3 -2
right_child=2 5 4 -5 -6 -7 -8
leaf_value=-0.012170158413467547 -0.0025447959851676921 -0.00049148075636381184 0.0010479763200897669 -0.0016621313104900452 -0.082449661007828343 0.00091000461743563339 -2.5287876481248935e-05
leaf_count=3838 47451 554188 604030 227952 54 229450 733036
internal_value=0 -0.0160588 0.0117759 -0.061208 0.0346784 -0.00270349 -0.00594959
internal_count=2399999 1015428 1384571 231790 604084 783638 780487
shrinkage=0.03


Tree=84
num_leaves=8
num_cat=0
split_feature=61 16 19 47 49 29 18
split_gain=442.639 412.984 373.726 351.386 131.668 293.671 230.547
threshold=0.63739085197448742 13.500000000000002 82.500000000000014 3.5000000000000004 1.5000000000000002 136.50000000000003 2.5000000000000004
decision_type=2 2 2 2 2 2 2
left_child=1 2 -1 -3 5 -2 -6
right_child=4 3 -4 -5 6 -7 -8
leaf_value=0.00018109864668950935 -0.0040008161945992975 -0.0047139615753940623 -0.0023246961592544363 -0.00072080295686251337 0.0064232739814915236 -0.068660953801411836 0.00099100517233352775
leaf_count=1498466 2617 20672 55668 516394 7225 64 298893
internal_value=0 -0.00522393 0.00304439 -0.0291513 0.03537 -0.185833 0.0373096
internal_count=2399999 2091200 1554134 537066 308799 2681 306118
shrinkage=0.03


Tree=85
num_leaves=8
num_cat=0
split_feature=63 16 47 25 15 13 18
split_gain=437.682 528.359 466.06 595.649 408.194 321.714 244.68
threshold=74.500000000000014 3.5000000000000004 1.5000000000000002 77.500000000000014 3.5000000000000004 1607.2500000000002 43.500000000000007
decision_type=2 2 2 2 2 2 2
left_child=2 5 3 -1 -3 -2 -4
right_child=1 4 6 -5 -6 -7 -8
leaf_value=-0.0075135896247243766 0.0063902049833332144 0.00042437761455505423 -0.0011241929754458077 -0.042202212025915259 -0.00043537831399490548 0.001130324364883271 -0.0086090184214342412
leaf_count=5239 10955 837796 66579 487 1227328 247424 4191
internal_value=0 0.00245156 -0.0744904 -0.349112 -0.00288595 0.045114 -0.0522591
internal_count=2399999 2323503 76496 5726 2065124 258379 70770
shrinkage=0.03


Tree=86
num_leaves=8
num_cat=0
split_feature=73 63 68 69 18 45 50
split_gain=438.484 384.2 879.788 472.723 165.537 112.097 60.7578
threshold=1.0000000180025095e-35 74.500000000000014 5.9305419921875009 5.2173461914062509 14.500000000000002 1.5000000000000002 1.5000000000000002
decision_type=2 2 2 2 2 2 2
left_child=1 2 -1 -3 5 -2 -6
right_child=4 3 -4 -5 6 -7 -8
leaf_value=-0.0019056455901953246 -8.8507315861880337e-05 -0.0003060138910599828 -0.023703550507261254 0.0011247331987055591 -0.011213073664208812 0.0014085374600942564 -4.0824053981587403e-05
leaf_count=62200 53829 1624042 1713 238769 444 285949 133053
internal_value=0 -0.00670573 -0.0830157 -0.00408723 0.0272949 0.0390442 -0.00260594
internal_count=2399999 1926724 63913 1862811 473275 339778 133497
shrinkage=0.03


Tree=87
num_leaves=8
num_cat=0
split_feature=46 48 54 16 73 17 68
split_gain=431.343 575.203 761.363 539.754 384.961 373.358 299.754
threshold=1.5000000000000002 1.5000000000000002 2.5000000000000004 3.5000000000000004 1.0000000180025095e-35 3.5000000000000004 6.9765014648437509
decision_type=2 2 2 2 2 2 2
left_child=1 2 -1 5 -5 -2 -3
right_child=3 6 -4 4 -6 -7 -8
leaf_value=-0.026812536063509928 0.0034316173844617616 -0.00077879960044061568 -0.0040981147050277028 -0.00029771917681707487 0.00071786119623299294 0.00072995190635170306 -0.0078334727311134035
leaf_count=1913 60599 54603 4361 1656841 422366 193281 6035
internal_value=0 -0.0792315 -0.36765 0.00227145 -0.00304696 0.0458296 -0.049376
internal_count=2399999 66912 6274 2333087 2079207 253880 60638
shrinkage=0.03


Tree=88
num_leaves=8
num_cat=0
split_feature=46 70 64 17 65 41 19
split_gain=417.929 397.199 560.417 432.44 254.488 542.787 323.532
threshold=8.5000000000000018 -2.2949829101562496 -0.72621628642082203 1.5000000000000002 3.2500000000000004 1604.7500000000002 2.5000000000000004
decision_type=2 2 2 2 2 2 2
left_child=1 2 -1 -3 6 -6 -2
right_child=4 3 -4 -5 5 -7 -8
leaf_value=-0.036089082376041914 0.0047194555768852158 0.0039424738074267671 -0.003370742987151603 -0.00041523332439805539 -0.047178593861814645 -0.0011362538515249084 0.0003312333760422768
leaf_count=479 15340 20930 28027 1072185 316 851 1261871
internal_value=0 -0.0141016 -0.130743 -0.0110593 0.0123708 -0.454872 0.0127985
internal_count=2399999 1121621 28506 1093115 1278378 1167 1277211
shrinkage=0.03


Tree=89
num_leaves=8
num_cat=0
split_feature=73 46 68 18 72 71 65
split_gain=419.23 382.774 479.228 458.232 142.284 115.712 69.0003
threshold=-1.0000000180025095e-35 1.5000000000000002 6.9765014648437509 2.5000000000000004 3.5000000000000004 -3.4999999999999996 0.75000000000000011
decision_type=2 2 2 2 2 2 2
left_child=4 2 -2 -3 5 -1 -6
right_child=1 3 -4 -5 6 -7 -8
leaf_value=-0.0049563361166929318 -0.001244018841872358 0.0032481165639155303 -0.0099206936204020262 0.00019412355818339521 -0.0015676831570135214 -0.00093582214589756855 0.0011797316055555821
leaf_count=6591 50603 45386 6472 1833358 10299 404173 43117
internal_value=0 0.00647678 -0.0742776 0.00893035 -0.0270154 -0.0333461 0.021657
internal_count=2399999 1935819 57075 1878744 464180 410764 53416
shrinkage=0.03


Tree=90
num_leaves=8
num_cat=0
split_feature=70 48 64 17 68 69 40
split_gain=406.909 667.136 557.265 639.359 386.245 311.587 296.858
threshold=-0.40679931640624994 5.5000000000000009 -0.20752191543579099 111.50000000000001 6.9765014648437509 5.2173461914062509 1594.2500000000002
decision_type=2 2 2 2 2 2 2
left_child=1 4 5 -4 -1 -2 -3
right_child=2 6 3 -5 -6 -7 -8
leaf_value=-0.0017385744038837627 -0.00044807087026430041 0.0028013118240957811 0.00088629486712219505 0.086288572157485574 -0.0064676837464374944 0.00096994222869049059 -0.00024744052507338628
leaf_count=160411 823889 30603 706068 78 17251 168363 493336
internal_value=0 -0.0202785 0.00837572 0.0298624 -0.073263 -0.006915 -0.00231103
internal_count=2399999 701601 1698398 706146 177662 992252 523939
shrinkage=0.03


Tree=91
num_leaves=8
num_cat=0
split_feature=50 65 69 46 48 70 67
split_gain=401.08 525.127 463.243 484.117 447.956 384.527 295.676
threshold=1.5000000000000002 1.7500000000000002 5.2936401367187509 4.5000000000000009 3.5000000000000004 -1.0885620117187498 1605.5970458984377
decision_type=2 2 2 2 2 2 2
left_child=1 6 3 -2 -3 -4 -1
right_child=2 4 5 -5 -6 -7 -8
leaf_value=0.010773192650449234 -0.0012118762351952159 -0.026266577674589037 -0.0035034818336221805 7.5625718440765452e-05 -0.0029274454890654738 0.0014870335610718765 -0.003305634129398132
leaf_count=1460 308278 1644 14730 1802208 1353 253286 17040
internal_value=0 -0.136104 0.00122933 -0.00374775 -0.524653 0.040423 -0.0731072
internal_count=2399999 21497 2378502 2110486 2997 268016 18500
shrinkage=0.03


Tree=92
num_leaves=8
num_cat=0
split_feature=61 16 65 46 63 48 18
split_gain=398.471 353.557 355.911 309.173 146.603 775.708 143.123
threshold=0.71281296014785778 13.500000000000002 2.2500000000000004 3.5000000000000004 66.500000000000014 1.5000000000000002 2.5000000000000004
decision_type=2 2 2 2 2 2 2
left_child=1 2 -1 -3 5 -2 -6
right_child=4 3 -4 -5 6 -7 -8
leaf_value=0.00013223951029798424 -0.078695290156228601 -0.0030289872542559673 -0.0057186147899530772 -0.00055727605551539263 0.0057627665638120143 -0.0013031119126018164 0.0011139788317237936
leaf_count=1603129 128 50206 9431 504196 6156 1226 225527
internal_value=0 -0.00423033 0.00326694 -0.0260381 0.0393282 -0.289437 0.041253
internal_count=2399999 2166962 1612560 554402 233037 1354 231683
shrinkage=0.03


Tree=93
num_leaves=8
num_cat=0
split_feature=73 46 64 18 72 46 65
split_gain=394.341 341.256 471.491 431.19 135.698 115.16 88.4343
threshold=-1.0000000180025095e-35 1.5000000000000002 -0.72621628642082203 2.5000000000000004 1.5000000000000002 11.500000000000002 0.75000000000000011
decision_type=2 2 2 2 2 2 2
left_child=4 2 -2 -3 5 -1 -6
right_child=1 3 -4 -5 6 -7 -8
leaf_value=-0.0014775401280429851 -0.011773408871847238 0.0031490487103047688 -0.001329164771477621 0.000186387428946707 -0.0012158129927731325 -0.00035275040187892465 0.00069567459948600367
leaf_count=226927 4206 45386 52869 1833358 30745 129580 76928
internal_value=0 0.00628196 -0.0699761 0.00859893 -0.0262027 -0.0356252 0.00499073
internal_count=2399999 1935819 57075 1878744 464180 356507 107673
shrinkage=0.03


Tree=94
num_leaves=8
num_cat=0
split_feature=61 50 69 63 68 29 28
split_gain=391.146 369 413.929 386.768 192.982 597.165 162.103
threshold=-0.66734144091606129 1.5000000000000002 5.3847045898437509 219.50000000000003 6.3184814453125009 169.50000000000003 1.5000000000000002
decision_type=2 2 2 2 2 2 2
left_child=4 3 -3 -2 6 -6 -1
right_child=1 2 -4 -5 5 -7 -8
leaf_value=0.00072058122361368365 -0.0064318906733831713 2.5926069992955492e-05 0.0014045393671047806 0.0036575190898388257 -0.0043749290741417158 -0.04852984440840348 -0.0013546371058578471
leaf_count=40888 14461 1913487 218826 4487 4798 292 202760
internal_value=0 0.00434431 0.00558041 -0.134727 -0.0375807 -0.230665 -0.033544
internal_count=2399999 2151261 2132313 18948 248738 5090 243648
shrinkage=0.03


Tree=95
num_leaves=8
num_cat=0
split_feature=63 65 62 70 19 48 25
split_gain=383.465 646.339 597.344 518.005 851.411 369.428 358.118
threshold=115.50000000000001 2.2500000000000004 67.500000000000014 -0.038513183593749993 3.5000000000000004 5.5000000000000009 1.5000000000000002
decision_type=2 2 2 2 2 2 2
left_child=1 2 -1 5 -5 -2 -3
right_child=3 6 -4 4 -6 -7 -8
leaf_value=0.0099383965402547476 -0.0015714139231394497 -0.033366098203049741 -0.00070458864554050844 0.0046520150542657557 0.00049228852314877063 -1.382083611618752e-05 -0.0087816930570603306
leaf_count=4792 169964 712 554671 46604 905955 715151 2150
internal_value=0 -0.0228738 -0.0204461 0.00699824 0.0231941 -0.0104312 -0.497083
internal_count=2399999 562325 559463 1837674 952559 885115 2862
shrinkage=0.03


Tree=96
num_leaves=8
num_cat=0
split_feature=73 63 64 17 45 16 17
split_gain=378.22 360.855 519.598 393.697 148.716 128.084 55.2518
threshold=1.0000000180025095e-35 214.50000000000003 0.60467392206192028 3.5000000000000004 1.5000000000000002 9.5000000000000018 29.500000000000004
decision_type=2 2 2 2 2 2 2
left_child=1 2 -1 -3 6 -6 -2
right_child=4 3 -4 -5 5 -7 -8
leaf_value=-0.00043855224318339371 -0.00018665277401025979 0.0033771679114340224 -0.018195165134884218 0.00022921939320062117 0.0015238299255077694 0.000446281242011035 -0.0028089161071670962
leaf_count=1340250 65442 38337 1486 546651 201449 198128 8256
internal_value=0 -0.00622878 -0.0152748 0.0145183 0.0253533 0.0329858 -0.0160216
internal_count=2399999 1926724 1341736 584988 473275 399577 73698
shrinkage=0.03


Tree=97
num_leaves=8
num_cat=0
split_feature=61 16 19 47 63 68 16
split_gain=367.139 325.648 337.418 280.704 136.101 577.19 130.188
threshold=0.71281296014785778 12.500000000000002 17.500000000000004 3.5000000000000004 66.500000000000014 4.5713500976562509 2.5000000000000004
decision_type=2 2 2 2 2 2 2
left_child=1 2 -1 -3 5 -2 -6
right_child=4 3 -4 -5 6 -7 -8
leaf_value=0.00035924302191567503 -0.0020846193448027096 -0.0039037074812341864 -0.00070401332439020455 -0.0005675732700096476 0.0033203978484978012 -0.069566724504942876 0.00094955566513978671
leaf_count=1178639 1229 23634 348904 615785 23318 125 208365
internal_value=0 -0.00406096 0.0038792 -0.0230304 0.0377534 -0.279077 0.0396083
internal_count=2399999 2166962 1527543 639419 233037 1354 231683
shrinkage=0.03


Tree=98
num_leaves=8
num_cat=0
split_feature=46 69 70 64 19 47 52
split_gain=364.673 373.795 545.937 358.455 184.566 486.646 187.667
threshold=10.500000000000002 5.2936401367187509 -1.3806762695312498 0.28147299587726599 2.5000000000000004 1.5000000000000002 1.5000000000000002
decision_type=2 2 2 2 2 2 2
left_child=1 3 -3 -1 5 -2 -6
right_child=4 2 -4 -5 6 -7 -8
leaf_value=-0.00071668311436845749 -0.016179012464495861 -0.005797978264485572 0.0012516085282521156 0.00063548547411998804 -0.0034170985956588551 0.0063974293154287504 0.00046648063376917236
leaf_count=1048760 943 10429 194784 212660 11382 9715 911326
internal_value=0 -0.00984453 0.0297749 -0.0162904 0.0154669 0.146572 0.0139518
internal_count=2399999 1466633 205213 1261420 933366 10658 922708
shrinkage=0.03


Tree=99
num_leaves=8
num_cat=0
split_feature=73 46 48 18 72 71 65
split_gain=364.303 313.214 442.912 396.102 130.944 108.232 60.9325
threshold=-1.0000000180025095e-35 1.5000000000000002 1.5000000000000002 2.5000000000000004 3.5000000000000004 -3.4999999999999996 0.75000000000000011
decision_type=2 2 2 2 2 2 2
left_child=4 2 -2 -3 5 -1 -6
right_child=1 3 -4 -5 6 -7 -8
leaf_value=-0.0047646540857322322 -0.010118095565798469 0.0030189185798050961 -0.0011474951777904353 0.00017914006438417941 -0.0014396726709144168 -0.00087539093913051509 0.0011439202522203912
leaf_count=6591 5490 45386 51585 1833358 10299 404173 43117
internal_value=0 0.00603843 -0.0670265 0.0082584 -0.0251869 -0.0312615 0.0215162
internal_count=2399999 1935819 57075 1878744 464180 410764 53416
shrinkage=0.03


end of trees

feature importances:
Column_61=91
Column_63=81
Column_16=79
Column_73=60
Column_46=45
Column_65=44
Column_64=35
Column_17=34
Column_47=32
Column_68=30
Column_70=25
Column_15=19
Column_48=19
Column_69=19
Column_18=16
Column_45=14
Column_72=7
Column_19=6
Column_50=6
Column_62=4
Column_13=3
Column_29=3
Column_49=3
Column_67=3
Column_71=3
Column_0=2
Column_25=2
Column_40=2
Column_58=2
Column_59=2
Column_66=2
Column_11=1
Column_14=1
Column_28=1
Column_41=1
Column_42=1
Column_52=1
Column_54=1

parameters:
[boosting: gbdt]
[objective: regression]
[metric: none,rmse]
[tree_learner: serial]
[device_type: cpu]
[data: ]
[valid: ]
[num_iterations: 100]
[learning_rate: 0.03]
[num_leaves: 160]
[num_threads: -1]
[max_depth: 3]
[min_data_in_leaf: 50]
[min_sum_hessian_in_leaf: 0.001]
[bagging_fraction: 0.7]
[bagging_freq: 0]
[bagging_seed: 400]
[feature_fraction: 0.9]
[feature_fraction_seed: 30056]
[early_stopping_round: 0]
[max_delta_step: 0]
[lambda_l1: 0.5]
[lambda_l2: 1]
[min_gain_to_split: 0.75]
[drop_rate: 0.1]
[max_drop: 50]
[skip_drop: 0.5]
[xgboost_dart_mode: 0]
[uniform_drop: 0]
[drop_seed: 17869]
[top_rate: 0.2]
[other_rate: 0.1]
[min_data_per_group: 100]
[max_cat_threshold: 32]
[cat_l2: 10]
[cat_smooth: 10]
[max_cat_to_onehot: 4]
[top_k: 20]
[monotone_constraints: ]
[feature_contri: ]
[forcedsplits_filename: ]
[refit_decay_rate: 0.9]
[verbosity: -1]
[max_bin: 70]
[min_data_in_bin: 3]
[bin_construct_sample_cnt: 200000]
[histogram_pool_size: -1]
[data_random_seed: 175]
[output_model: LightGBM_model.txt]
[snapshot_freq: -1]
[input_model: ]
[output_result: LightGBM_predict_result.txt]
[initscore_filename: ]
[valid_data_initscores: ]
[pre_partition: 0]
[enable_bundle: 1]
[max_conflict_rate: 0]
[is_enable_sparse: 1]
[sparse_threshold: 0.8]
[use_missing: 1]
[zero_as_missing: 0]
[two_round: 0]
[save_binary: 0]
[enable_load_from_binary_file: 1]
[header: 0]
[label_column: ]
[weight_column: ]
[group_column: ]
[ignore_column: ]
[categorical_feature: ]
[predict_raw_score: 0]
[predict_leaf_index: 0]
[predict_contrib: 0]
[num_iteration_predict: -1]
[pred_early_stop: 0]
[pred_early_stop_freq: 10]
[pred_early_stop_margin: 10]
[convert_model_language: ]
[convert_model: gbdt_prediction.cpp]
[num_class: 1]
[is_unbalance: 0]
[scale_pos_weight: 1]
[sigmoid: 1]
[boost_from_average: 1]
[reg_sqrt: 0]
[alpha: 0.9]
[fair_c: 1]
[poisson_max_delta_step: 0.7]
[tweedie_variance_power: 1.5]
[max_position: 20]
[label_gain: ]
[metric_freq: 1]
[is_provide_training_metric: 0]
[eval_at: ]
[num_machines: 1]
[local_listen_port: 12400]
[time_out: 120]
[machine_list_filename: ]
[machines: ]
[gpu_platform_id: -1]
[gpu_device_id: -1]
[gpu_use_dp: 0]

end of parameters

pandas_categorical:null
