tree
version=v2
num_class=1
num_tree_per_iteration=1
label_index=0
max_feature_idx=83
objective=regression
feature_names=Column_0 Column_1 Column_2 Column_3 Column_4 Column_5 Column_6 Column_7 Column_8 Column_9 Column_10 Column_11 Column_12 Column_13 Column_14 Column_15 Column_16 Column_17 Column_18 Column_19 Column_20 Column_21 Column_22 Column_23 Column_24 Column_25 Column_26 Column_27 Column_28 Column_29 Column_30 Column_31 Column_32 Column_33 Column_34 Column_35 Column_36 Column_37 Column_38 Column_39 Column_40 Column_41 Column_42 Column_43 Column_44 Column_45 Column_46 Column_47 Column_48 Column_49 Column_50 Column_51 Column_52 Column_53 Column_54 Column_55 Column_56 Column_57 Column_58 Column_59 Column_60 Column_61 Column_62 Column_63 Column_64 Column_65 Column_66 Column_67 Column_68 Column_69 Column_70 Column_71 Column_72 Column_73 Column_74 Column_75 Column_76 Column_77 Column_78 Column_79 Column_80 Column_81 Column_82 Column_83
feature_infos=[1589:1709] [0:1709.5] [0:1710] [0:1710.5] [0:1711] [0:1711.5] [0:1712] [0:1712.5] [0:1713] [0:1713.5] [0:1714] [0:1714.5] [0:1715] [0:1715.5] [0:1716] [1:404] [0:405] [0:405] [0:455] [0:500] [0:621] [0:668] [0:667] [0:667] [0:674] [0:674] [0:674] [0:674] [0:674] [0:672] [1588:1708.5] [1587.5:1708] [1587:1707.5] [1586.5:1707] [1586:1706.5] [1585.5:1706] [1585:1705.5] [1584.5:1705] [1584:1704.5] [1583.5:1704] [1582.5:1703.5] [1582:1703] [1581:1702.5] [1580:1702] [1575:1701] [1:385] [1:382] [1:376] [1:375] [1:377] [1:377] [1:385] [1:386] [1:385] [1:380] [1:379] [1:402] [1:369] [1:423] [1:483] [1588.75:1708.75] [-0.99502485990524292:0.99180328845977783] [9:1935] [31:854] [-0.94229185581207275:0.96234309673309326] [0.5:8.5] [1584.8409423828125:1706.030029296875] [1592.040771484375:1711.0799560546875] [0.84033203125:17.186279296875] [1.0491943359375:25.6834716796875] [-11.7279052734375:21.14111328125] [-100:208] [-143:404] [-401:208] [-100:87.666783929688947] [-100:36.344983427044859] [-100:27.474308946629257] [-100:24.338318577458157] [-100:21.623635746672885] [-0.0041242977645814909:0.0023191189064914589] [-0.0026669257537335475:0.0015650406384098287] [-0.0019949208208705862:0.0010815229888633496] [-0.001754221076274109:0.00087740332829201067] [-0.0015546935508650105:0.00068556050881156004]
tree_sizes=1447 1451 1455 1457 1457 1462 1456 1451 1456 1471 1465 1462 1466 1475 1477 1470 1467 1469 1464 1449 1451 1453 1386 1456 1450 1453 1391 1453 1478 1469 1480 1456 1457 1444 1456 1364 1455 1460 1473 1469 1459 1484 1457 1451 1475 1470 1477 1457 1455 1455 1464 1454 1481 1470 1459 1450 1470 1459 1469 1471 1460 1459 1455 1462 1469 1465 1472 1380 1469 1458 1422 1445 1462 1447 1473 1360 1467 1455 1463 1450 1464 1449 1470 1450 1458 1449 1480 1458 1463 1461 1360 1454 1448 1451 1458 1352 1440 1466 1466 1454

Tree=0
num_leaves=16
num_cat=0
split_feature=15 45 45 63 73 68 46 63 16 81 63 65 76 16 69
split_gain=6306.79 2344.66 2161.58 877.405 815.563 743.739 668.728 653.88 683.627 604.554 534.74 506.201 278.034 276.69 267.053
threshold=3.5000000000000004 3.5000000000000004 3.5000000000000004 74.500000000000014 1.0000000180025095e-35 5.9305419921875009 8.5000000000000018 74.500000000000014 4.5000000000000009 -0.00022939759083917855 66.500000000000014 2.2500000000000004 -12.843972195396962 13.500000000000002 4.3369750976562509
decision_type=2 2 2 2 2 2 2 2 2 2 2 2 2 2 2
left_child=1 3 9 5 6 -1 -4 12 -9 14 -11 -5 -3 -6 -2
right_child=2 7 4 11 13 -7 -8 8 -10 10 -12 -13 -14 -15 -16
leaf_value=-0.001630002995975897 0.0014273435678301026 -0.0521953296123569 0.00015306804275765779 0.0028972593387241955 0.0046696430025845352 -0.026414676135764894 0.0021799258251079296 0.0073277491432003402 0.0048866688019996839 -0.0072639586173704092 -0.00062793116239966964 -0.0064249752316827228 -0.00087670179232304931 0.0021243713452295922 0.0069217477443774007
leaf_count=28177 24043 95 228346 416360 111692 1134 410077 133808 454651 11195 490933 5316 13387 58835 11950
internal_value=0 0.0579856 -0.045324 0.0034582 -0.0126461 -0.163907 -0.0290642 0.0988378 0.10383 -0.0944473 -0.103427 0.0150934 -0.119011 0.0488172 0.0308106
internal_count=2399999 1052928 1347071 450987 808950 29311 638423 601941 588459 538121 502128 421676 13482 170527 35993
shrinkage=1


Tree=1
num_leaves=16
num_cat=0
split_feature=61 61 61 73 82 63 47 16 16 17 16 75 82 63 63
split_gain=8918.38 1953.7 1327.1 747.596 744.736 538.275 522.703 494.901 473.667 434.115 421.354 303.349 285.872 230.842 153.659
threshold=0.11369509249925615 -0.51657509803771962 0.5962963104248048 -1.0000000180025095e-35 0.00028299428610903632 74.500000000000014 2.5000000000000004 9.5000000000000018 58.500000000000007 13.500000000000002 3.5000000000000004 2.9659722944541644 0.0002422621100214208 74.500000000000014 178.50000000000003
decision_type=2 2 2 2 2 2 2 2 2 2 2 2 2 2 2
left_child=1 6 4 14 7 -5 8 -2 -1 -8 13 -6 -12 -4 -3
right_child=2 3 10 5 11 -7 9 -9 -10 -11 12 -13 -14 -15 -16
leaf_value=-0.0071539316775358032 0.002114808051470453 -0.0031873389521687398 -0.0029811400244248326 -0.00445117493829701 0.053803133444273711 -0.00020142905342477682 -0.0023167579019990605 0.00039152789576154157 -0.028054837351656543 -0.0043288196439455655 0.0031843961002597765 -0.0076502776820148288 -0.0020044721546590544 0.0059912647026665374 -0.0014895192799829048
leaf_count=15289 353667 110614 2694 27917 72 710023 276979 261159 1044 148567 322525 9242 9870 64799 85538
internal_value=0 -0.0525905 0.0706649 -0.026668 0.04184 -0.0120742 -0.107387 0.0460946 -0.283082 -0.100642 0.115653 -0.23893 0.101009 0.187762 -0.081568
internal_count=2399999 1375971 1024028 934092 624140 737940 441879 614826 16333 425546 399888 9314 332395 67493 196152
shrinkage=0.03


Tree=2
num_leaves=16
num_cat=0
split_feature=61 61 61 82 63 68 16 47 16 75 16 63 81 75 81
split_gain=8391.28 1853.79 1248.62 700.646 634.692 798.563 758.166 575.894 468.714 400.47 399.172 320.521 293.331 285.596 259.988
threshold=0.11369509249925615 -0.66491228342056263 0.5962963104248048 0.00028299428610903632 74.500000000000014 5.9305419921875009 4.5000000000000009 2.5000000000000004 10.500000000000002 2.9659722944541644 4.5000000000000009 74.500000000000014 -0.00022939759083917855 2.9659722944541644 0.00027483578742181815
decision_type=2 2 2 2 2 2 2 2 2 2 2 2 2 2 2
left_child=1 7 3 8 5 -3 -6 9 -2 -1 11 -4 -9 -5 -12
right_child=2 4 10 13 6 -7 -8 12 -10 -11 14 -13 -14 -15 -16
leaf_value=-0.0057457898973583017 0.0019624679244397282 -0.0039672333507382463 -0.0038124154296238625 0.052211149272138942 0.0010984225903726617 -0.029454622033083161 -0.0011570392315018829 0.00050924747706753879 0.00023484480037704784 -0.017213126759144545 0.0029672667204122456 0.0053508096455880455 -0.0036118708806120096 -0.0074207940932352083 -0.0025209608270884117
leaf_count=7072 393775 37909 3570 72 158311 1140 883754 16544 221051 4496 292925 95393 266745 9242 8000
internal_value=0 -0.0510129 0.068545 0.0405849 -0.0318395 -0.157081 -0.0271458 -0.121311 0.0447118 -0.340169 0.112183 0.167336 -0.112371 -0.231755 0.0940435
internal_count=2399999 1375971 1024028 624140 1081114 39049 1042065 294857 614826 11568 399888 98963 283289 9314 300925
shrinkage=0.03


Tree=3
num_leaves=16
num_cat=0
split_feature=61 61 61 82 64 81 79 16 65 17 16 81 75 70 74
split_gain=7895.33 1754.07 1174.77 659.163 533.691 534.016 511.149 441.449 399.667 399.531 378.224 281.996 268.88 193.573 191.98
threshold=0.11369509249925615 -0.51657509803771962 0.5962963104248048 0.00028299428610903632 -0.24166110157966611 0.00032220953195081429 0.00068845390662227541 9.5000000000000018 5.2500000000000009 13.500000000000002 3.5000000000000004 0.00027483578742181815 2.9659722944541644 -2.2949829101562496 -35.407698066161309
decision_type=2 2 2 2 2 2 2 2 2 2 2 2 2 2 2
left_child=1 6 3 7 5 -3 9 -2 -6 -1 14 -12 -5 -8 -4
right_child=2 4 10 12 8 -7 13 -9 -10 -11 11 -13 -14 -15 -16
leaf_value=-0.0022566367069354154 0.0019924901952524357 -0.0013985990925140985 0.019269337546588345 0.050666272803528666 -9.0591694711923595e-05 -0.009311379509922427 -0.031592131661295812 0.00036477716344192167 -0.052952003883533612 -0.0041680188379207778 0.0029957224352122969 -0.0023429899062634386 -0.0071981942637242237 -0.010132400920894943 0.0051296728441877172
leaf_count=284613 353667 408702 879 72 517428 7834 406 261159 128 150944 323217 9178 9242 5916 66614
internal_value=0 -0.0494826 0.0664887 0.0393675 -0.0249196 -0.0515826 -0.101405 0.0433705 -0.00345988 -0.0973025 0.108818 0.094942 -0.224796 -0.383923 0.177144
internal_count=2399999 1375971 1024028 624140 934092 416536 441879 614826 517556 435557 399888 332395 9314 6322 67493
shrinkage=0.03


Tree=4
num_leaves=16
num_cat=0
split_feature=61 61 61 73 82 47 63 73 63 16 75 47 81 75 46
split_gain=7428.71 1663.88 1105.3 821.367 620.133 539.006 502.148 443.837 375.693 434.333 374.369 339.559 274.036 253.14 149.319
threshold=0.11369509249925615 -0.66491228342056263 0.5962963104248048 -1.0000000180025095e-35 0.00028299428610903632 2.5000000000000004 74.500000000000014 1.0000000180025095e-35 74.500000000000014 4.5000000000000009 2.9659722944541644 1.5000000000000002 -0.00022939759083917855 2.9659722944541644 8.5000000000000018
decision_type=2 2 2 2 2 2 2 2 2 2 2 2 2 2 2
left_child=1 5 4 14 7 10 -5 -2 11 -10 -1 -4 -7 -6 -3
right_child=2 3 8 6 13 12 -8 -9 9 -11 -12 -13 -14 -15 -16
leaf_value=-0.0054783969440928152 0.00085757408913054751 -0.003314443143368409 -0.029947782533496278 -0.0041802018784667964 0.049167105522874281 0.00057238999994873587 -0.00032182238584476042 0.002871179945811621 0.0050548195028323846 0.0027259292014206651 -0.016566561197289192 -0.001996544614638007 -0.0034112292130950438 -0.0069822719080947365 -0.0017766835927663122
leaf_count=7072 491324 106151 415 31574 72 16544 819588 123502 95393 297232 4496 6848 266745 9242 123801
internal_value=0 -0.0479983 0.0644942 -0.029833 0.0381866 -0.1146 -0.0154991 0.0420694 0.105553 0.109727 -0.326342 -0.119987 -0.105951 -0.218046 -0.0828875
internal_count=2399999 1375971 1024028 1081114 624140 294857 851162 614826 399888 392625 11568 7263 283289 9314 229952
shrinkage=0.03


Tree=5
num_leaves=16
num_cat=0
split_feature=61 61 61 73 82 17 16 63 73 63 16 46 77 75 63
split_gain=6993.03 1674.5 936.376 589.462 541.381 513.686 449.575 410.709 381.694 353.469 408.617 341.113 327.559 237.927 139.723
threshold=0.14495798945426944 -0.39863014221191401 0.5962963104248048 -1.0000000180025095e-35 0.00028299428610903632 13.500000000000002 13.500000000000002 74.500000000000014 1.0000000180025095e-35 74.500000000000014 4.5000000000000009 3.5000000000000004 -10.02792086842822 2.9659722944541644 178.50000000000003
decision_type=2 2 2 2 2 2 2 2 2 2 2 2 2 2 2
left_child=1 5 4 14 8 6 -1 -5 -2 12 -11 -7 -4 -6 -3
right_child=2 3 9 7 13 11 -8 -9 -10 10 -12 -13 -14 -15 -16
leaf_value=-0.0013356299386069663 0.00090507830800507004 -0.0027902482985520563 -0.053346753068841415 -0.0039334052125373151 0.04771229854083224 -0.0070727899065116083 -0.0036080440296997213 0.00013424538361811065 0.0028504586447441315 0.0049031763244991415 0.0026441513275379238 -0.0032883657406251481 -0.0026731983272116886 -0.0067454675032772027 -0.0010357185387980842
leaf_count=313767 454010 93631 116 23232 72 24397 104688 610364 113749 95393 297232 180427 7147 8551 73223
internal_value=0 -0.0447017 0.0651895 -0.0144317 0.0393816 -0.0835751 -0.0634727 -0.000496168 0.043162 0.102387 0.106435 -0.124641 -0.116394 -0.209451 -0.0673461
internal_count=2399999 1423729 976270 800450 576382 623279 418455 633596 567759 399888 392625 204824 7263 8623 166854
shrinkage=0.03


Tree=6
num_leaves=16
num_cat=0
split_feature=61 61 61 73 82 47 83 16 75 63 16 47 17 75 72
split_gain=6583.27 1505.77 976.83 739.78 551.223 505.752 483.228 419.136 349.559 332.568 384.421 318.097 287.518 224.483 146.086
threshold=0.11369509249925615 -0.66491228342056263 0.5962963104248048 -1.0000000180025095e-35 0.00028299428610903632 2.5000000000000004 0.00021869737511361734 10.500000000000002 2.9659722944541644 74.500000000000014 4.5000000000000009 1.5000000000000002 13.500000000000002 2.9659722944541644 3.5000000000000004
decision_type=2 2 2 2 2 2 2 2 2 2 2 2 2 2 2
left_child=1 5 4 14 7 8 -5 -2 -1 11 -11 -4 -7 -6 -3
right_child=2 3 9 6 13 12 -8 -9 -10 10 -12 -13 -14 -15 -16
leaf_value=-0.0052428885585872591 0.0017766631381020122 -0.0026512166987482841 -0.028891109444487553 -0.00031018297161396549 0.046300537342282191 -0.0022849267095542756 -0.0047370767079734453 0.00014280913279313134 -0.015958224807165716 0.0047560828046501712 0.0025648271598051665 -0.0018356085181456755 -0.0042773756770732602 -0.0065837588796077108 -0.0004535136802133853
leaf_count=7072 393775 198188 415 828323 72 180919 22839 221051 4496 95393 297232 6848 102370 9242 31764
internal_value=0 -0.0451849 0.0607137 -0.0279039 0.035981 -0.108545 -0.0142997 0.0396421 -0.31366 0.0993148 0.103242 -0.112912 -0.100166 -0.205614 -0.078257
internal_count=2399999 1375971 1024028 1081114 624140 294857 851162 614826 11568 399888 392625 7263 283289 9314 229952
shrinkage=0.03


Tree=7
num_leaves=16
num_cat=0
split_feature=61 61 63 73 63 16 17 15 16 45 65 70 75 0 16
split_gain=6202.77 1891.55 746.199 659.638 599.063 575.164 465.336 434.238 421.916 300.837 300.123 299.814 255.4 211.844 161.751
threshold=0.31091010570526129 -0.39863014221191401 74.500000000000014 1.0000000180025095e-35 178.50000000000003 4.5000000000000009 13.500000000000002 2.5000000000000004 13.500000000000002 15.500000000000002 3.2500000000000004 -2.2949829101562496 6.3833661429486082 1633.2500000000002 13.500000000000002
decision_type=2 2 2 2 2 2 2 2 2 2 2 2 2 2 2
left_child=1 6 9 4 -3 10 8 -7 -1 12 -4 -8 -2 -11 -5
right_child=2 3 5 14 -6 7 11 -9 -10 13 -12 -13 -14 -15 -16
leaf_value=-0.001247784785938126 -0.00073177112732924576 -0.0013762928067248971 0.003886515709575935 0.0018485050038076114 0.00030323482550601466 0.0024428229157610541 -0.011573949249302941 0.00075480059056127677 -0.0034493084787521706 -0.065618310700763349 -0.015859451440738852 -0.0033806477709872667 -0.0080637767315279163 -0.015295990319748643 -8.2707324686470723e-05
leaf_count=313767 13549 440158 175258 140096 338565 397244 4113 210084 104688 109 696 200711 6277 248 54436
internal_value=0 -0.0360671 0.0716667 -0.00851574 -0.0215356 0.0765615 -0.0790879 0.0619646 -0.0599533 -0.118265 0.126941 -0.118177 -0.101805 -1.02809 0.0436006
internal_count=2399999 1596534 803465 973255 778723 783282 623279 607328 418455 20183 175954 204824 19826 357 194532
shrinkage=0.03


Tree=8
num_leaves=16
num_cat=0
split_feature=61 61 61 82 16 82 47 77 16 48 15 17 63 64 63
split_gain=5853.88 1359.91 880.735 544.09 654.254 515.225 475.384 450.179 384.078 333.459 312.713 256.324 256.284 197.467 145.704
threshold=0.11369509249925615 -0.66491228342056263 0.5962963104248048 0.00016009575424770443 9.5000000000000018 0.00028299428610903632 2.5000000000000004 -4.5663115428771945 10.500000000000002 4.5000000000000009 2.5000000000000004 13.500000000000002 74.500000000000014 -0.087129071354866014 74.500000000000014
decision_type=2 2 2 2 2 2 2 2 2 2 2 2 2 2 2
left_child=1 6 5 4 -3 8 9 -5 -2 -1 12 -8 -4 -7 -12
right_child=2 3 10 7 -6 13 11 -9 -10 -11 14 -13 -14 -15 -16
leaf_value=-0.014392600582052686 0.0016815197278760474 0.0001988681712107674 -0.0024990600187736948 0.043215492462333416 -0.0013560195075682613 -0.0085108351138767739 -0.0021610030393415282 -0.0029174349311864326 0.00011735843017586159 -0.004178153435840732 -0.023159389547317437 -0.0040425832348817718 0.0032938817746758688 0.0016113798827029457 0.00092729853592556772
leaf_count=5516 393775 496890 7036 190 478741 7000 180919 105293 221051 6052 227 102370 331856 2314 60769
internal_value=0 -0.0426087 0.0572519 -0.0261855 -0.0188033 0.0337662 -0.102824 -0.0944596 0.0373059 -0.301695 0.0939068 -0.0947 0.105785 -0.199818 0.0279011
internal_count=2399999 1375971 1024028 1081114 975631 624140 294857 105483 614826 11568 399888 283289 338892 9314 60996
shrinkage=0.03


Tree=9
num_leaves=16
num_cat=0
split_feature=61 61 61 63 73 47 68 63 15 73 46 75 46 81 46
split_gain=5530.01 1458.8 871.875 588.849 482.086 447.255 442.537 411.465 405.381 394.473 358.567 326.403 287.005 249.416 120.297
threshold=-1.0000000180025095e-35 0.40114942193031317 -0.66491228342056263 74.500000000000014 -1.0000000180025095e-35 2.5000000000000004 5.9305419921875009 74.500000000000014 2.5000000000000004 1.0000000180025095e-35 8.5000000000000018 3.480013400471198 1.5000000000000002 -0.00022939759083917855 8.5000000000000018
decision_type=2 2 2 2 2 2 2 2 2 2 2 2 2 2 2
left_child=2 3 5 6 14 11 -2 12 -9 -5 -6 -1 -3 -7 -4
right_child=1 7 4 9 10 13 -8 8 -10 -11 -12 -13 -14 -15 -16
leaf_value=-0.0051117345251585587 -0.003451927723023654 -0.019652436310325577 -0.0033076099947968573 0.00016589993802253297 -0.0014123697033809671 0.00082318761212124753 -0.027288624705994094 0.0029226566805541816 0.0011604511227933339 0.0019844331401031395 5.1969981713941703e-05 -0.015727829119216215 -0.0017276251304881661 -0.0029778044129634626 -0.0017224492410489154
leaf_count=7574 24659 862 81780 544119 298937 16544 722 451751 159226 134064 304322 3994 12280 266745 92420
internal_value=0 0.0431417 -0.0534165 0.0119128 -0.0358475 -0.0997392 -0.137721 0.0783449 0.0821146 0.0175138 -0.0224547 -0.292647 -0.0968628 -0.0918591 -0.082224
internal_count=2399999 1327683 1072316 703564 777459 294857 25381 624119 610977 678183 603259 11568 13142 283289 174200
shrinkage=0.03


Tree=10
num_leaves=16
num_cat=0
split_feature=61 61 63 73 63 16 46 73 70 65 73 45 75 0 81
split_gain=5210.69 1614.79 643.86 597.908 555.261 529.809 447.763 381.605 378.647 282.043 278.139 275.539 238.565 196.232 155.158
threshold=0.31091010570526129 -0.39863014221191401 74.500000000000014 1.0000000180025095e-35 178.50000000000003 4.5000000000000009 5.5000000000000009 1.0000000180025095e-35 -2.2949829101562496 3.2500000000000004 -1.0000000180025095e-35 15.500000000000002 6.3833661429486082 1633.2500000000002 -0.00022939759083917855
decision_type=2 2 2 2 2 2 2 2 2 2 2 2 2 2 2
left_child=1 6 11 4 -3 9 8 -7 -1 -4 -8 12 -2 -13 -5
right_child=2 3 5 14 -6 7 10 -9 -10 -11 -12 13 -14 -15 -16
leaf_value=-0.0093331194129189343 -0.00060518353770141629 -0.0013029697593456928 0.0036335594444870745 0.0047051387001186412 0.00031407043060242699 0.0013162465851185722 -0.0030802648553277926 0.0032165363140204753 -0.0030935072203096799 -0.015509909258920223 -0.0012431546378913485 -0.062922219563614226 -0.0076921347138001932 -0.014481237077726477 0.001051062871243396
leaf_count=9217 13549 440158 175258 11150 338565 488942 95479 118386 181875 696 336708 109 6277 248 183382
internal_value=0 -0.0330577 0.0656865 -0.00760065 -0.019997 0.0702336 -0.0728082 0.0562233 -0.113153 0.118589 -0.0549684 -0.110754 -0.0949992 -0.98159 0.0420201
internal_count=2399999 1596534 803465 973255 778723 783282 623279 607328 191092 175954 432187 20183 19826 357 194532
shrinkage=0.03


Tree=11
num_leaves=16
num_cat=0
split_feature=15 46 45 65 62 81 76 82 45 73 18 81 15 17 51
split_gain=3525.32 1348.05 1337.52 648.024 770.569 643.679 580.738 541.065 533.272 353.033 345.549 306.79 280.9 176.97 117.72
threshold=3.5000000000000004 8.5000000000000018 4.5000000000000009 2.2500000000000004 67.500000000000014 -0.00022939759083917855 -1.6686493988107804 0.0002422621100214208 3.5000000000000004 1.0000000180025095e-35 97.500000000000014 0.00027483578742181815 2.5000000000000004 13.500000000000002 6.5000000000000009
decision_type=2 2 2 2 2 2 2 2 2 2 2 2 2 2 2
left_child=2 5 3 6 -5 10 -1 -7 13 -10 -2 12 -4 -3 -13
right_child=1 8 11 4 -6 7 -8 -9 9 -11 -12 14 -14 -15 -16
leaf_value=0.0017215412059937523 0.0018504818862576341 -0.00080079384762641941 0.0030127744685061837 -0.040563062500088273 -0.0057421320696341947 -0.0021618956563961289 -0.00030686165996549389 -0.0073973015514151039 -3.9628084361693989e-05 0.0018776202681576584 -0.032817385620972805 -0.0042073923444918135 0.0013504159143228845 -0.002603176420845235 0.0012072254537436394
leaf_count=196840 39424 152194 351353 636 5685 544100 359478 18394 410077 109812 260 8246 124191 72810 6499
internal_value=0 -0.0338883 0.0433542 0.0100731 -0.308465 -0.0690818 0.0136939 -0.0777712 -0.0054368 0.012177 0.0540716 0.0815453 0.0859558 -0.046137 -0.0606637
internal_count=2399999 1347071 1052928 562639 6321 602178 556318 562494 744893 519889 39684 490289 475544 225004 14745
shrinkage=0.03


Tree=12
num_leaves=16
num_cat=0
split_feature=61 61 61 65 66 82 73 16 47 46 63 73 26 17 72
split_gain=4730.46 1230.1 767.349 552.519 723.57 550.677 458.952 390.38 372.601 347.887 322.042 319.169 279.712 204.371 134.386
threshold=-1.0000000180025095e-35 0.40114942193031317 -0.66734144091606129 3.2500000000000004 1633.6114501953127 0.00028299428610903632 -1.0000000180025095e-35 4.5000000000000009 2.5000000000000004 8.5000000000000018 74.500000000000014 1.0000000180025095e-35 84.500000000000014 13.500000000000002 3.5000000000000004
decision_type=2 2 2 2 2 2 2 2 2 2 2 2 2 2 2
left_child=2 3 8 5 -5 -2 14 10 12 -8 -3 -9 -1 -10 -4
right_child=1 7 6 4 -6 -7 9 11 13 -11 -12 -13 -14 -15 -16
leaf_value=-0.0070813490624009592 0.00048192268255622467 -0.0033036082546265321 -0.0027098119321484634 -0.039343396701690285 0.0031596561376040482 -0.0062275127850399854 -0.0013589452855792264 0.0013771384646470068 -0.0020285836959330439 4.1691131522348525e-05 0.0038315597344918363 0.0033427082409108791 -0.02431781667334823 -0.0038396776722977232 -0.00045440620959336954
leaf_count=8371 690921 5949 155570 725 716 11202 320908 387634 148850 318829 138251 92285 946 90571 28271
internal_value=0 0.0399015 -0.049405 0.0112234 -0.607555 0.0124949 -0.0346955 0.0722292 -0.0981059 -0.0220294 0.117902 0.0585047 -0.294516 -0.0904594 -0.0787687
internal_count=2399999 1327683 1072316 703564 1441 702123 823578 624119 248738 639737 144200 479919 9317 239421 183841
shrinkage=0.03


Tree=13
num_leaves=16
num_cat=0
split_feature=61 61 61 63 73 68 82 47 16 16 82 63 75 17 72
split_gain=4450.86 1157.36 725.915 532.691 411.619 405.516 397.028 393.218 367.261 342.083 316.783 302.97 302.853 226.062 114.293
threshold=-1.0000000180025095e-35 0.40114942193031317 -0.66491228342056263 74.500000000000014 -1.0000000180025095e-35 5.9305419921875009 0.00028299428610903632 2.5000000000000004 4.5000000000000009 13.500000000000002 0.00028299428610903632 74.500000000000014 2.9659722944541644 7.5000000000000009 3.5000000000000004
decision_type=2 2 2 2 2 2 2 2 2 2 2 2 2 2 2
left_child=2 3 7 5 14 -2 -5 12 11 -6 -10 -3 -1 -9 -4
right_child=1 8 4 6 9 -7 -8 13 10 -11 -12 -13 -14 -15 -16
leaf_value=-0.0042536951455032319 -0.0032925500521995099 -0.0032045164856312311 -0.0025712610843569915 0.00057144643273225875 -0.00013993312931377132 -0.026112356807696496 -0.0057237372356017911 -0.0011984294633716219 0.0017903260603482423 -0.0017336736619021271 -0.0050776765137690609 0.003716613667564483 -0.014228956229373405 -0.0030447716223062304 -0.00043390675880435476
leaf_count=7072 24659 5949 147396 669027 434652 722 9156 86028 473784 168607 6135 138251 4496 197261 26804
internal_value=0 0.0387044 -0.0479229 0.0108866 -0.0318904 -0.131443 0.0162142 -0.0901944 0.0700624 -0.0195133 0.0567496 0.114365 -0.271095 -0.0828047 -0.0747493
internal_count=2399999 1327683 1072316 703564 777459 25381 678183 294857 624119 603259 479919 144200 11568 283289 174200
shrinkage=0.03


Tree=14
num_leaves=16
num_cat=0
split_feature=61 61 63 16 73 79 73 48 17 77 45 82 63 48 63
split_gain=4191.88 1074.12 637.535 599.542 482.343 404.315 373.889 370.985 369.231 359.444 279.582 259.817 208.002 201.491 120.449
threshold=0.14495798945426944 -0.45330013334751124 74.500000000000014 9.5000000000000018 -1.0000000180025095e-35 0.00068845390662227541 1.0000000180025095e-35 5.5000000000000009 7.5000000000000009 1.0000000180025095e-35 15.500000000000002 0.00016009575424770443 66.500000000000014 1.5000000000000002 178.50000000000003
decision_type=2 2 2 2 2 2 2 2 2 2 2 2 2 2 2
left_child=1 5 10 6 14 8 -4 -5 -1 -6 11 -2 -7 -12 -3
right_child=2 4 3 7 9 12 -8 -9 -10 -11 13 -13 -14 -15 -16
leaf_value=-0.00085760159373520113 -0.00072943394354557569 -0.0024355910232954389 0.0018865953589887882 -0.0017096939349481206 0.00069569839300331795 -0.022211887968118935 0.0038611770464020414 0.001080165561184762 -0.0025124094706869952 -0.00068162327441607723 -0.062752808593543236 -0.0074575312207589379 -0.0069450618876767149 -0.014368607807208708 -0.00087457053898973292
leaf_count=181754 16011 102093 459358 49263 332896 903 106561 337047 367600 351134 112 7662 7563 256 79786
internal_value=0 -0.0346112 0.0504732 0.0545364 -0.0125571 -0.0688449 0.0752812 0.0241452 -0.0654982 -0.000376731 -0.110439 -0.0969302 -0.285922 -0.975501 -0.0583633
internal_count=2399999 1423729 976270 952229 865909 557820 565919 386310 549354 684030 24041 23673 8466 368 181879
shrinkage=0.03


Tree=15
num_leaves=16
num_cat=0
split_feature=61 61 46 17 65 62 64 83 73 17 63 47 16 19 16
split_gain=3962.46 1051.96 703.783 562.442 515.33 700.725 490.091 384.332 353.091 312.002 309.918 307.748 256.15 216.875 115.113
threshold=-1.0000000180025095e-35 0.40114942193031317 8.5000000000000018 7.5000000000000009 3.2500000000000004 120.50000000000001 -0.20752191543579099 5.123640602300452e-05 1.0000000180025095e-35 13.500000000000002 74.500000000000014 3.5000000000000004 3.5000000000000004 1.5000000000000002 9.5000000000000018
decision_type=2 2 2 2 2 2 2 2 2 2 2 2 2 2 2
left_child=2 4 3 7 6 -6 -2 -1 10 12 -3 -5 -4 -11 -10
right_child=1 8 9 11 5 -7 -8 -9 14 13 -12 -13 -14 -15 -16
leaf_value=-0.00011012878547930786 -0.00051083271361358957 -0.0033798062917959567 0.0030437134832233146 -0.0063498896846105506 -0.049838552766945481 -0.0040144541725709009 0.0010790502853445954 -0.0027526110242612513 0.0042285849868394249 0.02567708473171065 0.0017581262600494571 -0.0026589541914146474 -0.00023877621723174543 -0.0015767812109696131 0.0022962217093226642
leaf_count=154292 327796 10820 23060 21864 427 1014 374327 73179 71725 263 495760 301787 308805 189066 45814
internal_value=0 0.0365194 -0.0452179 -0.0701449 0.00999759 -0.587623 0.0112257 -0.0320103 0.0664164 -0.0188585 0.054945 -0.0969453 -0.000354506 -0.0512903 0.115852
internal_count=2399999 1327683 1072316 551122 703564 1441 702123 227471 624119 521194 506580 323651 331865 189329 117539
shrinkage=0.03


Tree=16
num_leaves=16
num_cat=0
split_feature=61 61 73 63 63 16 79 82 47 46 68 83 81 63 81
split_gain=3741.74 1202.97 530.585 506.372 488.159 433.557 401.294 366.302 327.84 239.394 258.123 253.107 215.532 194.421 139.995
threshold=0.31091010570526129 -0.39863014221191401 1.0000000180025095e-35 74.500000000000014 178.50000000000003 4.5000000000000009 0.00068845390662227541 0.0002422621100214208 9.5000000000000018 1.5000000000000002 5.1328735351562509 0.00013509747379093534 -0.00020882449866235745 66.500000000000014 -0.00022939759083917855
decision_type=2 2 2 2 2 2 2 2 2 2 2 2 2 2 2
left_child=1 6 4 9 -3 12 7 -1 -7 10 -2 -11 -5 -8 -4
right_child=3 2 14 5 -6 8 13 -9 -10 11 -12 -13 -14 -15 -16
leaf_value=-0.0016577446273735319 -0.0072373878001592536 -0.001190832762591851 0.0044940066779943699 0.0061480980309441234 0.00032549473318758341 0.0006690481979353118 -0.020638303434480004 -0.0063238585486908054 0.002067345287379905 0.0005481835208169005 -0.035280702939133241 -0.006764241462083217 0.0027397811779903067 -0.0065577515960371993 0.001022125452638115
leaf_count=598433 1197 440158 11150 18766 338565 285243 993 15569 322085 11943 394 6649 157188 8284 183382
internal_value=0 -0.0280143 -0.00604008 0.055664 -0.0177187 0.0596972 -0.0623264 -0.0592032 0.0470212 -0.100832 -0.473645 -0.0688784 0.103447 -0.268953 0.0407074
internal_count=2399999 1596534 973255 803465 778723 783282 623279 614002 607328 20183 1591 18592 175954 9277 194532
shrinkage=0.03


Tree=17
num_leaves=16
num_cat=0
split_feature=61 61 46 64 70 82 77 65 73 16 63 70 73 52 16
split_gain=3533.76 939.723 654.238 546.312 544.049 528.896 531.511 481.077 293.236 286.395 280.847 251.88 229.714 96.4875 87.3067
threshold=-1.0000000180025095e-35 0.49647887051105505 8.5000000000000018 0.28147299587726599 -2.2949829101562496 0.00028299428610903632 -4.5663115428771945 3.2500000000000004 1.0000000180025095e-35 3.5000000000000004 74.500000000000014 -0.40679931640624994 -1.0000000180025095e-35 9.5000000000000018 9.5000000000000018
decision_type=2 2 2 2 2 2 2 2 2 2 2 2 2 2 2
left_child=2 5 3 4 -1 7 -7 -2 10 13 -3 -5 -11 -4 -10
right_child=1 8 9 11 -6 6 -8 -9 14 12 -12 -13 -14 -15 -16
leaf_value=-0.009086789207245401 0.00049591954218158527 -0.0033979426482767822 0.0012571471837048598 -0.00065159254765813682 -0.0022420180025730057 0.082542631762926699 -0.0062840919582007274 -0.016748513742703829 0.0041273133184219326 -0.0018747637643984102 0.0017663659678989756 0.0033051060149443998 -0.00033106170454770155 0.0051149206174022719 0.0023077417767373445
leaf_count=10711 765210 9711 18449 63612 457981 60 12132 1460 63409 112799 437160 18818 381304 8642 38541
internal_value=0 0.0344877 -0.0427024 -0.0667369 -0.0799497 0.0121454 -0.194633 0.0154346 0.0661938 -0.0172866 0.0551366 0.0083844 -0.0227836 0.082949 0.114654
internal_count=2399999 1327683 1072316 551122 468692 778862 12192 766670 548821 521194 446871 82430 494103 27091 101950
shrinkage=0.03


Tree=18
num_leaves=16
num_cat=0
split_feature=61 61 73 63 64 16 79 48 81 73 45 75 0 70 72
split_gain=3331.13 1091.65 572.382 459.479 458.929 417.703 409.86 308.058 304.542 272.95 240.585 204.068 171.694 169.329 137.456
threshold=0.31091010570526129 -0.51657509803771962 -1.0000000180025095e-35 74.500000000000014 0.28147299587726599 9.5000000000000018 0.00068845390662227541 5.5000000000000009 -0.00022939759083917855 1.0000000180025095e-35 15.500000000000002 6.3833661429486082 1633.2500000000002 -2.2949829101562496 3.5000000000000004
decision_type=2 2 2 2 2 2 2 2 2 2 2 2 2 2 2
left_child=1 6 14 10 -4 9 8 -7 -1 -5 11 -2 -12 -8 -3
right_child=3 2 4 5 -6 7 13 -9 -10 -11 12 -13 -14 -15 -16
leaf_value=0.0011490720281808764 -0.0003783730143884358 -0.0018637593317210601 -0.00026470005446569826 0.0019016021851160987 0.0015369319890422652 -0.0016131576290261212 -0.028430523066266603 0.0011968394223069287 -0.0021547322869606023 0.0037460239504548088 -0.05863496418568221 -0.0069346598425041577 -0.013306666331657443 -0.0083563689740293792 0.00032315521559386475
leaf_count=26818 13549 214462 757363 389022 153246 40592 406 264667 408739 89001 109 6277 248 5916 29584
internal_value=0 -0.0264329 -0.0102506 0.0525217 0.00128269 0.056364 -0.0687169 0.0274375 -0.0650425 0.0748348 -0.0965632 -0.0818375 -0.910447 -0.32174 -0.0532864
internal_count=2399999 1596534 1154655 803465 910609 783282 441879 305259 435557 478023 20183 19826 357 6322 244046
shrinkage=0.03


Tree=19
num_leaves=16
num_cat=0
split_feature=61 61 63 16 17 63 65 65 46 15 17 63 62 80 47
split_gain=3167.65 897.344 578.999 531.915 538.204 487.625 485.688 353.635 341.798 325.132 308.111 284.504 240.602 152.787 146.764
threshold=-0.11062163487076758 0.40114942193031317 66.500000000000014 13.500000000000002 7.5000000000000009 178.50000000000003 3.2500000000000004 2.2500000000000004 5.5000000000000009 3.5000000000000004 3.5000000000000004 219.50000000000003 373.50000000000006 0.00040539528634836187 3.5000000000000004
decision_type=2 2 2 2 2 2 2 2 2 2 2 2 2 2 2
left_child=2 5 7 4 -4 6 -2 12 -5 11 -7 -3 -1 -11 -9
right_child=1 9 3 8 -6 10 -8 14 -10 13 -12 -13 -14 -15 -16
leaf_value=-0.0043558260152626194 -0.00037335565294911119 0.0016332455870731056 0.0003318421945962568 -0.0041211920556434153 -0.0013708989524658039 0.0045348762267325583 -0.021989726287776977 -0.0637699177708939 -0.0016844321632455276 0.0003479682383622177 0.00086987772026454692 0.0031819801901837087 -0.012927150378983633 -0.0070600982197060553 -0.0072612539961213066
leaf_count=14509 429529 382448 268919 67651 442681 22219 938 136 223503 90400 302017 148682 3717 2589 61
internal_value=0 0.0312681 -0.0422207 -0.0389903 -0.0242467 0.00805847 -0.0140181 -0.218009 -0.075023 0.0593329 0.0373696 0.0688941 -0.20351 0.00471593 -1.5491
internal_count=2399999 1378822 1021177 1002754 711600 754703 430467 18423 291154 624119 324236 531130 18226 92989 197
shrinkage=0.03


Tree=20
num_leaves=16
num_cat=0
split_feature=61 61 64 82 65 63 68 82 16 82 80 16 19 0 19
split_gain=2990.87 1037.42 525.132 596.85 508.414 463.129 840.88 456.713 432.546 358.31 316.426 320.059 264.025 199.801 194.414
threshold=-0.24818840622901914 0.40114942193031317 -0.20752191543579099 0.00028299428610903632 5.2500000000000009 66.500000000000014 5.5106811523437509 0.00028299428610903632 13.500000000000002 0.00018306915071575537 0.00040539528634836187 4.5000000000000009 1.5000000000000002 1688.2500000000002 259.50000000000006
decision_type=2 2 2 2 2 2 2 2 2 2 2 2 2 2 2
left_child=5 2 3 -2 -4 6 14 8 -7 -8 11 -3 -12 -9 -1
right_child=1 10 4 -5 -6 7 9 13 -10 -11 12 -13 -14 -15 -16
leaf_value=-0.0044263951908253794 -0.0004501551667699159 0.0031101657473808285 0.00083399034413373112 -0.0082415082863601177 -0.051714171460234971 -0.00082071002761220234 -0.044799692436263153 -0.0092424587393331141 -0.0023397509207144442 -0.0057423096672430925 0.019473040848354713 0.0014654906274038605 -0.0029441659264425484 0.0063706486773468796 -0.047134996108019474
leaf_count=15227 429048 138246 494307 9046 165 578812 702 8637 238727 305 487 468782 16604 808 96
internal_value=0 0.0259854 0.00485824 -0.0203696 0.0272107 -0.0479689 -0.214875 -0.0446723 -0.0421434 -1.10008 0.0575529 0.0613361 -0.0767806 -0.263489 -0.1566
internal_count=2399999 1556685 932566 438094 494472 843314 16330 826984 817539 1007 624119 607028 17091 9445 15323
shrinkage=0.03


Tree=21
num_leaves=16
num_cat=0
split_feature=61 61 63 69 81 61 68 15 68 64 16 63 69 83 68
split_gain=2814.08 976.072 513.07 480.839 448.619 387.395 379.095 308.271 298.962 284.083 278.402 274.807 274.487 185.386 98.6069
threshold=-0.24818840622901914 0.40114942193031317 74.500000000000014 5.9221191406250009 -0.00022939759083917855 -0.66734144091606129 6.3184814453125009 2.5000000000000004 5.3566284179687509 -0.76745486259460438 3.5000000000000004 219.50000000000003 4.3369750976562509 0.00021869737511361734 5.0429077148437509
decision_type=2 2 2 2 2 2 2 2 2 2 2 2 2 2 2
left_child=4 2 8 -4 9 6 -6 11 -2 14 -7 -3 -11 -9 -1
right_child=1 7 3 -5 5 10 -8 13 -10 12 -12 -13 -14 -15 -16
leaf_value=-0.018688901148927514 -0.0029739999472467985 0.0016178743759014641 0.00011851580595603006 0.003403706398369853 -0.0024253430134645597 0.0010748814553284047 -0.011038347646232922 0.0007187746644286275 -0.016457751224547242 -0.00010525441338961695 -0.0013458125924610937 0.0032574857259192848 0.0045415806040227441 -0.0052863495799759953 -0.06488515455933179
leaf_count=116 29479 336657 859396 42129 229277 46796 4703 155558 1562 34377 510766 127117 17212 4787 67
internal_value=0 0.0252058 0.00471238 0.00906852 -0.0465301 -0.052434 -0.0866192 0.0558264 -0.121783 0.0437242 -0.0380872 0.0689106 0.0481623 0.017979 -1.19815
internal_count=2399999 1556685 932566 901525 843314 791542 233980 624119 31041 51772 557562 463774 51589 160345 183
shrinkage=0.03


Tree=22
num_leaves=15
num_cat=0
split_feature=61 61 82 73 73 16 16 47 77 76 48 17 72 70
split_gain=2661.34 746.002 536.704 520.741 501.727 436.79 377.35 341.257 329.39 317.469 300.268 193.326 127.048 107
threshold=0.11369509249925615 -0.66491228342056263 0.00028299428610903632 -1.0000000180025095e-35 -1.0000000180025095e-35 9.5000000000000018 4.5000000000000009 2.5000000000000004 -4.5663115428771945 5.065931997097139 4.5000000000000009 13.500000000000002 3.5000000000000004 -0.038513183593749993
decision_type=2 2 2 2 2 2 2 2 2 2 2 2 2 2
left_child=1 7 3 13 12 -5 -6 10 -4 -10 -1 -9 -3 -2
right_child=2 4 8 5 6 -7 -8 11 9 -11 -12 -13 -14 -15
leaf_value=-0.01232582059222382 -0.0012880329678972324 -0.0020244212771896209 0.070434316756590357 0.0021171944964863084 0.0012720102297875714 0.0007201531440301685 -0.00043981995113234821 -0.0014028439854870051 -0.019375216310988014 -0.0033355338748075631 -0.0026326969296787003 -0.0030376671590588203 2.4835927742686485e-05 0.00028991044987280784
leaf_count=5516 60300 198188 52 499014 138737 338782 712425 180919 1204 14719 6052 102370 31764 109957
internal_value=0 -0.0287323 0.0386051 0.0414895 -0.0165655 0.0517429 -0.00535926 -0.0733408 -0.143368 -0.151681 -0.241889 -0.0664556 -0.0580429 -0.00896222
internal_count=2399999 1375971 1024028 1008053 1081114 837796 851162 294857 15975 15923 11568 283289 229952 170257
shrinkage=0.03


Tree=23
num_leaves=16
num_cat=0
split_feature=61 61 63 16 46 64 68 16 75 15 16 63 15 73 63
split_gain=2518.82 881.501 566.112 592.452 457.689 425.427 502.319 348.496 279.31 236.772 200.873 199.576 177.074 144.995 104.306
threshold=-0.24818840622901914 0.5962963104248048 74.500000000000014 9.5000000000000018 8.5000000000000018 -0.66526308655738819 6.3184814453125009 10.500000000000002 13.05789180215376 2.5000000000000004 3.5000000000000004 219.50000000000003 176.50000000000003 -1.0000000180025095e-35 74.500000000000014
decision_type=2 2 2 2 2 2 2 2 2 2 2 2 2 2 2
left_child=4 2 8 -4 5 6 -1 -7 -2 11 12 -3 -6 -12 -11
right_child=1 9 3 -5 10 7 -8 -9 -10 14 13 -13 -14 -15 -16
leaf_value=-0.004195840353878425 -0.0026961657403291486 0.0017807566685394734 0.0010387200366396921 -0.00034956736117359495 0.0025464779942590172 -0.0009747352776090961 -0.022365530084673124 -0.0027723621757653875 -0.013627582717957646 -0.020118565552034659 -0.0018345959369227391 0.0033984745436744239 -0.030338611014237342 -0.00040551203089473167 0.0002829731469697299
leaf_count=42234 34674 242628 617629 502248 20630 252130 1417 158406 2246 227 82891 96264 148 285458 60769
internal_value=0 0.0238471 0.00984958 0.0138694 -0.0440222 -0.0656038 -0.15955 -0.0556131 -0.112064 0.064338 -0.0188309 0.0746777 0.0770023 -0.0242383 0.00688244
internal_count=2399999 1556685 1156797 1119877 843314 454187 43651 410536 36920 399888 389127 338892 20778 368349 60996
shrinkage=0.03


Tree=24
num_leaves=16
num_cat=0
split_feature=15 46 63 68 69 79 70 16 63 65 74 73 18 17 78
split_gain=1852.31 1127.71 707.602 660.989 603.065 598.564 546.831 529.092 497.426 441.461 439.432 380.161 294.911 282.033 196.32
threshold=2.5000000000000004 8.5000000000000018 74.500000000000014 5.9305419921875009 5.4866333007812509 0.0005822327313875366 -1.2697143554687498 5.5000000000000009 214.50000000000003 2.2500000000000004 13.609835489092745 1.0000000180025095e-35 63.500000000000007 1.5000000000000002 6.4191805705474687
decision_type=2 2 2 2 2 2 2 2 2 2 2 2 2 2 2
left_child=2 4 3 12 5 -2 -6 14 9 -4 -5 -9 -1 -10 -3
right_child=1 7 8 10 6 -7 -8 11 13 -11 -12 -13 -14 -15 -16
leaf_value=-0.0017936693045702507 -0.0015475722688413228 0.0023625636343227942 0.00098442391056316621 -0.033326443945495846 -0.0087213316639217584 -0.0063935585755080827 0.0018778618845713651 -0.00050403686682752862 0.0092651775794894906 -0.0090846653077205006 0.016441326608286476 0.0011264771070533133 -0.019710579183019047 0.0024496610229309667 -0.0013350964777115771
leaf_count=30906 643619 112717 521040 981 4694 23820 66750 599046 5629 3954 190 164316 851 206833 14653
internal_value=0 -0.019106 0.0404127 -0.103082 -0.0479986 -0.0573517 0.0393718 0.00486047 0.0468207 0.0302848 -0.841049 -0.00510144 -0.075829 0.0876782 0.0645683
internal_count=2399999 1629615 770384 32928 738883 667439 71444 890732 737456 524994 1171 763362 31757 212462 127370
shrinkage=0.03


Tree=25
num_leaves=16
num_cat=0
split_feature=61 61 63 81 63 82 81 65 19 73 16 69 0 69 16
split_gain=2304.5 833.868 460.794 509.824 406.951 421.305 379.119 328.574 311.369 300.23 267.424 257.196 184.509 114.757 81.8999
threshold=-0.26234818994998926 0.40114942193031317 178.50000000000003 0.00032220953195081429 66.500000000000014 0.00028299428610903632 -0.00022939759083917855 2.2500000000000004 259.50000000000006 1.0000000180025095e-35 2.5000000000000004 5.4866333007812509 1688.2500000000002 6.8163452148437509 9.5000000000000018
decision_type=2 2 2 2 2 2 2 2 2 2 2 2 2 2 2
left_child=4 2 3 -2 7 6 -6 8 -1 10 -3 -4 -7 -9 -11
right_child=1 9 11 -5 5 12 -8 13 -10 14 -12 -13 -14 -15 -16
leaf_value=-0.0051895517284450063 -0.0003262263304432125 0.0033467125131241707 0.00062454748020912836 -0.0067047650469350354 0.0014150867522588111 -0.0089172163585247138 -0.0012994862645068651 -0.0096792224106394629 -0.052799926809668538 0.0035240734101157304 0.00098055372105670859 0.0031842890292615011 0.0066411306074261661 -0.061052993676475889 0.0018918780154581183
leaf_count=15696 535489 47585 376141 11537 49497 8336 739004 58 124 71725 458995 39119 749 130 45814
internal_value=0 0.0221938 0.00372108 -0.0153597 -0.0432778 -0.0401055 -0.0376354 -0.201292 -0.185566 0.0506749 0.0400951 0.0288576 -0.25441 -1.51394 0.0962677
internal_count=2399999 1586405 962286 547026 813594 797586 788501 16008 15820 624119 506580 415260 9085 188 117539
shrinkage=0.03


Tree=26
num_leaves=15
num_cat=0
split_feature=61 61 81 77 73 73 16 83 68 76 78 17 72 70
split_gain=2180.01 622.627 544.148 594.626 493.789 470.692 409.084 380.809 289.369 541.756 235.268 198.418 125.721 97.3084
threshold=0.078461539000272765 -0.66734144091606129 0.00032220953195081429 -4.5663115428771945 -1.0000000180025095e-35 -1.0000000180025095e-35 9.5000000000000018 0.00021869737511361734 6.3184814453125009 2.6867948950680711 -2.9072382517178075 1.5000000000000002 3.5000000000000004 -0.038513183593749993
decision_type=2 2 2 2 2 2 2 2 2 2 2 2 2 2
left_child=1 8 4 -4 13 12 -6 -7 11 -10 -5 -1 -3 -2
right_child=2 5 3 10 6 7 -8 -9 9 -11 -12 -13 -14 -15
leaf_value=0.0069157571107905701 -0.0012738674423753173 -0.0019881069414011206 0.06448897321043269 -0.030634236128379899 0.0019321822094916627 -6.9211518214259236e-05 0.00060777189879335333 -0.0040071013170409255 -0.0029502107833723826 -0.024485452172863676 -0.0043991531697064445 -0.002097743320458951 4.5771138529055725e-05 0.00018656344227990307
leaf_count=2225 64403 197696 111 314 515008 832006 355465 22750 3602 1488 15866 241423 31948 115694
internal_value=0 -0.0269668 0.0336953 -0.147779 0.03651 -0.0166096 0.0463789 -0.00580146 -0.0721177 -0.30841 -0.163703 -0.0671781 -0.0568363 -0.011187
internal_count=2399999 1333138 1066861 16291 1050570 1084400 870473 854756 248738 5090 16180 243648 229644 180097
shrinkage=0.03


Tree=27
num_leaves=16
num_cat=0
split_feature=61 61 63 68 16 63 79 16 82 81 65 45 75 0 70
split_gain=2070.87 731.212 452.904 539.048 526.944 377.237 368.733 332.308 274.477 246.718 235.213 225.383 182.449 161.642 156.435
threshold=0.31091010570526129 -0.51657509803771962 74.500000000000014 5.9305419921875009 4.5000000000000009 74.500000000000014 0.00068845390662227541 4.5000000000000009 0.00028299428610903632 -0.00022939759083917855 3.2500000000000004 15.500000000000002 6.3833661429486082 1633.2500000000002 -2.2949829101562496
decision_type=2 2 2 2 2 2 2 2 2 2 2 2 2 2 2
left_child=1 6 3 -3 -4 11 9 10 -9 -1 -7 12 -2 -13 -8
right_child=5 2 4 -5 -6 7 14 8 -10 -11 -12 13 -14 -15 -16
leaf_value=0.0012322336503781202 -0.00041903408968600297 -0.0028123031201266963 0.0014181018588168457 -0.024449845813005296 -0.0003939457849246513 0.0025655793556853129 -0.026915983479717149 0.0010833585987380942 -0.0048560715766140941 -0.0017422819598906544 -0.014921559232128102 -0.05684171061759645 -0.0066197675612369097 -0.012851716332496647 -0.0076183836946631589
leaf_count=26818 13549 38068 170784 1066 944737 175258 406 600225 7103 408739 696 109 6277 248 5916
internal_value=0 -0.0208432 -0.00759677 -0.113423 -0.00388368 0.0414138 -0.0554555 0.044896 0.0337954 -0.05197 0.0832079 -0.0936955 -0.0794402 -0.881533 -0.29547
internal_count=2399999 1596534 1154655 39134 1115521 803465 441879 783282 607328 435557 175954 20183 19826 357 6322
shrinkage=0.03


Tree=28
num_leaves=16
num_cat=0
split_feature=61 73 61 16 17 16 48 70 64 63 15 83 47 16 16
split_gain=1963.5 751.181 581.681 478.626 375.936 285.477 284.357 325.054 250.192 243.917 160.915 154.464 147.183 118.066 86.3631
threshold=-0.26234818994998926 -1.0000000180025095e-35 0.63739085197448742 10.500000000000002 7.5000000000000009 13.500000000000002 5.5000000000000009 -2.2949829101562496 -0.80398148298263539 74.500000000000014 2.5000000000000004 0.00021869737511361734 9.5000000000000018 4.5000000000000009 5.5000000000000009
decision_type=2 2 2 2 2 2 2 2 2 2 2 2 2 2 2
left_child=4 12 3 -3 5 9 7 -6 -7 -1 -4 -8 13 -2 -14
right_child=1 2 10 -5 6 8 11 -9 -10 -11 -12 -13 14 -15 -16
leaf_value=-0.0037441151352701056 0.00014091985094226553 0.0010932140666598442 0.0024510255531170751 -0.00024803552036549794 -0.012270085628863012 -0.016068922241484825 -0.0013216325583948762 -0.0029876749286820046 -0.0019448745549485991 0.00043251400147247888 0.00024529257012620399 -0.0052566439487881826 0.0015213105254320387 -0.0018820511676046507 -0.00042153752120766751
leaf_count=13435 33726 650031 233602 380019 3594 1156 459943 64237 53474 208551 34314 9204 25422 115808 113483
internal_value=0 0.0204865 0.0307497 0.0199456 -0.0399491 -0.00996723 -0.0553928 -0.115996 -0.0748103 0.00598845 0.072286 -0.0466292 -0.0256959 -0.047523 -0.00219489
internal_count=2399999 1586405 1297966 1030050 813594 276616 536978 67831 54630 221986 267916 469147 288439 149534 138905
shrinkage=0.03


Tree=29
num_leaves=16
num_cat=0
split_feature=61 46 64 39 69 47 16 69 16 73 65 80 65 49 19
split_gain=1856.79 714.408 634.148 519.674 414.579 375.632 360.135 335.109 305.4 284.584 269.577 205.267 201.317 200.746 190.132
threshold=0.31091010570526129 8.5000000000000018 -0.24166110157966611 1633.7500000000002 4.9751586914062509 7.5000000000000009 5.5000000000000009 5.3847045898437509 9.5000000000000018 -1.0000000180025095e-35 2.7500000000000004 0.00040539528634836187 3.2500000000000004 42.500000000000007 4.5000000000000009
decision_type=2 2 2 2 2 2 2 2 2 2 2 2 2 2 2
left_child=1 2 4 -4 -1 7 10 13 14 -8 -3 -10 -9 -2 -7
right_child=5 6 3 -5 -6 8 9 12 11 -11 -12 -13 -14 -15 -16
leaf_value=-0.0027437857899689647 -0.00032057247371168558 0.0016487092017877403 0.00066536164892196407 -0.0014463352232275222 -0.00048732338211497319 0.004538870622584245 -0.0013645862534181076 0.0028471285292912978 0.00094443908019617418 0.00010239111097177283 -0.018915134182354517 -0.0063518269093262711 -0.011486373007168904 0.0064541709757966192 0.0020290809354717126
leaf_count=271591 223850 120213 201957 218850 100634 30426 154117 46513 230023 528595 577 3535 901 4021 264196
internal_value=0 -0.019737 -0.0410409 -0.0144279 -0.0711259 0.0392155 0.00128878 0.00923329 0.054841 -0.00762491 0.0516733 0.0277972 0.0858066 -0.00669774 0.0762779
internal_count=2399999 1596534 793032 420807 372225 803465 803502 275285 528180 682712 120790 233558 47414 227871 294622
shrinkage=0.03


Tree=30
num_leaves=16
num_cat=0
split_feature=61 73 61 69 46 17 47 65 73 17 16 83 61 48 65
split_gain=1782.47 698.563 561.877 423.465 382.523 325.584 249.252 248.06 244.103 237.281 190.316 188.532 96.6861 76.0807 74.4858
threshold=-0.26234818994998926 1.0000000180025095e-35 0.63739085197448742 5.3847045898437509 5.5000000000000009 7.5000000000000009 2.5000000000000004 1.7500000000000002 -1.0000000180025095e-35 13.500000000000002 12.500000000000002 0.00025426176986988901 0.71281296014785778 5.5000000000000009 0.75000000000000011
decision_type=2 2 2 2 2 2 2 2 2 2 2 2 2 2 2
left_child=4 2 3 -2 5 7 -7 -1 14 -10 12 -4 -3 -12 -6
right_child=1 10 11 -5 8 6 -8 -9 9 -11 13 -13 -14 -15 -16
leaf_value=-0.00069179934426572595 -0.00025620474388614328 0.0020823729994917497 0.0016467741143348551 0.0016736933231896838 -0.002532530903175392 -0.008350376731283575 -0.0028410585208740137 -0.0078881532628981392 0.00011734733655966432 -0.0013438117050520101 -0.0016864188646606572 -0.0046926143862330901 0.0039007664730429828 0.001014846325042334 -0.0010612087285314091
leaf_count=109736 907471 190382 249750 115561 70605 7903 120226 4501 291334 153044 10796 4310 30843 77292 56245
internal_value=0 0.0195196 0.00918637 -0.00127296 -0.0380637 -0.0713858 -0.106035 -0.0325179 -0.0239245 -0.0128615 0.0621818 0.0513051 0.0778659 0.0227865 -0.0626761
internal_count=2399999 1586405 1277092 1023032 813594 242366 128129 114237 571228 444378 309313 254060 221225 88088 126850
shrinkage=0.03


Tree=31
num_leaves=16
num_cat=0
split_feature=61 63 16 82 81 46 13 68 83 65 67 13 76 70 17
split_gain=1682.16 579.825 559.405 497.276 487.715 470.096 388.357 376.791 385.054 357.046 298.253 313.557 259.72 253.402 207.303
threshold=-0.11062163487076758 74.500000000000014 4.5000000000000009 0.00028299428610903632 -0.00022939759083917855 8.5000000000000018 1611.7500000000002 5.9305419921875009 -0.00012309839955702777 3.2500000000000004 1609.4893188476565 1623.2500000000002 6.9642546796163423 2.5603637695312504 13.500000000000002
decision_type=2 2 2 2 2 2 2 2 2 2 2 2 2 2 2
left_child=4 7 9 -4 10 6 -6 12 -9 -3 13 -12 -2 -1 -7
right_child=1 2 3 -5 5 14 -8 8 -10 -11 11 -13 -14 -15 -16
leaf_value=-0.0062930689031034798 -0.0010979219800091467 0.0020818352750818186 0.00054757165143607073 -0.0056597693842933674 0.0011953858006982694 8.9569090927917576e-05 -0.0019704849420664988 -0.063025084405419332 -0.012763816128337312 -0.013203822489757266 0.0093193122825852501 0.0015991235800712773 -0.0070059260328891723 0.030454692701489799 -0.0012267522520281668
leaf_count=5188 29484 270723 1055792 11761 37809 290539 459495 165 813 1384 5237 50686 8700 174 172049
internal_value=0 0.0227878 0.0262965 0.0159722 -0.0307711 -0.0362977 -0.0576586 -0.0972242 -0.710484 0.0667995 0.0557817 0.0774172 -0.0814856 -0.169744 -0.0133325
internal_count=2399999 1378822 1339660 1067553 1021177 959892 497304 39162 978 272107 61285 55923 38184 5362 462588
shrinkage=0.03


Tree=32
num_leaves=16
num_cat=0
split_feature=61 46 77 47 17 47 19 76 69 73 82 46 61 74 65
split_gain=1603.53 629.443 597.768 478.067 448.651 353.187 315.23 359.073 305.91 286.737 227.086 195.08 194.388 190.53 180.342
threshold=0.31091010570526129 8.5000000000000018 0.49018565077553305 2.5000000000000004 7.5000000000000009 7.5000000000000009 2.5000000000000004 14.347991537315661 5.3847045898437509 -1.0000000180025095e-35 0.00028299428610903632 4.5000000000000009 0.81953865289688121 -15.211781045965054 3.2500000000000004
decision_type=2 2 2 2 2 2 2 2 2 2 2 2 2 2 2
left_child=1 2 4 -4 -1 8 7 -3 11 -8 12 -2 -7 -12 -10
right_child=5 6 3 -5 -6 10 9 -9 14 -11 13 -13 -14 -15 -16
leaf_value=0.00066332413892130086 -0.0019269283937129115 0.0044804508323582938 -0.0062291585485377285 -0.0017356078535794195 -0.0013253987525823788 0.0014101001368818403 -0.0010828510495201611 0.044739200334776845 0.0026745597264903513 0.00028287321548867687 0.052111571549244645 0.00022164045626071378 0.0032819669856546038 -0.0051430935010282437 -0.01089448859718751
leaf_count=200289 48499 10001 22685 361116 208942 466605 179195 203 46513 614103 52 179372 56172 5351 901
internal_value=0 -0.0183423 -0.0383407 -0.0667086 -0.0117342 0.0364441 0.00139499 0.176238 0.00736966 -0.000853567 0.0515966 -0.00785305 0.0537088 -0.152658 0.080539
internal_count=2399999 1596534 793032 383801 409231 803465 803502 10204 275285 793298 528180 227871 522777 5403 47414
shrinkage=0.03


Tree=33
num_leaves=16
num_cat=0
split_feature=61 63 16 70 68 48 63 68 82 17 48 76 82 62 0
split_gain=1538.24 603.788 652.833 512.38 346.735 397.405 341.434 733.04 375.416 388.502 333.501 331.196 324.708 210.857 173.349
threshold=-0.26234818994998926 74.500000000000014 9.5000000000000018 -0.038513183593749993 5.1328735351562509 1.5000000000000002 66.500000000000014 5.5106811523437509 0.00028299428610903632 7.5000000000000009 5.5000000000000009 6.9642546796163423 0.00018306915071575537 1441.5000000000002 1688.2500000000002
decision_type=2 2 2 2 2 2 2 2 2 2 2 2 2 2 2
left_child=6 4 3 -3 11 -6 7 13 9 -8 -4 -2 -9 -1 -10
right_child=1 2 10 -5 5 -7 8 12 14 -11 -12 -13 -14 -15 -16
leaf_value=-0.0034228460134258553 -0.00078346708771770131 0.0002677076332254944 -0.0018497595920110757 0.0017592763684325865 -0.033612675461075284 -0.0066361636273640241 3.5425200596951892e-05 -0.041415066639806646 -0.008288883458763982 -0.001376760451941714 0.00018877800925034158 -0.00709520335201674 -0.0041061447497623242 -0.043939840014164261 0.0067935008143633598
leaf_count=14888 32719 338359 82647 537165 662 1925 264132 702 8336 524369 583197 9731 302 116 749
internal_value=0 0.0181337 0.0214709 0.0394285 -0.0960648 -0.451848 -0.0353612 -0.180123 -0.0324549 -0.0301229 -0.00214109 -0.0743607 -1.00743 -0.124667 -0.234773
internal_count=2399999 1586405 1541368 875524 45037 2587 813594 16008 797586 788501 665844 42450 1004 15004 9085
shrinkage=0.03


Tree=34
num_leaves=16
num_cat=0
split_feature=15 46 63 65 62 69 79 70 63 73 17 79 19 70 18
split_gain=1198.93 851.379 567.299 534.509 832.92 523.708 543.903 496.051 346.608 345.611 259.926 340.641 186.387 154.472 114.155
threshold=2.5000000000000004 8.5000000000000018 214.50000000000003 2.2500000000000004 67.500000000000014 5.4866333007812509 0.0005822327313875366 -1.3806762695312498 74.500000000000014 1.0000000180025095e-35 1.5000000000000002 -1.6888689736272459e-05 2.5000000000000004 0.35272216796875006 18.500000000000004
decision_type=2 2 2 2 2 2 2 2 2 2 2 2 2 2 2
left_child=2 5 3 8 -5 6 -2 -7 -1 12 11 -4 -3 -12 -11
right_child=1 9 10 4 -6 7 -8 -9 -10 14 13 -13 -14 -15 -16
leaf_value=-0.0024586788067676372 -0.0013110179907963979 0.0045728316671853645 0.0028005471020020457 -0.047370460634256768 -0.005383529885019213 -0.0086577643797531544 -0.0059307137706217155 0.0018615476304949842 0.0007440610634403983 0.0017293598296915687 0.0016019076116383657 0.017981438287382273 -0.00019136335393335512 0.0034212121066882111 -2.1905251915725508e-05
leaf_count=32368 643619 7499 3456 475 4039 4298 23820 67146 521040 142116 147700 2173 696931 59133 44186
internal_value=0 -0.0153733 0.0325164 0.0157584 -0.327152 -0.0404804 -0.0491973 0.0409465 0.0185569 0.00545309 0.0765202 0.288858 -0.00468728 0.0707376 0.0437976
internal_count=2399999 1629615 770384 557922 4514 738883 667439 71444 553408 890732 212462 5629 704430 206833 186302
shrinkage=0.03


Tree=35
num_leaves=15
num_cat=0
split_feature=61 81 65 46 64 81 77 73 64 47 16 78 20 19
split_gain=1406.19 533.043 644.318 543.549 471.457 393.055 507.585 376.893 338.737 325.014 321.92 228.784 95.9641 15.8816
threshold=0.14495798945426944 -0.00022939759083917855 5.2500000000000009 7.5000000000000009 0.28147299587726599 0.00032220953195081429 -4.5663115428771945 1.0000000180025095e-35 -0.76745486259460438 9.5000000000000018 3.5000000000000004 -2.9072382517178075 18.500000000000004 1.5000000000000002
decision_type=2 2 2 2 2 2 2 2 2 2 2 2 2 2
left_child=1 2 8 4 -3 7 -7 9 -1 -2 -5 -8 -9 -4
right_child=5 3 13 10 -6 6 11 12 -10 -11 -12 -13 -14 -15
leaf_value=-0.02924574701402843 6.4175247980357699e-05 -0.0017984415881445283 -0.07765061050233707 0.0022936405522334395 0.00069033713083474903 0.062486533199988523 -0.030020018177664105 0.0025786978153337485 0.0019040223080281956 0.0012940842268594161 -0.00037709119503111758 -0.0038428330190088014 0.0010195288541933205 -0.051091207181507683
leaf_count=315 398664 490762 70 43137 79754 102 307 136646 85483 377259 724156 14722 48570 52
internal_value=0 -0.0200505 0.0563524 -0.0249579 -0.04835 0.0292379 -0.130822 0.0317583 0.0596381 0.0220729 -0.00756404 -0.146017 0.0723306 -2.23199
internal_count=2399999 1423729 85920 1337809 570516 976270 15131 961139 85798 775923 767293 15029 185216 122
shrinkage=0.03


Tree=36
num_leaves=16
num_cat=0
split_feature=61 73 16 82 48 63 68 82 17 74 62 54 46 69 16
split_gain=1353.05 651.236 477.235 389.199 328.511 313.127 686.4 350.189 363.217 310.483 198.09 178.15 140.429 104.901 64.2785
threshold=-0.26234818994998926 -1.0000000180025095e-35 10.500000000000002 0.00016009575424770443 5.5000000000000009 66.500000000000014 5.5106811523437509 0.00028299428610903632 7.5000000000000009 -7.1007415007568619 1441.5000000000002 53.500000000000007 10.500000000000002 5.2936401367187509 5.5000000000000009
decision_type=2 2 2 2 2 2 2 2 2 2 2 2 2 2 2
left_child=5 12 3 -3 -4 6 10 8 -7 -8 -1 -9 13 -2 -14
right_child=1 2 4 -5 -6 7 9 11 -10 -11 -12 -13 14 -15 -16
leaf_value=-0.003236870532637692 -0.0017107793751343552 0.0014508856477194196 -0.001991556070194034 -0.0006931206235080672 0.00034422047585741576 6.4211829380252436e-05 -0.063591354044619949 -0.0073592303877070111 -0.0013013374083120312 -0.020998878633384351 -0.042512621594927247 0.023515209279911114 0.0012356962991632379 0.0005531662599871978 -0.00040192877371661499
leaf_count=14888 133400 743019 62674 85081 407192 264132 191 8914 524369 813 116 171 27477 21537 106025
internal_value=0 0.0170076 0.0265644 0.0410196 0.00108743 -0.0331656 -0.17181 -0.030382 -0.0281296 -0.972392 -0.118144 -0.225798 -0.0259963 -0.0465327 -0.00215861
internal_count=2399999 1586405 1297966 828100 469866 813594 16008 797586 788501 1004 15004 9085 288439 154937 133502
shrinkage=0.03


Tree=37
num_leaves=16
num_cat=0
split_feature=61 73 63 83 16 73 63 69 46 81 61 20 69 61 65
split_gain=1285.47 595.565 457.935 453.621 369.937 301.41 283.944 261.801 210.37 200 150.216 79.1176 74.2442 53.7287 31.1629
threshold=0.31091010570526129 1.0000000180025095e-35 178.50000000000003 0.00021869737511361734 6.5000000000000009 1.0000000180025095e-35 74.500000000000014 5.6057739257812509 1.5000000000000002 -0.00022939759083917855 -0.49736842513084406 18.500000000000004 6.2279663085937509 0.83419242501258861 2.7500000000000004
decision_type=2 2 2 2 2 2 2 2 2 2 2 2 2 2 2
left_child=1 2 3 -1 -4 6 8 -8 -2 12 -11 13 -3 -7 -13
right_child=5 9 4 -5 -6 11 7 -9 -10 10 -12 14 -14 -15 -16
leaf_value=-0.001122147605324769 -0.014550895502199398 0.0031566235599466575 0.0011818618361047492 -0.0049273377957992715 -0.00059348084250216836 0.0024168255924909982 0.00062685212790537022 0.0029501967439932463 -0.0021632357427485162 -0.00046943437666512148 0.00095068985749475977 0.001069858083271237 0.010568786257818201 0.0050502115132914395 -0.019339405458582482
leaf_count=700401 1346 17306 143730 29431 401586 104208 587491 47304 15435 101171 201585 40015 1324 7598 68
internal_value=0 -0.0164238 -0.0261265 -0.0425207 -0.00418405 0.032632 0.0232678 0.0266671 -0.105285 0.0220713 0.0158694 0.0727991 0.122825 0.086532 0.0344793
internal_count=2399999 1596534 1275148 729832 545316 803465 651576 634795 16781 321386 302756 151889 18630 111806 40083
shrinkage=0.03


Tree=38
num_leaves=16
num_cat=0
split_feature=61 73 16 82 48 47 64 74 81 16 76 69 47 49 16
split_gain=1226.13 599.921 443.173 365.796 308.026 307.477 371.487 565.996 317.287 343.078 283.685 275.674 126.052 111.82 64.4005
threshold=-0.26234818994998926 -1.0000000180025095e-35 10.500000000000002 0.00021883404406613914 5.5000000000000009 2.5000000000000004 -0.76745486259460438 -9.0606730207990669 -0.00022939759083917855 3.5000000000000004 2.2575292496831776 4.3369750976562509 9.5000000000000018 42.500000000000007 5.5000000000000009
decision_type=2 2 2 2 2 2 2 2 2 2 2 2 2 2 2
left_child=5 12 3 -3 -4 6 7 -1 11 -10 -8 -7 13 -2 -14
right_child=1 2 4 -5 -6 8 10 -9 9 -11 -12 -13 14 -15 -16
leaf_value=-0.059192072648962001 -0.0014670998468123138 0.0013183762252643927 -0.0019358624546453036 -0.0016759485232986254 0.00032608907865874694 -2.2793556558720328e-05 -0.00094002609191443727 -0.010384436096986704 0.0013629209563439395 -0.0011613076542174739 -0.0074488319657734711 0.0049457936459474825 0.0012727134192341847 0.0049016323618147114 -0.00040744629741410181
leaf_count=237 146995 789513 62674 38587 407192 31031 19775 2162 52268 684497 8705 14919 25422 2539 113483
internal_value=0 0.0161907 0.0253638 0.0392943 0.000811294 -0.0315728 -0.12957 -0.507837 -0.0277059 -0.0327403 -0.0976727 0.0530049 -0.0250861 -0.0452943 -0.00332778
internal_count=2399999 1586405 1297966 828100 469866 813594 30879 2399 782715 736765 28480 45950 288439 149534 138905
shrinkage=0.03


Tree=39
num_leaves=16
num_cat=0
split_feature=73 63 68 69 46 82 80 70 46 65 63 65 79 82 52
split_gain=897.818 675.417 1006.95 638.474 645.111 609.227 533.772 498.269 240.688 128.926 98.0188 89.5816 76.9003 76.8738 35.4909
threshold=-1.0000000180025095e-35 74.500000000000014 5.9305419921875009 5.2173461914062509 4.5000000000000009 0.00018306915071575537 0.0003280296412935265 -1.1737670898437498 8.5000000000000018 0.75000000000000011 74.500000000000014 3.2500000000000004 0.00051960005021497925 0.00028299428610903632 4.5000000000000009
decision_type=2 2 2 2 2 2 2 2 2 2 2 2 2 2 2
left_child=8 2 6 4 -3 -4 -2 -5 9 12 -11 13 -1 -10 -13
right_child=1 3 5 7 -6 -7 -8 -9 11 10 -12 14 -14 -15 -16
leaf_value=-0.0024453956312956264 -0.00079564311964531607 -0.0012918399400950401 -0.037213942973321049 -0.0037498795565356633 0.0004173976844880677 0.0022404891219176353 -0.0079663805313784607 0.0021671250480235424 -0.00051990348707562706 -0.0048383292657179942 -0.00081163497366328909 -0.0054819506870866829 -0.006008949353908128 -0.0056038953188401021 -0.036544410910071996
leaf_count=109479 49950 231907 1195 13595 1400556 499 11513 226604 259757 5885 80383 58 5801 2731 86
internal_value=0 0.009474 -0.0922927 0.0129065 0.00581914 -0.852952 -0.0713063 0.0610717 -0.0395157 -0.0655509 -0.0362184 -0.0195338 -0.0874966 -0.0190959 -0.808689
internal_count=2399999 1935819 63157 1872662 1632463 1694 61463 240199 464180 201548 86268 262632 115280 262488 144
shrinkage=0.03


Tree=40
num_leaves=16
num_cat=0
split_feature=61 81 65 46 64 64 47 16 69 16 80 49 58 80 19
split_gain=1154.98 532.185 593.418 567.092 460.082 312.228 308.422 299.326 260.662 241.426 196.503 184.923 180.243 150.834 18.4256
threshold=0.31091010570526129 -0.00022939759083917855 5.2500000000000009 7.5000000000000009 0.28147299587726599 -0.76745486259460438 7.5000000000000009 3.5000000000000004 5.3847045898437509 7.5000000000000009 0.00047672098734524926 42.500000000000007 80.500000000000014 -0.00036869741077980039 1.5000000000000002
decision_type=2 2 2 2 2 2 2 2 2 2 2 2 2 2 2
left_child=1 2 5 4 -3 -1 8 -5 11 13 -11 -2 -10 -8 -4
right_child=6 3 14 7 -6 -7 9 -9 12 10 -12 -13 -14 -15 -16
leaf_value=-0.027720254729762212 -0.00042373123469535782 -0.0016311223948168728 -0.075365219049050775 0.0021371178949226573 0.00072192848797112753 0.0019043552085717379 0.0054946145588958524 -0.00025146119606022515 0.0025524653327736236 0.00088354947110294883 -0.0081163770408101323 0.0060795064905541651 -0.0061805687104682207 0.0019390845590168619 -0.047685412871387764
leaf_count=321 223850 532836 70 50191 87150 94125 11400 831789 45174 310758 2206 4021 2240 203816 52
internal_value=0 -0.0155686 0.0572422 -0.0201533 -0.0433445 0.0601072 0.0309323 -0.00385049 0.00375865 0.0450941 0.0273346 -0.0102961 0.071315 0.0709172 -2.13909
internal_count=2399999 1596534 94568 1501966 619986 94446 803465 881980 275285 528180 312964 227871 47414 215216 122
shrinkage=0.03


Tree=41
num_leaves=16
num_cat=0
split_feature=61 73 63 81 15 46 70 25 17 73 17 18 81 81 65
split_gain=1101.33 556.386 444.95 482.249 308.424 283.794 286.791 281.299 251.88 202.348 195.15 147.496 101.113 72.1793 68.3513
threshold=-0.26234818994998926 1.0000000180025095e-35 214.50000000000003 0.00032220953195081429 3.5000000000000004 5.5000000000000009 -2.2949829101562496 80.500000000000014 7.5000000000000009 -1.0000000180025095e-35 13.500000000000002 14.500000000000002 -0.00020882449866235745 0.00032220953195081429 0.75000000000000011
decision_type=2 2 2 2 2 2 2 2 2 2 2 2 2 2 2
left_child=5 2 3 -2 -4 6 7 -1 -8 14 -11 12 -3 -13 -7
right_child=1 11 4 -5 -6 9 8 -9 -10 10 -12 13 -14 -15 -16
leaf_value=-0.0056425842723620973 -9.3963022718574643e-05 0.0040502501091488887 0.0017771228826308806 -0.0052706578201100265 8.7435690503813435e-05 -0.0022160826125951724 -0.0004716817741721455 -0.035185213922188117 -0.0024601129155079841 0.00022653098894949498 -0.0010990365084348073 0.00064894282693404122 0.0018069104699329223 -0.0063059024060723463 -0.0008060739734662072
leaf_count=11042 866214 20015 218143 16530 176205 70605 108071 298 122955 291334 153044 83675 204245 1378 56245
internal_value=0 0.0153449 0.00612169 -0.0063641 0.0340722 -0.029924 -0.0586353 -0.214109 -0.0510007 -0.0177412 -0.00766543 0.053424 0.066907 0.0178671 -0.0530339
internal_count=2399999 1586405 1277092 882744 394348 813594 242366 11340 231026 571228 444378 309313 224260 85053 126850
shrinkage=0.03


Tree=42
num_leaves=16
num_cat=0
split_feature=16 63 68 46 17 73 82 2 80 47 48 82 52 65 48
split_gain=833.575 687.269 952.169 549.53 543.818 514.419 442.467 417.916 405.51 290.183 292.842 240.694 174.773 171.993 140.153
threshold=10.500000000000002 74.500000000000014 5.6909790039062509 8.5000000000000018 3.5000000000000004 1.0000000180025095e-35 0.00019914681865469336 1601.2500000000002 0.0003280296412935265 3.5000000000000004 2.5000000000000004 -0.00022303265281677323 1.5000000000000002 4.2500000000000009 2.5000000000000004
decision_type=2 2 2 2 2 2 2 2 2 2 2 2 2 2 2
left_child=1 2 8 9 7 -6 -4 -3 -1 10 -2 -11 14 -14 -5
right_child=3 4 6 12 5 -7 -8 -9 -10 11 -12 -13 13 -15 -16
leaf_value=-0.00085846335869481285 -0.012295445274877845 0.0095391193611461499 -0.031745520758858413 -0.034908246436320546 0.00010396665666098863 0.0016422802137531073 -0.0019458085497801242 0.0020409043006688345 -0.0077261916299083914 0.0027352551107549458 -0.0033112392951819367 -0.0015043894384990024 -4.7743800044542422e-05 -0.032033807256406074 -0.0054549346180162977
leaf_count=46276 3864 7103 1457 152 1032110 241847 651 118832 9313 12528 21480 342719 558087 151 3429
internal_value=0 0.014991 -0.0920237 -0.023189 0.0194021 0.0132004 -0.751836 0.0821337 -0.0669808 -0.052548 -0.156067 -0.0451609 -0.00329944 -0.00188267 -0.223957
internal_count=2399999 1457589 57697 942410 1399892 1273957 2108 125935 55589 380591 25344 355247 561819 558238 3581
shrinkage=0.03


Tree=43
num_leaves=16
num_cat=0
split_feature=61 64 81 75 13 65 50 68 80 19 16 73 13 57 29
split_gain=1051.21 585.431 644.055 770.118 580.149 554.735 505.951 325.956 229.477 235.223 220.521 221.286 190.221 136.477 112.179
threshold=0.40114942193031317 -0.24166110157966611 0.00032220953195081429 3.480013400471198 1645.7500000000002 3.2500000000000004 1.5000000000000002 4.0017700195312509 0.00040539528634836187 1.5000000000000002 2.5000000000000004 1.0000000180025095e-35 1613.7500000000002 16.500000000000004 10.500000000000002
decision_type=2 2 2 2 2 2 2 2 2 2 2 2 2 2 2
left_child=1 2 6 -4 5 -3 -1 -6 10 14 12 -12 -2 -11 -10
right_child=8 4 3 -5 7 -7 -8 -9 9 13 11 -13 -14 -15 -16
leaf_value=-0.0090823794923587386 0.0082749821640536389 0.00095865491967315564 0.050380649424623697 -0.0077523658071089159 0.0003915887553288991 -0.025559923292629502 -0.00077633145171354093 -0.0011655046566234511 -4.5904732839343076e-05 -0.0041714393979925667 0.00068471450586954049 0.0022171372891482809 0.0023838520302213902 0.0032570901576312009 0.029558580014498848
leaf_count=6665 5512 448699 207 15505 197990 711 793162 312941 187 13941 447444 105099 48973 2663 300
internal_value=0 -0.0124126 -0.0321278 -0.232746 0.00432938 0.0305537 -0.0281859 -0.0187363 0.0353144 -0.0791361 0.0385377 0.0325409 0.0993416 -0.0993 0.606114
internal_count=2399999 1775880 815539 15712 960341 449410 799827 510931 624119 17091 607028 552543 54485 16604 487
shrinkage=0.03


Tree=44
num_leaves=16
num_cat=0
split_feature=61 73 83 16 74 17 18 27 65 79 20 48 47 16 80
split_gain=997.871 493.799 378.96 396.609 368.815 289.874 286.609 317.14 237.551 232.697 198.231 169.302 110.501 87.7883 57.4954
threshold=-0.24818840622901914 -1.0000000180025095e-35 0.00019698534237328031 9.5000000000000018 -13.159673869614377 7.5000000000000009 18.500000000000004 55.500000000000007 1.7500000000000002 0.00068845390662227541 14.500000000000002 5.5000000000000009 9.5000000000000018 3.5000000000000004 0.00047672098734524926
decision_type=2 2 2 2 2 2 2 2 2 2 2 2 2 2 2
left_child=5 12 3 -3 -4 6 8 -8 -1 11 -11 -7 13 -2 -14
right_child=1 2 4 -5 -6 9 7 -9 -10 10 -12 -13 14 -15 -16
leaf_value=0.00046394870083152356 0.00048998075032907556 0.0012789805411588921 0.015500930482669546 0.00018244988043326229 -0.0020250308960024954 -0.0025750617226985763 -0.0032968433274893844 0.0057354593634956156 -0.0059576905687987493 -0.010138748378597873 0.0030080390685851867 -0.00097005929295394745 -1.7908035221846309e-05 -0.001574238829306395 -0.0076127439378317636
leaf_count=241698 22014 701306 1103 516529 56114 67768 36032 3883 5314 4573 1337 482709 134855 123850 914
internal_value=0 0.0150126 0.0233897 0.0271305 -0.0562216 -0.0277152 -0.00186258 -0.0805889 0.0108572 -0.0410464 -0.238735 -0.0389226 -0.0229115 -0.0420867 -0.00230676
internal_count=2399999 1556685 1275052 1217835 57217 843314 286927 39915 247012 556387 5910 550477 281633 145864 135769
shrinkage=0.03


Tree=45
num_leaves=16
num_cat=0
split_feature=61 73 64 83 65 15 18 61 63 81 47 80 16 77 82
split_gain=958.714 551.54 446.507 516.638 368.508 216.234 198.62 190.73 145.679 145.203 137.699 112.556 119.329 109.718 68.6195
threshold=0.40114942193031317 1.0000000180025095e-35 0.28147299587726599 -0.00027316070761208909 5.2500000000000009 3.5000000000000004 14.500000000000002 0.80109891295433056 84.500000000000014 -0.00022939759083917855 1.5000000000000002 0.00040539528634836187 29.500000000000004 -4.5663115428771945 0.00028299428610903632
decision_type=2 2 2 2 2 2 2 2 2 2 2 2 2 2 2
left_child=1 2 3 -1 -4 7 9 10 -9 -3 -2 13 -13 -7 -8
right_child=5 6 4 -5 -6 11 14 8 -10 -11 -12 12 -14 -15 -16
leaf_value=0.0058479604314455227 -0.0046048600394356593 0.003717581682025304 0.00059904960327538336 -0.00091641764479055492 -0.055142910207543416 -0.0020476770558714259 -0.00033865212230417503 -0.0064705448679156256 0.0026581404382627133 0.00094621048371728916 0.0010371021621264701 -0.0039738029916770758 -0.02302773176039959 0.0004311170472743645 -0.0070906184195414119
leaf_count=10264 3948 18437 235379 1174395 106 21108 98848 1608 89597 237063 435977 2246 343 69292 1388
internal_value=0 -0.0118543 -0.0206807 -0.0285931 0.019122 0.0337262 0.0233804 0.0415282 0.0832321 0.0382089 0.0328808 -0.0108315 -0.217061 -0.00491736 -0.0144123
internal_count=2399999 1775880 1420144 1184659 235485 624119 355736 531130 91205 255500 439925 92989 2589 90400 100236
shrinkage=0.03


Tree=46
num_leaves=16
num_cat=0
split_feature=61 73 61 16 46 70 25 17 18 81 16 80 46 69 16
split_gain=916.282 473.977 354.057 305.909 258.231 269.215 260.73 222.255 191.295 195.219 143.883 125.631 116 94.2979 52.3191
threshold=-0.26234818994998926 -1.0000000180025095e-35 0.71281296014785778 10.500000000000002 5.5000000000000009 -2.2949829101562496 80.500000000000014 7.5000000000000009 5.5000000000000009 0.00027483578742181815 3.5000000000000004 0.00047672098734524926 10.500000000000002 5.2936401367187509 5.5000000000000009
decision_type=2 2 2 2 2 2 2 2 2 2 2 2 2 2 2
left_child=4 12 3 -3 5 6 -1 -7 10 -10 -6 -4 13 -2 -14
right_child=1 2 11 -5 8 7 -8 -9 9 -11 -12 -13 14 -15 -16
leaf_value=-0.0054083081049828433 -0.0015397800206762944 0.00083347880974660789 0.0018995069867484878 -0.00020799215534400635 0.0033765144894553588 -0.00042434530183555055 -0.033853682418755665 -0.0022925623148011059 -0.0006149708581360112 -0.0048645145399155102 0.00024022246901503284 -0.0049034979791434943 0.0011441969134772126 0.00060755576389760963 -0.00033520511699332799
leaf_count=11042 133400 692684 200635 402161 16318 108071 298 122955 474873 9972 70065 2486 27477 21537 106025
internal_value=0 0.0139974 0.0221524 0.0150303 -0.0272965 -0.0546878 -0.205335 -0.0472902 -0.0156738 -0.0234138 0.0277628 0.0605382 -0.0226977 -0.041373 -0.00102001
internal_count=2399999 1586405 1297966 1094845 813594 242366 11340 231026 571228 484845 86383 203121 288439 154937 133502
shrinkage=0.03


Tree=47
num_leaves=16
num_cat=0
split_feature=61 61 47 49 69 65 79 16 68 75 16 43 28 47 82
split_gain=868.25 394.872 361.794 339.973 333.361 373.905 341.816 247.427 235.819 537.266 214.685 212.599 154.514 152.162 150.742
threshold=0.078461539000272765 -0.66734144091606129 9.5000000000000018 42.500000000000007 5.3847045898437509 2.2500000000000004 0.00068845390662227541 3.5000000000000004 6.3184814453125009 3.741844669884633 9.5000000000000018 1625.7500000000002 1.5000000000000002 3.5000000000000004 0.0002422621100214208
decision_type=2 2 2 2 2 2 2 2 2 2 2 2 2 2 2
left_child=1 8 3 7 6 -6 -3 -2 12 -10 11 -4 -1 -5 -12
right_child=2 4 10 13 5 -7 -8 -9 9 -11 14 -13 -14 -15 -16
leaf_value=0.00023013894624528001 0.0013600917202240227 -0.0003833723863490762 0.0030342030567956611 0.016041296052263204 0.0016253978113272124 -0.0065597018236786516 -0.0055455244241983436 -0.0003027652612599808 -0.0014015339180391032 -0.02243665995433286 0.00067705398222090048 0.0012179046589074738 -0.0017960497528653337 0.0042803715732213383 -0.0047714903529942065
leaf_count=40888 98858 956221 85748 1123 111198 5270 11711 441663 3497 1593 244646 181368 202760 8776 4679
internal_value=0 -0.0170235 0.0212698 0.0034126 -0.00877249 0.0418284 -0.0148617 4.4512e-05 -0.0529927 -0.266363 0.040301 0.0600342 -0.0485321 0.187253 0.0191575
internal_count=2399999 1333138 1066861 550420 1084400 116468 967932 540521 248738 5090 516441 267116 243648 9899 249325
shrinkage=0.03


Tree=48
num_leaves=16
num_cat=0
split_feature=61 64 81 75 13 65 46 64 80 19 61 45 63 77 29
split_gain=824.262 517.711 591.176 721.382 543.132 507.189 416.544 297.441 203.718 220.889 195.849 187.882 170.643 122.401 105.315
threshold=0.40114942193031317 -0.24166110157966611 0.00032220953195081429 3.480013400471198 1645.7500000000002 3.2500000000000004 8.5000000000000018 0.30319648981094366 0.00040539528634836187 1.5000000000000002 0.77979800105094921 17.500000000000004 182.50000000000003 -4.193453055093836 10.500000000000002
decision_type=2 2 2 2 2 2 2 2 2 2 2 2 2 2 2
left_child=1 2 6 -4 5 -3 -1 -6 10 14 11 -2 -11 -12 -10
right_child=8 4 3 -5 7 -7 -8 -9 9 12 13 -13 -14 -15 -16
leaf_value=-0.001460239078890321 0.00094941655936164404 0.00094403795443530911 0.048867343890194134 -0.0073977858070462775 -0.00091871593673105044 -0.024414180140625786 -8.9705078563271024e-05 0.00081385316506121916 -3.8461655098449516e-05 -0.0046108121908821015 0.00031247389338738839 -0.0011229582879398788 0.002493684497864209 0.0026591087179907045 0.028649700751583837
leaf_count=398583 447205 448699 207 15505 395417 711 401244 115514 187 12570 25898 43355 4034 90570 300
internal_value=0 -0.0109925 -0.0295339 -0.22175 0.00475273 0.0301277 -0.0257571 -0.0175659 0.0312739 -0.0765839 0.0343116 0.025541 -0.0961267 0.0712481 0.587522
internal_count=2399999 1775880 815539 15712 960341 449410 799827 510931 624119 17091 607028 490560 16604 116468 487
shrinkage=0.03


Tree=49
num_leaves=16
num_cat=0
split_feature=61 73 63 16 68 70 48 16 15 81 10 18 29 81 16
split_gain=801.935 534.277 446.712 494.221 363.817 274.993 289.708 250.38 292.247 249.355 225.623 139.262 134.842 96.3802 65.8559
threshold=-0.39863014221191401 1.0000000180025095e-35 74.500000000000014 4.5000000000000009 5.9305419921875009 -2.2949829101562496 4.5000000000000009 3.5000000000000004 176.50000000000003 -0.00022939759083917855 1689.7500000000002 14.500000000000002 36.500000000000007 -0.00022939759083917855 13.500000000000002
decision_type=2 2 2 2 2 2 2 2 2 2 2 2 2 2 2
left_child=5 2 4 -4 -2 6 10 8 -7 -9 -1 13 -8 -3 -13
right_child=1 11 3 -5 -6 7 12 9 -10 -11 -12 14 -14 -15 -16
leaf_value=-0.010027554441811795 -0.0024693700499067044 0.0038901998015649598 0.001314135666686086 -0.00011622338884937623 -0.019482921223859639 0.0015463444394844439 -0.0010334638726351071 0.0015738439256943529 -0.024370513165503684 -0.0011580333763801126 -0.061916844006385897 0.0010942726594596831 -0.018994457950272287 0.0015910164041387962 -0.00050749426491202032
leaf_count=4998 42411 17809 270498 1116226 1164 44865 8545 31968 395 532037 76 54136 395 233387 41089
internal_value=0 0.0108307 0.00229013 0.00542587 -0.0974876 -0.030878 -0.169566 -0.0276869 0.0439765 -0.0334387 -0.360659 0.0460913 -0.0610252 0.0584699 0.0134322
internal_count=2399999 1776720 1430299 1386724 43575 623279 14014 609265 45260 564005 5074 346421 8940 251196 95225
shrinkage=0.03


Tree=50
num_leaves=16
num_cat=0
split_feature=61 73 63 65 69 80 77 61 81 64 73 53 77 83 13
split_gain=756.039 495.249 410.326 548.584 441.317 194.287 247.627 189.911 185.978 176.138 150.103 146.687 112.543 103.756 101.508
threshold=0.40114942193031317 1.0000000180025095e-35 115.50000000000001 3.2500000000000004 5.3847045898437509 0.00047672098734524926 -3.8475563152233625 0.77979800105094921 0.00032220953195081429 -0.28919091820716852 1.0000000180025095e-35 2.5000000000000004 -4.193453055093836 0.00021869737511361734 1645.7500000000002
decision_type=2 2 2 2 2 2 2 2 2 2 2 2 2 2 2
left_child=1 2 3 -1 -4 7 8 10 -7 13 -2 -8 -9 -3 -11
right_child=5 9 4 -5 -6 6 11 12 -10 14 -12 -13 -14 -15 -16
leaf_value=-0.001413428999693365 0.00044808324808876795 6.5812357664421354e-05 -0.00047927011139996923 -0.030073546745249098 0.0015502554908449818 0.0073167285114129985 -0.012928761799914769 0.00029497729389133909 0.052523236362612802 0.0019783447606727175 0.0017718646519785017 -0.002953299249022811 0.0025386508078881443 -0.0040221197518770921 0.00063370546697840639
leaf_count=347104 401653 145261 965107 602 107331 587 1714 25990 95 95412 96009 6030 92041 5854 109209
internal_value=0 -0.0105282 -0.0188927 -0.0487726 -0.00920458 0.0299529 -0.121137 0.0320216 0.456782 0.0228626 0.02345 -0.172151 0.0681579 -0.00308251 0.0420257
internal_count=2399999 1775880 1420144 347706 1072438 624119 8426 615693 682 355736 497662 7744 118031 151115 204621
shrinkage=0.03


Tree=51
num_leaves=16
num_cat=0
split_feature=61 73 63 50 17 79 16 82 15 70 78 18 18 81 81
split_gain=736.943 475.172 413.673 482.549 329 269.469 230.922 288.089 255.553 146.037 171.64 142.421 129.5 90.1957 63.512
threshold=-0.39863014221191401 1.0000000180025095e-35 214.50000000000003 1.5000000000000002 3.5000000000000004 0.00068845390662227541 3.5000000000000004 0.00028299428610903632 176.50000000000003 -0.81317138671874989 4.0986528733701979 1.5000000000000002 14.500000000000002 -0.00022939759083917855 0.00032220953195081429
decision_type=2 2 2 2 2 2 2 2 2 2 2 2 2 2 2
left_child=5 2 3 -2 -4 6 8 -8 -1 10 -7 -11 13 -3 -14
right_child=1 12 4 -5 -6 9 7 -9 -10 11 -12 -13 14 -15 -16
leaf_value=0.0014380505003500274 -0.0068532432594590447 0.0037343303495673361 0.0038403426739516983 -0.00020365299468368594 0.00061158821548880815 -0.015755715550936963 -0.00090752797381504638 -0.0075268383774386455 -0.022983488629070611 0.018573792816801781 0.0069986823443164174 -0.0045875354931013022 0.0004630970936137431 0.0015095392225132416 -0.0057829763861829914
leaf_count=45808 9936 17809 30599 980660 409104 2028 561809 5996 389 248 350 6651 93720 233387 1505
internal_value=0 0.0103829 0.0023279 -0.00901242 0.0278773 -0.0296016 -0.0270411 -0.0325822 0.0410531 -0.198995 -0.413294 -0.125007 0.0436389 0.0555781 0.0121388
internal_count=2399999 1776720 1430299 990596 439703 623279 614002 567805 46197 9277 2378 6899 346421 251196 95225
shrinkage=0.03


Tree=52
num_leaves=16
num_cat=0
split_feature=61 16 19 47 48 47 73 69 70 82 16 79 79 74 70
split_gain=701.173 367.534 367.607 365.414 362.466 342.276 312.659 308.119 262.012 252.542 244.204 243.72 233.034 207.505 188.724
threshold=0.078461539000272765 13.500000000000002 22.500000000000004 3.5000000000000004 2.5000000000000004 7.5000000000000009 -1.0000000180025095e-35 5.2936401367187509 -1.5161743164062498 0.00028299428610903632 9.5000000000000018 -0.00015365718862310715 0.00068845390662227541 -16.356596466219163 -1.0000000180025095e-35
decision_type=2 2 2 2 2 2 2 2 2 2 2 2 2 2 2
left_child=1 2 6 4 -3 7 -1 12 -4 10 -7 -5 -2 -11 -9
right_child=5 3 8 11 -6 9 -8 14 -10 13 -12 -13 -14 -15 -16
leaf_value=-0.0010338258981736452 -0.00047761319448216062 -0.016906689241238299 -0.005401524984529206 -0.0027300546035241928 -0.0038821945507200892 0.0015373873550879056 0.00044035368570945942 -0.0014091201106219916 -0.0010439028058579841 0.054621067052742216 0.00041239662425269314 -0.00069108163863668159 -0.0064442824414296983 -0.0050456309332528515 0.0024993628516823945
leaf_count=164217 286729 2251 13445 64922 13411 374911 619125 14188 169206 52 325448 286561 6034 7227 52272
internal_value=0 -0.0152998 -0.00505241 -0.04226 -0.191868 0.0191161 0.0043764 -0.00604981 -0.0454926 0.0318919 0.0338214 -0.0355916 -0.0200221 -0.153663 0.0554913
internal_count=2399999 1333138 965993 367145 15662 1066861 783342 359223 182651 707638 700359 351483 292763 7279 66460
shrinkage=0.03


Tree=53
num_leaves=16
num_cat=0
split_feature=73 16 63 68 17 48 70 15 61 82 76 16 65 63 80
split_gain=676.689 528.709 464.978 803.375 418.201 379.544 230.19 213.681 144.911 124.199 112.178 102.789 76.3272 40.5398 27.4464
threshold=-1.0000000180025095e-35 10.500000000000002 74.500000000000014 5.6909790039062509 3.5000000000000004 5.5000000000000009 -2.2949829101562496 1.5000000000000002 -0.66491228342056263 0.00016009575424770443 -2.1352138854750922 5.5000000000000009 0.75000000000000011 74.500000000000014 -0.00049069565775608471
decision_type=2 2 2 2 2 2 2 2 2 2 2 2 2 2 2
left_child=8 2 3 -2 -4 6 -3 -7 12 11 -11 -10 14 -14 -1
right_child=1 5 4 -5 -6 7 -8 -9 9 10 -12 -13 13 -15 -16
leaf_value=0.0040881414358960727 -0.001479347207690122 -0.0091268830752609716 0.0025670975520251109 -0.021737316437435032 0.00058096810257255035 0.0012642934299793738 -0.0018253844567734556 -0.00032868757302699682 0.00028845834866972429 0.031527318279020784 -0.0024832686823472241 -0.00092108442661548314 -0.006335323162278847 -0.00078158866167880219 -0.0033492089813173579
leaf_count=462 45992 4071 105389 1833 1028126 87750 92306 570352 82389 87 40151 280450 1272 22871 36498
internal_value=0 0.00822596 0.0214427 -0.0752177 0.0255215 -0.0124678 -0.071135 -0.00387528 -0.0343108 -0.0274117 -0.080286 -0.0215465 -0.0798127 -0.0358355 -0.108524
internal_count=2399999 1935819 1181340 47825 1133515 754479 96377 658102 464180 403077 40238 362839 61103 24143 36960
shrinkage=0.03


Tree=54
num_leaves=16
num_cat=0
split_feature=61 73 63 16 68 79 17 16 63 76 19 46 16 19 80
split_gain=658.139 468.106 388.821 462.915 322.344 239.436 190.753 212.853 146.222 145.301 143.105 138.704 123.12 84.8823 63.9153
threshold=-0.45330013334751124 1.0000000180025095e-35 74.500000000000014 4.5000000000000009 5.6909790039062509 0.00068845390662227541 13.500000000000002 13.500000000000002 66.500000000000014 -2.8967497923271917 9.5000000000000018 2.5000000000000004 13.500000000000002 21.500000000000004 0.00040539528634836187
decision_type=2 2 2 2 2 2 2 2 2 2 2 2 2 2 2
left_child=5 2 4 -4 -2 6 7 -1 9 -7 -10 -8 13 -3 -14
right_child=1 12 3 -5 -6 8 11 -9 10 -11 -12 -13 14 -15 -16
leaf_value=-1.2591049746716332e-05 -0.0022192247755141435 0.0018251253791751129 0.0012287325526304956 -0.0001390309272035651 -0.015911135662649439 0.03092556658218492 -0.0047112385831471109 -0.0016810859307005389 -0.0011478819159711805 -0.020357847288250921 -0.0095887767182606595 -0.0013982720862847095 0.00041488930365608139 0.00044441361865327781 -0.0048956352069922096
leaf_count=275047 43480 218721 276110 1160931 1608 52 12265 92213 4519 851 3044 169829 89586 49632 2111
internal_value=0 0.0091166 0.00125317 0.00412528 -0.0902734 -0.0301116 -0.0275344 -0.0143856 -0.197264 -0.57857 -0.151601 -0.0540508 0.0414846 0.0523274 0.00974725
internal_count=2399999 1842179 1482129 1437041 45088 557820 549354 367260 8466 903 7563 182094 360050 268353 91697
shrinkage=0.03


Tree=55
num_leaves=16
num_cat=0
split_feature=46 81 49 69 64 83 16 18 46 75 67 65 68 21 83
split_gain=648.426 538.108 544.366 524.648 464.964 452.431 427.463 384.857 305.023 302.264 294.73 283.632 167.029 155.62 129.589
threshold=8.5000000000000018 -0.00020882449866235745 1.5000000000000002 5.4866333007812509 0.21384288370609286 0.00025426176986988901 6.5000000000000009 103.50000000000001 50.500000000000007 -3.8398459990555205 1629.0576782226565 3.2500000000000004 4.0588989257812509 12.500000000000002 -0.00022828969870833157
decision_type=2 2 2 2 2 2 2 2 2 2 2 2 2 2 2
left_child=1 2 9 4 -3 -5 8 -4 11 -1 -10 -2 13 -8 -14
right_child=6 3 7 5 -6 -7 12 -9 10 -11 -12 -13 14 -15 -16
leaf_value=-0.00713377835206324 0.0015935929673270984 -0.001307489254899253 0.0021501609168334949 0.0014311998079581368 0.00042280786412254791 -0.010462370226851253 0.00086627201735339603 -0.029485457032790471 0.0039254398133220358 -0.036060338188653764 -0.00752745680266656 -0.016094597743452163 0.0036906754425444686 -8.5630910852279863e-05 -0.00050506865919385413
leaf_count=2951 320223 731640 93400 116853 173109 2955 335126 347 2951 366 6464 819 6805 289418 316572
internal_value=0 -0.0175593 0.0536507 -0.0243061 -0.0325469 0.0379214 0.0154042 0.067753 0.046402 -0.344666 -0.131203 0.0516124 0.00459744 0.014171 -0.0138906
internal_count=2399999 1121621 97064 1024557 904749 119808 1278378 93747 330457 3317 9415 321042 947921 624544 323377
shrinkage=0.03


Tree=56
num_leaves=16
num_cat=0
split_feature=73 63 69 70 64 80 70 76 70 63 48 78 41 82 19
split_gain=629.336 441.742 485.581 441.53 390.418 340.823 426.646 395.623 136.34 147.384 142.798 136.557 107.32 103.416 87.5532
threshold=-1.0000000180025095e-35 74.500000000000014 5.2173461914062509 -0.54571533203124989 0.30319648981094366 0.0003280296412935265 -2.2949829101562496 -2.6255704431859619 -0.11871337890624999 115.50000000000001 5.5000000000000009 -12.762495068766246 1601.7500000000002 0.00016009575424770443 4.5000000000000009
decision_type=2 2 2 2 2 2 2 2 2 2 2 2 2 2 2
left_child=8 5 4 -4 -3 6 -2 -7 10 13 11 -1 -12 -10 -11
right_child=1 2 3 -5 -6 7 -8 -9 9 14 12 -13 -14 -15 -16
leaf_value=0.0082864644981926524 -0.043370272164168056 -7.1725100631335508e-05 -0.0021118966498364349 0.0020303198257068506 0.0011747696167624558 0.016250386342020293 -0.00098129538143469945 -0.0080603084094096056 -0.0011000687129764655 0.0018637241232609359 0.00083039119756401505 -0.0034778132339862156 -0.0015170674629657493 -0.0037557351106151582 -0.00032169945327109649
leaf_count=912 214 1360615 26013 214186 271848 636 50891 11416 68136 18381 20546 39315 124881 16525 175484
internal_value=0 0.00793318 0.01071 0.0527219 0.00452801 -0.0743916 -0.0386645 -0.22583 -0.03309 -0.0190565 -0.0541408 -0.107018 -0.0395104 -0.0539548 -0.00381354
internal_count=2399999 1935819 1872662 240199 1632463 63157 51105 12052 464180 278526 185654 40227 145427 84661 193865
shrinkage=0.03


Tree=57
num_leaves=16
num_cat=0
split_feature=46 81 49 69 79 83 16 18 14 46 67 65 73 78 48
split_gain=605.762 499.257 511.827 479.412 458.24 420.446 398.805 361.617 299.606 287.986 276.744 266.949 202.012 136.255 65.347
threshold=8.5000000000000018 -0.00020882449866235745 1.5000000000000002 5.4866333007812509 0.00068845390662227541 0.00025426176986988901 6.5000000000000009 103.50000000000001 1625.2500000000002 50.500000000000007 1629.0576782226565 3.2500000000000004 -1.0000000180025095e-35 2.3341191018166199 5.5000000000000009
decision_type=2 2 2 2 2 2 2 2 2 2 2 2 2 2 2
left_child=1 2 8 4 -3 -5 9 -4 -1 11 -11 -2 14 -14 -8
right_child=6 3 7 5 -6 -7 12 -9 -10 10 -12 -13 13 -15 -16
leaf_value=0.0043973659121036282 0.0015407306616156686 -0.00084600245238879255 0.0020728984676764237 0.0013635126667805371 -0.0057738194656975885 -0.010102644079904459 -0.0026350145601193118 -0.028594513621867698 -0.015677292404677107 0.0037857764106108025 -0.0073129914425816671 -0.015620745227365505 6.3523921856296602e-05 0.00091530830219606547 -0.0005675346504713676
leaf_count=931 320223 887405 93400 116853 17344 2955 15085 347 2386 2951 6464 819 492993 259391 180452
internal_value=0 -0.0169726 0.0516223 -0.0234716 -0.0313497 0.0360166 0.0148894 0.0652974 -0.334623 0.0448319 -0.127754 0.0498952 0.00445045 0.0119068 -0.0242374
internal_count=2399999 1121621 97064 1024557 904749 119808 1278378 93747 3317 330457 9415 321042 947921 752384 195537
shrinkage=0.03


Tree=58
num_leaves=16
num_cat=0
split_feature=61 81 46 64 64 62 73 15 46 61 63 47 70 81 46
split_gain=615.104 419.903 451.045 425.05 320.2 310.113 224.449 183.336 165.57 150.506 128.461 124.874 105.201 135.695 102.726
threshold=0.40114942193031317 -0.00022939759083917855 7.5000000000000009 0.28147299587726599 -0.76745486259460438 67.500000000000014 -1.0000000180025095e-35 3.5000000000000004 2.5000000000000004 0.80109891295433056 84.500000000000014 1.5000000000000002 -0.23724365234374997 0.00032220953195081429 8.5000000000000018
decision_type=2 2 2 2 2 2 2 2 2 2 2 2 2 2 2
left_child=1 4 3 -3 8 -6 -4 9 -1 11 -11 -2 14 -14 -9
right_child=7 2 6 -5 5 -7 -8 12 -10 10 -12 -13 13 -15 -16
leaf_value=-0.045632960335351525 -0.0045304697962473472 -0.0012949108604659357 -0.00083846213281095082 0.00085357493668247243 -0.0039340476674930829 0.0021370720750542925 0.00025298999721183558 -0.0043455469626541747 -0.0056899366903811052 -0.0062856567353635302 0.0022895852490278277 0.00084389988013575904 0.00033402123718824473 -0.0099457281068612135 -0.00031185630698909924
leaf_count=191 3948 588901 218647 96635 8238 96240 766842 10693 186 1608 89597 435977 68781 1181 12334
internal_value=0 -0.00949751 -0.0133531 -0.0330677 0.0519413 0.0552731 0.000360583 0.0270202 -0.867773 0.0342065 0.0712722 0.0265208 -0.0140209 0.00533796 -0.0728577
internal_count=2399999 1775880 1671025 685536 104855 104478 985489 624119 377 531130 91205 439925 92989 69962 23027
shrinkage=0.03


Tree=59
num_leaves=16
num_cat=0
split_feature=61 73 63 83 17 79 71 28 48 18 19 49 19 81 46
split_gain=589.868 438.666 389.95 458.475 303.513 261.663 146.939 141.634 141.537 126.503 115.818 97.2122 90.1594 67.1089 33.2172
threshold=-0.51657509803771962 1.0000000180025095e-35 214.50000000000003 0.00025426176986988901 3.5000000000000004 0.00068845390662227541 -1.0000000180025095e-35 1.5000000000000002 2.5000000000000004 14.500000000000002 26.500000000000004 2.5000000000000004 21.500000000000004 0.00032220953195081429 7.5000000000000009
decision_type=2 2 2 2 2 2 2 2 2 2 2 2 2 2 2
left_child=5 2 3 -2 -4 6 14 -8 11 12 -10 -7 -3 -11 -1
right_child=1 9 4 -5 -6 8 7 -9 10 13 -12 -13 -14 -15 -16
leaf_value=-0.0037881653793006855 -0.00022624543439232739 0.0017217164110725465 0.0034934717354245062 -0.0047271605183869265 0.00050885601296966085 -0.035132499197311401 0.00054661409628193886 -0.00098585125399375251 -0.0031643805055494314 0.00034544454593886788 -0.014264436323931227 -0.012125073212209797 0.0002821650907676077 -0.0058341766008272108 -0.0019366703669256094
leaf_count=15611 1072039 229128 32999 20797 449554 233 65215 333792 4436 104247 1055 598 47733 1623 20939
internal_value=0 0.00745102 6.70457e-05 -0.0103972 0.0237665 -0.033024 -0.0300865 -0.0245114 -0.235292 0.0378434 -0.176733 -0.62095 0.0491194 0.00835048 -0.090932
internal_count=2399999 1958120 1575389 1092836 482553 441879 435557 399007 6322 382731 5491 831 276861 105870 36550
shrinkage=0.03


Tree=60
num_leaves=16
num_cat=0
split_feature=61 81 75 7 16 76 63 47 15 61 63 47 70 80 46
split_gain=568.853 400.225 1007.62 719.624 414.954 403.469 358.798 295.456 173.161 141.109 120.303 117.709 99.5191 129.123 96.6302
threshold=0.40114942193031317 0.00027483578742181815 3.741844669884633 1617.2500000000002 11.500000000000002 5.065931997097139 66.500000000000014 3.5000000000000004 3.5000000000000004 0.80109891295433056 84.500000000000014 1.5000000000000002 -0.23724365234374997 0.00040539528634836187 8.5000000000000018
decision_type=2 2 2 2 2 2 2 2 2 2 2 2 2 2 2
left_child=1 4 3 -3 6 -4 -1 -6 9 11 -11 -2 14 -14 -10
right_child=8 2 5 -5 7 -7 -8 -9 12 10 -12 -13 13 -15 -16
leaf_value=-0.0037455693277686311 -0.0044061420815544022 -0.024305457832950461 -0.0099151696531336285 0.027563389768724446 -0.0043136050155246656 -0.0025128530399184819 0.00022596216283920083 -0.00069679066902504107 -0.0042295131757052844 -0.0060874944376882812 0.0022125607045202678 0.00081270289468819126 0.00038347846007376145 -0.0069474695027628812 -0.00031638252797771925
leaf_count=20909 3948 286 7926 1499 21101 40958 1086699 596502 10693 1608 89597 435977 67716 2246 12334
internal_value=0 -0.00913401 -0.0968141 0.64118 -0.00655852 -0.123785 0.00503241 -0.0273465 0.0259857 0.0329706 0.0688665 0.0255275 -0.0139051 0.00492739 -0.0711424
internal_count=2399999 1775880 50669 1785 1725211 48884 1107608 617603 624119 531130 91205 439925 92989 69962 23027
shrinkage=0.03


Tree=61
num_leaves=16
num_cat=0
split_feature=61 73 16 83 46 68 63 29 79 17 0 28 46 72 82
split_gain=551.886 458.622 360.35 356.629 264.382 221.439 424.134 384.217 271.751 179.738 177.514 160.908 125.876 111.859 62.4484
threshold=-0.66491228342056263 -1.0000000180025095e-35 9.5000000000000018 0.00019698534237328031 4.5000000000000009 5.9305419921875009 74.500000000000014 318.50000000000006 0.00021417635413022686 1.5000000000000002 1602.2500000000002 1.5000000000000002 10.500000000000002 1.5000000000000002 0.00028299428610903632
decision_type=2 2 2 2 2 2 2 2 2 2 2 2 2 2 2
left_child=5 12 3 -3 -4 9 8 -8 -7 10 -1 -11 13 -2 -14
right_child=1 2 4 -5 -6 6 7 -9 -10 11 -12 -13 14 -15 -16
leaf_value=0.031212902206024375 -0.0015647175882299042 0.00090544419226427106 -0.001658890630590008 -0.001819982283272201 9.9155612475334577e-05 -0.054144973102377196 -0.0037366098865574873 -0.064411162795204868 3.0420165670464838e-05 0.00048591859771699667 0.0043754732000708058 -0.0014439835989410981 -7.5338314491736963e-05 2.4540958710304038e-05 -0.006010549381429235
leaf_count=249 176936 904240 87343 45475 665007 256 10567 94 123 46852 2075 234641 172641 51871 1629
internal_value=0 0.00567795 0.0128668 0.0258309 -0.00349748 -0.0405472 -0.179736 -0.142633 -1.21899 -0.0351306 0.242318 -0.0374238 -0.024677 -0.0401455 -0.00436461
internal_count=2399999 2105142 1702065 949715 752350 294857 11040 10661 379 283817 2324 281493 403077 228807 174270
shrinkage=0.03


Tree=62
num_leaves=16
num_cat=0
split_feature=70 48 64 83 76 77 14 65 64 64 11 14 17 69 77
split_gain=538.626 646.538 623.788 713.085 526.587 520.77 440.185 567.788 414.86 362.033 302.458 282.794 258.384 210.445 189.207
threshold=-0.11871337890624999 5.5000000000000009 -0.27392022311687464 0.00025426176986988901 2.9170372554069091 -14.129862401418192 1653.7500000000002 3.7500000000000004 -0.80398148298263539 0.30319648981094366 1649.7500000000002 1622.7500000000002 7.5000000000000009 5.9221191406250009 -6.3362609373580705
decision_type=2 2 2 2 2 2 2 2 2 2 2 2 2 2 2
left_child=1 5 3 11 -5 13 7 -4 -7 14 -8 -2 -11 -1 -3
right_child=2 9 6 4 -6 8 10 -9 -10 12 -12 -13 -14 -15 -16
leaf_value=0.0077203910862453737 -0.0023354332122927628 -0.0023170418899824954 0.0017878709686897744 -0.054989675379840272 -0.0058374183827716933 -0.012296428418221633 -0.022628072923753951 -0.031951911029297238 -0.0020487227021521999 0.0021895588351885245 0.00021323264939826245 7.4465598380276169e-05 7.622314599717868e-05 -0.047936969013403982 -0.00037625191887592942
leaf_count=5482 46703 50426 363859 198 15920 3623 523 449 210016 84777 284790 742498 136011 61 454663
internal_value=0 -0.018602 0.0120811 -0.00652655 -0.214851 -0.0662285 0.0351492 0.0582053 -0.0740879 -0.00422022 0.0057077 -0.002271 0.0295922 0.236555 -0.0190015
internal_count=2399999 945059 1454940 805319 16118 219182 649621 364308 213639 725877 285313 789201 220788 5543 505089
shrinkage=0.03


Tree=63
num_leaves=16
num_cat=0
split_feature=73 46 16 64 68 82 17 68 46 65 14 16 65 16 74
split_gain=520.976 456.925 552.618 456.974 551.337 453.495 312.017 250.312 148.835 141.621 85.0714 77.8411 69.1622 72.7582 23.9985
threshold=-1.0000000180025095e-35 1.5000000000000002 3.5000000000000004 -0.72621628642082203 6.3184814453125009 0.00028299428610903632 3.5000000000000004 6.9765014648437509 9.5000000000000018 0.75000000000000011 1647.2500000000002 7.5000000000000009 3.2500000000000004 5.5000000000000009 -6.4726106282859606
decision_type=2 2 2 2 2 2 2 2 2 2 2 2 2 2 2
left_child=8 3 6 4 -2 -4 -3 -5 9 11 -11 -1 13 -10 -14
right_child=1 2 5 7 -6 -7 -8 -9 12 10 -12 -13 14 -15 -16
leaf_value=-0.0011701577300941629 -0.0077234655372838941 0.0037881578401619898 0.00016837356049494254 -0.00091617608901459039 -0.039927425990969385 -0.0044299116069151335 0.0010908736425104374 -0.0073315870653587112 0.00079676672283819769 0.00047653014663359705 -0.0013037785695621065 -0.0026472784217841392 -0.0079146389343908857 -0.00059684973045606748 -0.034491681601319997
leaf_count=53562 3655 51200 1649499 46646 551 19563 158482 6223 41712 41161 59702 82312 62 185600 69
internal_value=0 0.0072186 0.00989886 -0.0809976 -0.398478 0.00381552 0.0583194 -0.0557239 -0.0301108 -0.047707 -0.019237 -0.0688372 -0.0117931 -0.0113684 -0.739404
internal_count=2399999 1935819 1878744 57075 4206 1669062 209682 52869 464180 236737 100863 135874 227443 227312 131
shrinkage=0.03


Tree=64
num_leaves=16
num_cat=0
split_feature=61 73 69 70 79 47 49 69 16 80 46 17 47 45 46
split_gain=513.771 348.575 293.8 377.707 359.611 236.959 201.634 191.345 143.794 148.879 133.803 126.118 120.146 99.7864 50.2189
threshold=0.31091010570526129 1.0000000180025095e-35 5.2936401367187509 -1.2697143554687498 0.00068845390662227541 7.5000000000000009 42.500000000000007 5.6057739257812509 7.5000000000000009 0.00047672098734524926 55.500000000000007 13.500000000000002 3.5000000000000004 1.5000000000000002 4.5000000000000009
decision_type=2 2 2 2 2 2 2 2 2 2 2 2 2 2 2
left_child=1 2 4 -4 -1 6 7 -2 10 -10 -7 13 -8 -3 -13
right_child=5 11 3 -5 -6 8 12 -9 9 -11 -12 14 -14 -15 -16
leaf_value=-0.00063893770755030742 -0.00051315875305304743 -0.00014642421177271648 -0.0055519822471918369 0.0011075860012001227 -0.0055491193678558065 0.0016661520296116716 0.015710494256624605 0.0018473724730151669 0.00063537781729295663 -0.0072031867837715436 -0.0058202269677914455 -0.0020175244280260518 0.0036630181244918254 0.0013376731290610899 -4.5167560779781243e-05
leaf_count=1115929 234962 54460 8133 137470 13616 213035 946 35745 310758 2206 2181 13661 3632 167000 86265
internal_value=0 -0.0103883 -0.0178145 0.0245154 -0.0232715 0.0206383 -0.00318536 -0.00671352 0.0330561 0.0193352 0.0530063 0.019075 0.205289 0.0324216 -0.0104993
internal_count=2399999 1596534 1275148 145603 1129545 803465 275285 270707 528180 312964 215216 321386 4578 221460 99926
shrinkage=0.03


Tree=65
num_leaves=16
num_cat=0
split_feature=61 73 63 50 15 48 47 64 17 18 17 20 28 19 81
split_gain=497.941 415.908 363.903 404.733 318.04 222.077 284.791 181.296 152.148 126.165 115.647 162.267 119.942 95.7313 59.2115
threshold=-0.66491228342056263 1.0000000180025095e-35 214.50000000000003 1.5000000000000002 3.5000000000000004 5.5000000000000009 2.5000000000000004 -0.76745486259460438 1.5000000000000002 14.500000000000002 3.5000000000000004 128.50000000000003 1.5000000000000002 21.500000000000004 0.00032220953195081429
decision_type=2 2 2 2 2 2 2 2 2 2 2 2 2 2 2
left_child=5 2 3 -2 -4 6 7 -1 -8 13 11 -7 -12 -3 -11
right_child=1 9 4 -5 -6 10 8 -9 -10 14 12 -13 -14 -15 -16
leaf_value=-0.022559055319569317 -0.0058864287810020625 0.0015925441066535419 0.0014161431763447922 -0.00028268881407901445 -7.6828171828366494e-05 0.0031469539880215605 0.0083074445341888292 -0.0069057432415819929 -0.0023616759338591213 0.00025437343930323388 0.00064348689728648716 -0.033769379927191472 -0.0012001857906092188 0.00016891967910680867 -0.0054151280073862105
leaf_count=750 11738 245520 240502 1163579 276902 8393 1242 6213 43393 113267 38146 108 196612 51931 1703
internal_value=0 0.00539356 -0.00155044 -0.0112891 0.0205705 -0.0385175 -0.0982096 -0.286565 -0.0688095 0.0338953 -0.0258537 0.0890758 -0.030018 0.0448017 0.00567389
internal_count=2399999 2105142 1692721 1175317 517404 294857 51598 6963 44635 412421 243259 8501 234758 297451 114970
shrinkage=0.03


Tree=66
num_leaves=16
num_cat=0
split_feature=70 48 64 83 78 76 13 17 64 64 75 80 14 78 79
split_gain=491.839 593.631 566.65 654.352 537.756 494.141 417.416 496.53 374.486 329.454 287.343 283.101 266.474 264.716 176.525
threshold=-0.11871337890624999 5.5000000000000009 -0.27392022311687464 0.00025426176986988901 -12.762495068766246 2.9170372554069091 1658.7500000000002 111.50000000000001 -0.80398148298263539 0.30319648981094366 -4.9465621044743777 -0.0002143744966422792 1622.7500000000002 -5.6818790618533699 -0.00052295871244612587
decision_type=2 2 2 2 2 2 2 2 2 2 2 2 2 2 2
left_child=1 4 3 12 14 -5 7 -4 -6 13 -11 -8 -2 -3 -1
right_child=2 9 6 5 8 -7 11 -9 -10 10 -12 -13 -14 -15 -16
